{"learner":{"attributes":{"best_iteration":"39","best_ntree_limit":"40","scikit_learn":"{\"n_estimators\": 40, \"objective\": \"reg:squarederror\", \"max_depth\": 18, \"max_leaves\": null, \"max_bin\": null, \"grow_policy\": \"lossguide\", \"learning_rate\": null, \"verbosity\": null, \"booster\": null, \"tree_method\": null, \"gamma\": null, \"min_child_weight\": null, \"max_delta_step\": null, \"subsample\": null, \"sampling_method\": null, \"colsample_bytree\": null, \"colsample_bylevel\": null, \"colsample_bynode\": null, \"reg_alpha\": null, \"reg_lambda\": null, \"scale_pos_weight\": null, \"base_score\": null, \"missing\": NaN, \"num_parallel_tree\": null, \"random_state\": null, \"n_jobs\": null, \"monotone_constraints\": null, \"interaction_constraints\": null, \"importance_type\": null, \"gpu_id\": null, \"validate_parameters\": null, \"predictor\": null, \"enable_categorical\": false, \"feature_types\": null, \"max_cat_to_onehot\": null, \"max_cat_threshold\": null, \"eval_metric\": \"rmse\", \"early_stopping_rounds\": null, \"callbacks\": null, \"kwargs\": {\"eta\": 0.17}, \"_estimator_type\": \"regressor\"}"},"feature_names":["f2b02","f2c05","f2c06","f2d11","f2d12","f2e011","f2e021","f2e031","f2e041","f2e051","f2e061","f2e071","f2e081","expense_ps"],"feature_types":["float","float","float","float","float","float","float","float","float","float","float","float","float","float"],"gradient_booster":{"model":{"gbtree_model_param":{"num_parallel_tree":"1","num_trees":"40","size_leaf_vector":"0"},"tree_info":[0,0,0,0,0,0,0,0,0,0,0,0,0,0,0,0,0,0,0,0,0,0,0,0,0,0,0,0,0,0,0,0,0,0,0,0,0,0,0,0],"trees":[{"base_weights":[-1.9280283E1,-2.0286812E1,-1.814345E1],"categories":[],"categories_nodes":[],"categories_segments":[],"categories_sizes":[],"default_left":[1,0,0],"id":0,"left_children":[1,-1,-1],"loss_changes":[8.5403125E2,0E0,0E0],"parents":[2147483647,0,0],"right_children":[2,-1,-1],"split_conditions":[-1.4214718E-1,-3.4487581E0,-3.0843866E0],"split_indices":[13,0,0],"split_type":[0,0,0],"sum_hessian":[1.067E3,5.57E2,5.1E2],"tree_param":{"num_deleted":"0","num_feature":"14","num_nodes":"3","size_leaf_vector":"0"}},{"base_weights":[-1.6008753E1,-1.6641935E1,-1.469564E1,-1.732139E1,-1.6041357E1],"categories":[],"categories_nodes":[],"categories_segments":[],"categories_sizes":[],"default_left":[1,1,0,0,0],"id":1,"left_children":[1,3,-1,-1,-1],"loss_changes":[6.4340625E2,1.309375E1,0E0,0E0,0E0],"parents":[2147483647,0,0,1,1],"right_children":[2,4,-1,-1,-1],"split_conditions":[-1.2374928E-1,-1.547394E-1,-2.4982588E0,-2.9446363E0,-2.7270308E0],"split_indices":[13,13,0,0,0],"split_type":[0,0,0,0,0],"sum_hessian":[1.067E3,7.12E2,3.55E2,3.21E2,3.91E2],"tree_param":{"num_deleted":"0","num_feature":"14","num_nodes":"5","size_leaf_vector":"0"}},{"base_weights":[-1.3294914E1,-1.3737895E1,-1.1980346E1,-1.4330706E1,-1.3218437E1],"categories":[],"categories_nodes":[],"categories_segments":[],"categories_sizes":[],"default_left":[1,1,0,0,0],"id":2,"left_children":[1,3,-1,-1,-1],"loss_changes":[4.5734375E2,5.446875E1,0E0,0E0,0E0],"parents":[2147483647,0,0,1,1],"right_children":[2,4,-1,-1,-1],"split_conditions":[-9.8326884E-2,-1.5364245E-1,-2.0366588E0,-2.43622E0,-2.2471344E0],"split_indices":[13,13,0,0,0],"split_type":[0,0,0,0,0],"sum_hessian":[1.067E3,7.91E2,2.76E2,3.57E2,4.34E2],"tree_param":{"num_deleted":"0","num_feature":"14","num_nodes":"5","size_leaf_vector":"0"}},{"base_weights":[-1.1041071E1,-1.1482102E1,-1.0126754E1,-1.2244066E1,-1.1161173E1],"categories":[],"categories_nodes":[],"categories_segments":[],"categories_sizes":[],"default_left":[1,1,0,0,0],"id":3,"left_children":[1,3,-1,-1,-1],"loss_changes":[3.143828E2,3.7695312E1,0E0,0E0,0E0],"parents":[2147483647,0,0,1,1],"right_children":[2,4,-1,-1,-1],"split_conditions":[-1.2374928E-1,-1.5938742E-1,-1.7215482E0,-2.0814912E0,-1.8973994E0],"split_indices":[13,13,0,0,0],"split_type":[0,0,0,0,0],"sum_hessian":[1.067E3,7.12E2,3.55E2,2E2,5.12E2],"tree_param":{"num_deleted":"0","num_feature":"14","num_nodes":"5","size_leaf_vector":"0"}},{"base_weights":[-9.169426E0,-9.44183E0,-8.082694E0,-1.0408501E1,-9.25231E0,-7.760645E0,-9.386599E0,-8.1519E0,-6.7018695E0],"categories":[],"categories_nodes":[],"categories_segments":[],"categories_sizes":[],"default_left":[1,1,1,0,0,1,0,0,0],"id":4,"left_children":[1,3,5,-1,-1,7,-1,-1,-1],"loss_changes":[2.3983594E2,5.9054688E1,1.9957031E1,0E0,0E0,2.1174805E1,0E0,0E0,0E0],"parents":[2147483647,0,0,1,1,2,2,5,5],"right_children":[2,4,6,-1,-1,8,-1,-1,-1],"split_conditions":[-6.3810684E-2,-1.6162568E-1,1.3567413E-1,-1.7694452E0,-1.5728927E0,1.2773144E-1,-1.5957217E0,-1.385823E0,-1.1393179E0],"split_indices":[13,13,0,0,0,13,0,0,0],"split_type":[0,0,0,0,0,0,0,0,0],"sum_hessian":[1.067E3,8.47E2,2.2E2,1.3E2,7.17E2,1.82E2,3.8E1,1.28E2,5.4E1],"tree_param":{"num_deleted":"0","num_feature":"14","num_nodes":"9","size_leaf_vector":"0"}},{"base_weights":[-7.6176114E0,-8.192244E0,-7.217479E0,-7.416044E0,-6.4975486E0,-6.000384E0,-7.752638E0],"categories":[],"categories_nodes":[],"categories_segments":[],"categories_sizes":[],"default_left":[1,0,1,0,1,0,0],"id":5,"left_children":[1,-1,3,-1,5,-1,-1],"loss_changes":[1.864375E2,0E0,4.301953E1,0E0,4.458252E1,0E0,0E0],"parents":[2147483647,0,0,2,2,4,4],"right_children":[2,-1,4,-1,6,-1,-1],"split_conditions":[-1.4973475E-1,-1.3926815E0,-3.0973696E-3,-1.2607275E0,1.3567413E-1,-1.0200653E0,-1.3179485E0],"split_indices":[13,0,13,0,0,0,0],"split_type":[0,0,0,0,0,0,0],"sum_hessian":[1.067E3,4.3E2,6.37E2,4.92E2,1.45E2,1.08E2,3.7E1],"tree_param":{"num_deleted":"0","num_feature":"14","num_nodes":"7","size_leaf_vector":"0"}},{"base_weights":[-6.327291E0,-5.543982E0,-6.526287E0,-5.7446265E0,-4.7736964E0,-6.8427944E0,-6.2011867E0,-4.8136926E0,-1.3669562E0,-7.8503733E0,-6.7036376E0,-6.2078176E0,-1.6849442E0],"categories":[],"categories_nodes":[],"categories_segments":[],"categories_sizes":[],"default_left":[1,1,1,0,1,1,1,0,0,0,0,0,0],"id":6,"left_children":[1,3,5,-1,7,9,11,-1,-1,-1,-1,-1,-1],"loss_changes":[1.3029297E2,7.041992E0,4.4617188E1,0E0,5.05249E-1,6.1210938E0,2.3574219E0,0E0,0E0,0E0,0E0,0E0,0E0],"parents":[2147483647,0,0,1,1,2,2,4,4,5,5,6,6],"right_children":[2,4,6,-1,8,10,12,-1,-1,-1,-1,-1,-1],"split_conditions":[-5.4931486E-1,2.7269918E-2,-1.4858249E-1,-9.765865E-1,3.6862454E0,-1.6516218E-1,1.0241528E1,-8.183277E-1,-2.3238257E-1,-1.3345635E0,-1.1396184E0,-1.055329E0,-2.8644052E-1],"split_indices":[1,13,13,0,5,13,0,0,0,0,0,0,0],"split_type":[0,0,0,0,0,0,0,0,0,0,0,0,0],"sum_hessian":[1.067E3,2.22E2,8.45E2,1.71E2,5.1E1,4.18E2,4.27E2,5E1,1E0,4.4E1,3.74E2,4.26E2,1E0],"tree_param":{"num_deleted":"0","num_feature":"14","num_nodes":"13","size_leaf_vector":"0"}},{"base_weights":[-5.2571225E0,-5.452688E0,-4.6789813E0,-6.247938E0,-5.334022E0,-4.477007E0,-5.7323713E0,-4.7237206E0,-5.441748E0,-4.695597E0,-3.6682973E0,-6.1688843E0,-3.9810727E0,-4.1867385E0,-5.0026507E0,-3.6986382E0,-1.014945E0,-4.2182946E0,-9.2579556E-1,-3.728574E0,-1.0560207E0],"categories":[],"categories_nodes":[],"categories_segments":[],"categories_sizes":[],"default_left":[1,1,1,0,1,1,1,0,0,1,1,0,0,1,0,1,0,0,0,0,0],"id":7,"left_children":[1,3,5,-1,7,9,11,-1,-1,13,15,-1,-1,17,-1,19,-1,-1,-1,-1,-1],"loss_changes":[9.5240234E1,4.1414062E1,3.327002E1,0E0,2.0052734E1,2.4670898E1,6.784424E0,0E0,0E0,7.6484375E0,6.7388916E-1,0E0,0E0,3.8125E0,0E0,3.3441162E-1,0E0,0E0,0E0,0E0,0E0],"parents":[2147483647,0,0,1,1,2,2,4,4,5,5,6,6,9,9,10,10,13,13,15,15],"right_children":[2,4,6,-1,8,10,12,-1,-1,14,16,-1,-1,18,-1,20,-1,-1,-1,-1,-1],"split_conditions":[-9.8326884E-2,-1.626108E-1,1.3567413E-1,-1.0621495E0,-5.50251E-1,1.2773144E-1,-7.7888423E-1,-8.030325E-1,-9.2509717E-1,-1.1803223E0,4.7575426E0,-1.0487103E0,-6.7678237E-1,3.0940924E0,-8.5045063E-1,4.043907E0,-1.7254065E-1,-7.171101E-1,-1.5738524E-1,-6.338576E-1,-1.7952353E-1],"split_indices":[13,13,0,0,1,13,4,0,0,4,10,0,0,5,0,1,0,0,0,0,0],"split_type":[0,0,0,0,0,0,0,0,0,0,0,0,0,0,0,0,0,0,0,0,0],"sum_hessian":[1.067E3,7.91E2,2.76E2,9.6E1,6.95E2,2.36E2,4E1,1.11E2,5.84E2,1.82E2,5.4E1,3E1,1E1,7.4E1,1.08E2,5.3E1,1E0,7.3E1,1E0,5.2E1,1E0],"tree_param":{"num_deleted":"0","num_feature":"14","num_nodes":"21","size_leaf_vector":"0"}},{"base_weights":[-4.370178E0,-4.756026E0,-4.150152E0,-5.5653434E0,-4.625477E0,-3.714542E0,-4.3065124E0,-4.6382794E0,-1.6668406E0,-3.7235029E0,-1.0149446E0,-4.0438085E0,-4.543056E0,-3.7440379E0,-1.8428836E0,-4.12967E0,-2.9272103E0,-4.5514674E0,-1.2033324E0,-3.8818362E0,-3.2290688E0,-4.1964445E0,-3.0618873E0,-1.2564993E-1,-3.0610058E0,-3.5588505E0,-4.6210976E0,-2.7483509E0,-3.9659717E0,-3.2602441E0,-9.286747E-1,-4.205284E0,-1.1744609E0,-3.6370268E0,-9.9766445E-1,-2.843294E0,-8.045163E-1,-3.9789877E0,-1.1499634E0,-3.2926295E0,-9.33836E-1],"categories":[],"categories_nodes":[],"categories_segments":[],"categories_sizes":[],"default_left":[1,1,1,0,1,1,1,0,0,1,0,1,1,1,0,1,1,1,0,1,1,1,0,0,0,1,0,1,1,1,0,0,0,0,0,0,0,0,0,0,0],"id":8,"left_children":[1,3,5,-1,7,9,11,-1,-1,13,-1,15,17,19,-1,21,23,25,-1,27,29,31,-1,-1,-1,33,-1,35,37,39,-1,-1,-1,-1,-1,-1,-1,-1,-1,-1,-1],"loss_changes":[7.092969E1,1.4511719E1,3.0864258E1,0E0,4.9208984E0,7.932129E-1,1.2699219E1,0E0,0E0,3.6035156E-1,0E0,1.1496338E1,1.6860352E0,5.932617E-1,0E0,3.2648926E0,7.4869385E0,1.109375E0,0E0,2.546875E0,1.9952393E-1,6.711426E-1,0E0,0E0,0E0,5.7614136E-1,0E0,1.1172485E-1,1.5246582E-1,2.402649E-1,0E0,0E0,0E0,0E0,0E0,0E0,0E0,0E0,0E0,0E0,0E0],"parents":[2147483647,0,0,1,1,2,2,4,4,5,5,6,6,9,9,11,11,12,12,13,13,15,15,16,16,17,17,19,19,20,20,21,21,25,25,27,27,28,28,29,29],"right_children":[2,4,6,-1,8,10,12,-1,-1,14,-1,16,18,20,-1,22,24,26,-1,28,30,32,-1,-1,-1,34,-1,36,38,40,-1,-1,-1,-1,-1,-1,-1,-1,-1,-1,-1],"split_conditions":[-1.5285657E-1,-1.6516218E-1,-5.529668E-1,-9.461084E-1,2.2755003E0,6.069522E0,-2.5232434E-1,-7.885075E-1,-2.833629E-1,-5.5368906E-1,-1.7254058E-1,1.4403601E-1,1.0241528E1,6.7176476E-2,-3.132902E-1,1.6803781E0,1.630098E-1,-1.2812761E0,-2.0456651E-1,-1.4624532E0,4.3814354E0,5.449935E0,-5.2052087E-1,-2.1360489E-2,-5.20371E-1,-1.295939E0,-7.855866E-1,2.7016413E0,4.938184E0,3.6862454E0,-1.578747E-1,-7.148983E-1,-1.9965835E-1,-6.1829454E-1,-1.6960296E-1,-4.8335996E-1,-1.3676777E-1,-6.764279E-1,-1.9549377E-1,-5.5974704E-1,-1.5875211E-1],"split_indices":[13,13,1,0,8,8,5,0,0,1,0,13,0,13,0,8,13,8,0,8,10,3,0,0,0,8,0,5,0,5,0,0,0,0,0,0,0,0,0,0,0],"split_type":[0,0,0,0,0,0,0,0,0,0,0,0,0,0,0,0,0,0,0,0,0,0,0,0,0,0,0,0,0,0,0,0,0,0,0,0,0,0,0,0,0],"sum_hessian":[1.067E3,3.8E2,6.87E2,4.7E1,3.33E2,1.88E2,4.99E2,3.31E2,2E0,1.87E2,1E0,2.45E2,2.54E2,1.84E2,3E0,2.25E2,2E1,2.53E2,1E0,1.4E2,4.4E1,2.09E2,1.6E1,1E0,1.9E1,2E1,2.33E2,1.2E1,1.28E2,4.3E1,1E0,2.08E2,1E0,1.9E1,1E0,1.1E1,1E0,1.27E2,1E0,4.2E1,1E0],"tree_param":{"num_deleted":"0","num_feature":"14","num_nodes":"41","size_leaf_vector":"0"}},{"base_weights":[-3.6353257E0,-4.057037E0,-3.4946053E0,-5.127863E0,-3.9419734E0,-3.1021755E0,-3.622874E0,-3.1141317E0,-1.2550974E0,-3.3896184E0,-3.810672E0,-3.454734E0,-2.4748743E0,-4.145974E0,-3.6057148E0,-2.6564262E0,-3.5218482E0,-1.0600553E0,-2.6424742E0,-3.1375737E0,-4.297627E0,-3.6558406E0,-2.4739838E0,-3.030236E0,-1.9391752E0,-1.3367605E0,-1.1496973E-1,-1.0726957E0,-4.3195887E0,-2.021298E0,-5.5897474E-1,-4.3414187E0,-1.101049E0],"categories":[],"categories_nodes":[],"categories_segments":[],"categories_sizes":[],"default_left":[1,1,1,0,0,1,1,0,0,1,1,1,1,1,1,1,0,1,0,0,1,0,0,0,1,0,0,0,1,0,0,0,0],"id":9,"left_children":[1,3,5,-1,-1,7,9,-1,-1,11,13,15,17,19,21,23,-1,25,-1,-1,27,-1,-1,-1,29,-1,-1,-1,31,-1,-1,-1,-1],"loss_changes":[4.9200195E1,1.1944824E1,2.9432617E1,0E0,0E0,6.4086914E-1,1.3497559E1,0E0,0E0,8.009033E0,7.45459E0,4.413574E0,2.4155579E0,4.408325E0,2.8686523E0,5.58609E-1,0E0,8.9235306E-1,0E0,0E0,2.3780518E0,0E0,0E0,0E0,1.16947174E-1,0E0,0E0,0E0,2.1053467E0,0E0,0E0,0E0,0E0],"parents":[2147483647,0,0,1,1,2,2,5,5,6,6,9,9,10,10,11,11,12,12,13,13,14,14,15,15,17,17,20,20,24,24,28,28],"right_children":[2,4,6,-1,-1,8,10,-1,-1,12,14,16,18,20,22,24,-1,26,-1,-1,28,-1,-1,-1,30,-1,-1,-1,32,-1,-1,-1,-1],"split_conditions":[-1.5699774E-1,-8.4363115E-1,-5.49236E-1,-8.717367E-1,-6.701355E-1,7.5634995E0,-2.5232434E-1,-5.294024E-1,-2.1336655E-1,1.2807097E-1,-5.216837E-1,-1.1751769E0,-4.546582E-1,-1.0241969E0,3.644625E-2,1.9567108E0,-5.987142E-1,-4.9795526E-1,-4.4922063E-1,-5.3338754E-1,-1.5647337E-1,-6.214929E-1,-4.2057726E-1,-5.151401E-1,1.1113484E0,-2.272493E-1,-1.9544855E-2,-1.8235828E-1,9.273489E0,-3.4362066E-1,-9.502571E-2,-7.380412E-1,-1.8717833E-1],"split_indices":[13,4,1,0,0,3,5,0,0,13,2,4,1,8,13,8,0,1,0,0,13,0,0,0,1,0,0,0,0,0,0,0,0],"split_type":[0,0,0,0,0,0,0,0,0,0,0,0,0,0,0,0,0,0,0,0,0,0,0,0,0,0,0,0,0,0,0,0,0],"sum_hessian":[1.067E3,2.6E2,8.07E2,2.1E1,2.39E2,2.05E2,6.02E2,2.03E2,2E0,2.77E2,3.25E2,2.56E2,2.1E1,1.16E2,2.09E2,2.3E1,2.33E2,3E0,1.8E1,1.8E1,9.8E1,1.98E2,1.1E1,1.3E1,1E1,2E0,1E0,1E0,9.7E1,9E0,1E0,9.6E1,1E0],"tree_param":{"num_deleted":"0","num_feature":"14","num_nodes":"33","size_leaf_vector":"0"}},{"base_weights":[-3.024077E0,-3.4279902E0,-2.9206305E0,-4.2478213E0,-3.3057473E0,-2.5810156E0,-3.0214262E0,-2.6773772E0,-2.1939254E0,-2.825077E0,-3.1650329E0,-2.6222515E0,-4.1441545E0,-2.2378025E0,-8.1908894E-1,-2.9115462E0,-2.3356767E0,-3.3437774E0,-2.946753E0,-2.6331565E0,-4.7143126E-1,-5.000529E0,-7.8751516E-1,-1.1809088E0,-2.3139691E0,-2.9169135E0,-8.170614E-1,-2.43031E0,-1.0357685E0,-2.5118906E0,-3.4345222E0,-2.9538565E0,-8.553791E-1,-2.6533952E0,-1.2108636E0,-6.382704E-2,-1.4442225E0,-2.3430576E0,-5.897584E-1,-9.6940583E-1,-2.476796E0,-1.0519743E-1,-1.2421119E0,-3.4433844E0,-9.5069075E-1,-2.6622314E0,-6.6397285E-1,-2.3721747E0,-6.183009E-1,-3.4522862E0,-9.5613194E-1,-2.4753592E0,-1.4092984E0,-3.460692E0,-1.0074596E0,-2.602905E0,-1.4675856E0],"categories":[],"categories_nodes":[],"categories_segments":[],"categories_sizes":[],"default_left":[1,1,1,0,0,1,1,1,1,1,1,1,1,1,0,1,1,1,1,1,0,0,0,1,1,0,0,1,1,0,1,0,0,1,0,0,0,1,0,0,0,0,0,1,0,0,0,1,0,1,0,1,0,0,0,0,0],"id":10,"left_children":[1,3,5,-1,-1,7,9,11,13,15,17,19,21,23,-1,25,27,29,31,33,-1,-1,-1,35,37,-1,-1,39,41,-1,43,-1,-1,45,-1,-1,-1,47,-1,-1,-1,-1,-1,49,-1,-1,-1,51,-1,53,-1,55,-1,-1,-1,-1,-1],"loss_changes":[3.461328E1,7.2041016E0,2.1538574E1,0E0,0E0,1.6981201E0,9.527344E0,1.9084473E0,9.4192505E-1,5.3027344E0,4.583008E0,2.394043E0,7.5601654E0,8.094177E-1,0E0,3.034668E-1,3.3874207E0,6.168701E0,7.312012E-2,1.2200928E0,0E0,0E0,0E0,1.3785343E0,6.2435913E-1,0E0,0E0,5.8709717E-1,8.2941914E-1,0E0,5.563965E-1,0E0,0E0,8.8671875E-1,0E0,0E0,0E0,4.9186707E-1,0E0,0E0,0E0,0E0,0E0,5.2978516E-1,0E0,0E0,0E0,2.8692627E-1,0E0,4.8095703E-2,0E0,4.2173767E-1,0E0,0E0,0E0,0E0,0E0],"parents":[2147483647,0,0,1,1,2,2,5,5,6,6,7,7,8,8,9,9,10,10,11,11,12,12,13,13,15,15,16,16,17,17,18,18,19,19,23,23,24,24,27,27,28,28,30,30,33,33,37,37,43,43,47,47,49,49,51,51],"right_children":[2,4,6,-1,-1,8,10,12,14,16,18,20,22,24,-1,26,28,30,32,34,-1,-1,-1,36,38,-1,-1,40,42,-1,44,-1,-1,46,-1,-1,-1,48,-1,-1,-1,-1,-1,50,-1,-1,-1,52,-1,54,-1,56,-1,-1,-1,-1,-1],"split_conditions":[-1.589011E-1,-1.6642548E-1,-5.5334306E-1,-7.2212964E-1,-5.61977E-1,6.004222E-2,-2.5232434E-1,2.886336E-1,3.680881E0,-3.507497E-2,2.562108E-1,2.81287E0,4.938184E0,8.197585E-2,-1.3924512E-1,6.235466E0,-4.1516903E-1,-1.1736326E0,1.3387015E0,-5.5368906E-1,-8.014332E-2,-8.500899E-1,-1.3387758E-1,-1.1072875E0,3.6862454E0,-4.958753E-1,-1.3890044E-1,-5.322999E-1,-4.4771183E-1,-4.270214E-1,4.7846875E0,-5.021556E-1,-1.4541446E-1,6.069522E0,-2.0584682E-1,-1.0850596E-2,-2.4551782E-1,4.3639355E0,-1.0025893E-1,-1.6479899E-1,-4.2105532E-1,-1.7883563E-2,-2.1115904E-1,2.2446024E0,-1.6161743E-1,-4.5257935E-1,-1.1287539E-1,-6.7278993E-1,-1.0511116E-1,9.273489E0,-1.6254243E-1,8.8441837E-1,-2.3958074E-1,-5.8831763E-1,-1.7126814E-1,-4.4249386E-1,-2.4948955E-1],"split_indices":[13,13,1,0,0,13,5,0,10,13,2,5,0,13,0,3,5,8,10,1,0,0,0,2,5,0,0,1,1,0,7,0,0,8,0,0,0,3,0,0,0,0,0,10,0,0,0,4,0,0,0,9,0,0,0,0,0],"split_type":[0,0,0,0,0,0,0,0,0,0,0,0,0,0,0,0,0,0,0,0,0,0,0,0,0,0,0,0,0,0,0,0,0,0,0,0,0,0,0,0,0,0,0,0,0,0,0,0,0,0,0,0,0,0,0,0,0],"sum_hessian":[1.067E3,2.11E2,8.56E2,2.3E1,1.88E2,2.02E2,6.54E2,1.57E2,4.5E1,2.85E2,3.69E2,1.54E2,3E0,4.3E1,2E0,2.38E2,4.7E1,1.95E2,1.74E2,1.53E2,1E0,2E0,1E0,4E0,3.9E1,2.37E2,1E0,4.3E1,4E0,2.2E1,1.73E2,1.73E2,1E0,1.5E2,3E0,1E0,3E0,3.8E1,1E0,2E0,4.1E1,1E0,3E0,1.72E2,1E0,1.49E2,1E0,3.7E1,1E0,1.71E2,1E0,3.2E1,5E0,1.7E2,1E0,2.7E1,5E0],"tree_param":{"num_deleted":"0","num_feature":"14","num_nodes":"57","size_leaf_vector":"0"}},{"base_weights":[-2.517718E0,-3.1780748E0,-2.4703434E0,-3.8210297E0,-2.8888345E0,-2.5486646E0,-2.1840334E0,-3.9150627E0,-1.1112356E0,-2.914603E0,-8.0020523E-1,-2.468661E0,-2.768331E0,-2.01871E0,-2.9314234E0,-2.4337559E0,-2.9914513E0,-2.8058336E0,-1.0881151E0,-2.1106462E0,-1.3140265E0,-3.113088E0,-1.109821E0,-2.1626518E0,-2.5356076E0,-3.1483653E0,-1.5144427E0,-3.0838935E0,-2.493114E0,-1.3649306E0,-3.5632262E-1,-2.2769911E0,-1.8472137E0,-1.3557749E0,-1.7690754E-1,-3.1581008E0,-8.138275E-1,-1.8050791E0,-2.3710566E0,-2.7391648E0,-2.3721704E0,-3.6338096E0,-2.3087134E0,-4.450059E-1,-1.6705503E0,-1.9777368E0,-2.4864178E0,-4.1547918E-1,-1.8623818E0,-1.2099636E0,-2.3611634E0,-7.279563E-1,-2.416232E0,-1.4847412E0,-4.0155373E0,-2.3893616E0,-6.7046785E-1,-2.925253E-1,-2.010125E0,-2.6566913E0,-1.7712369E0,-1.9021728E0,-9.885384E-1,-1.5630549E0,-8.861087E-1,-2.9160964E0,-1.5748285E0,-1.0737864E0,1.5476704E-1,-2.13304E0,-2.6831274E0,-2.0624058E0,-9.847853E-1,-2.6923037E0,-6.33904E-1,-3.678341E-1,-1.8575343E0,-1.024574E0,-1.955168E0,-7.0801365E-1,-1.5999445E0,-3.171581E0,-1.6686172E0,-2.0478048E0,-1.1335598E0,-2.5635114E0,-1.2253398E0,-2.7625303E0,-1.1984653E0,-9.625578E-2,-1.2488766E0,-1.1112614E0,-2.0888138E-1,-3.880054E-1,-8.472904E-1,-3.290899E0,-8.698821E-1,-7.372608E-1,-2.5975423E0,-1.4022825E0,1.2680118E-1,-2.7997432E0,-6.370096E-1,-1.5951157E-1,-9.001171E-1,-3.53245E0,-1.3887634E0,-1.7396139E0,-7.200542E-1,-1.09148026E-1,2.9934978E-1,-2.8331923E0,-7.4761105E-1,-5.0834054E-1,-1.1902256E0,-3.6969965E0,-1.0257654E0,-9.643604E-1,-2.095723E0,-3.38406E-1,-1.1161165E0,-2.8644357E0,-8.229723E-1],"categories":[],"categories_nodes":[],"categories_segments":[],"categories_sizes":[],"default_left":[1,1,1,1,1,1,1,0,0,0,0,1,1,1,1,1,1,1,1,1,1,1,0,1,1,1,1,0,0,0,0,1,1,0,0,0,0,1,1,0,0,1,1,0,0,1,1,0,1,1,1,1,1,0,0,0,0,0,1,1,1,0,0,1,1,1,1,0,0,1,1,0,1,0,0,0,0,1,0,1,0,1,0,0,0,1,1,1,0,0,0,0,0,0,1,1,0,0,0,1,1,1,0,0,1,1,0,1,1,0,0,1,0,0,0,0,0,0,0,0,0,0,0],"id":11,"left_children":[1,3,5,7,9,11,13,-1,-1,-1,-1,15,17,19,21,23,25,27,29,31,33,35,-1,37,39,41,43,-1,-1,-1,-1,45,47,-1,-1,-1,-1,49,51,-1,-1,53,55,-1,-1,57,59,-1,61,63,65,67,69,-1,-1,-1,-1,-1,71,73,75,-1,-1,77,79,81,83,-1,-1,85,87,-1,89,-1,-1,-1,-1,91,-1,93,-1,95,-1,-1,-1,97,99,101,-1,-1,-1,-1,-1,-1,103,105,-1,-1,-1,107,109,111,-1,-1,113,115,-1,117,119,-1,-1,121,-1,-1,-1,-1,-1,-1,-1,-1,-1,-1,-1],"loss_changes":[2.5561035E1,1.607544E0,1.6880371E1,2.3605347E-1,4.1259766E-1,6.873535E0,2.1512817E1,0E0,0E0,0E0,0E0,3.3217773E0,9.549438E0,9.212036E0,9.119995E0,9.703369E0,2.648407E0,9.2677E0,7.29074E-1,2.8928223E0,8.995018E-1,9.4873047E-1,0E0,7.4196777E0,6.6101074E0,3.0234985E0,9.133148E-2,0E0,0E0,0E0,0E0,1.0363464E0,7.029419E-1,0E0,0E0,0E0,0E0,1.7660995E1,5.3670044E0,0E0,0E0,7.1637115E0,1.1559296E-1,0E0,0E0,1.8135376E0,1.6267395E0,0E0,4.493103E-1,2.2741737E0,8.934921E0,1.3872762E0,1.3059692E0,0E0,0E0,0E0,0E0,0E0,2.7401733E-1,1.1748047E0,8.911629E-1,0E0,0E0,9.5282364E-1,1.2826986E0,1.2594604E-1,8.093338E-1,0E0,0E0,1.6395782E1,1.8761902E0,0E0,8.183999E-1,0E0,0E0,0E0,0E0,3.3356E-1,0E0,4.289322E-1,0E0,7.075653E-1,0E0,0E0,0E0,1.35849E-1,4.484335E0,1.4595032E0,0E0,0E0,0E0,0E0,0E0,0E0,2.5608492E-1,6.0780334E-1,0E0,0E0,0E0,2.4295788E0,1.5481156E-1,6.275635E-1,0E0,0E0,5.3153706E-1,3.3242035E-1,0E0,7.3971367E-1,6.803949E-1,0E0,0E0,9.207153E-2,0E0,0E0,0E0,0E0,0E0,0E0,0E0,0E0,0E0,0E0,0E0],"parents":[2147483647,0,0,1,1,2,2,3,3,4,4,5,5,6,6,11,11,12,12,13,13,14,14,15,15,16,16,17,17,18,18,19,19,20,20,21,21,23,23,24,24,25,25,26,26,31,31,32,32,37,37,38,38,41,41,42,42,45,45,46,46,48,48,49,49,50,50,51,51,52,52,58,58,59,59,60,60,63,63,64,64,65,65,66,66,69,69,70,70,72,72,77,77,79,79,81,81,85,85,86,86,87,87,94,94,95,95,99,99,100,100,101,101,104,104,105,105,107,107,108,108,111,111],"right_children":[2,4,6,8,10,12,14,-1,-1,-1,-1,16,18,20,22,24,26,28,30,32,34,36,-1,38,40,42,44,-1,-1,-1,-1,46,48,-1,-1,-1,-1,50,52,-1,-1,54,56,-1,-1,58,60,-1,62,64,66,68,70,-1,-1,-1,-1,-1,72,74,76,-1,-1,78,80,82,84,-1,-1,86,88,-1,90,-1,-1,-1,-1,92,-1,94,-1,96,-1,-1,-1,98,100,102,-1,-1,-1,-1,-1,-1,104,106,-1,-1,-1,108,110,112,-1,-1,114,116,-1,118,120,-1,-1,122,-1,-1,-1,-1,-1,-1,-1,-1,-1,-1,-1],"split_conditions":[-1.641433E-1,-4.7486544E-1,-6.432663E-2,1.0117954E0,2.4691446E0,-2.3054683E-1,4.675494E-1,-6.6556066E-1,-1.8891005E-1,-4.954825E-1,-1.3603489E-1,1.3478453E0,1.2772672E0,3.0981904E-1,5.78979E-1,-7.1634996E-1,-8.0196425E-2,5.0913554E-1,-1.1731205E0,-2.0916922E-1,3.3972938E0,2.4807343E0,-1.8866956E-1,1.2135875E-1,3.80472E-1,-9.04669E-1,-6.725E-3,-5.242619E-1,-4.2382938E-1,-2.3203821E-1,-6.0574844E-2,-1.1068144E0,-2.0944605E0,-2.3048173E-1,-3.0074282E-2,-5.3687716E-1,-1.3835068E-1,-5.47969E-1,-1.4397027E0,-4.6565804E-1,-4.03269E-1,-1.8183947E0,8.613702E-1,-7.5651005E-2,-2.8399357E-1,-6.246613E-2,1.2807097E-1,-7.063146E-2,2.246903E0,-5.676998E-1,-3.0938512E-1,-1.0577017E0,-4.5105183E-1,-2.52406E-1,-6.826413E-1,-4.0619147E-1,-1.1397953E-1,-4.97293E-2,-1.1188214E0,2.1302166E0,-1.9741919E0,-3.2336938E-1,-1.6805153E-1,-1.0928769E0,-3.076045E-1,-8.184967E-1,4.1039068E-1,-1.8254368E-1,2.6310397E-2,-8.060093E-1,1.0892808E0,-3.50609E-1,-1.1890717E0,-4.5769164E-1,-1.0776368E-1,-6.25318E-2,-3.1578082E-1,-1.1526403E0,-3.3237857E-1,-2.2974098E-1,-2.7199057E-1,3.3519123E0,-2.8366494E-1,-3.4812683E-1,-1.9270517E-1,1.4805359E-1,3.7073416E-1,3.6617154E-1,-2.037391E-1,-1.6363483E-2,-2.1230902E-1,-1.8891443E-1,-3.5509836E-2,-6.596092E-2,-5.202229E-1,1.3112521E0,-1.4787996E-1,-1.2533434E-1,-4.415822E-1,5.337754E-1,-5.2050596E-1,3.8089347E0,-1.0829163E-1,-2.7116967E-2,-1.1490862E0,6.1615176E0,-2.3608978E-1,-1.1294833E0,-1.241024E-1,-1.8555164E-2,5.0889462E-2,2.569729E0,-1.2709388E-1,-8.641789E-2,-2.0233835E-1,-6.284894E-1,-1.7438012E-1,-1.6394128E-1,-3.562729E-1,-5.752902E-2,-1.8973981E-1,-4.8695406E-1,-1.3990529E-1],"split_indices":[13,11,13,1,1,6,0,0,0,0,0,5,10,13,4,2,3,2,4,9,1,3,0,10,4,2,3,0,0,0,0,4,5,0,0,0,0,1,8,0,0,9,2,0,0,13,13,0,8,10,10,2,9,0,0,0,0,0,4,11,10,0,0,9,11,2,9,0,0,9,11,0,2,0,0,0,0,9,0,3,0,7,0,0,0,10,5,12,0,0,0,0,0,0,10,3,0,0,0,8,1,3,0,0,2,1,0,2,13,0,0,8,0,0,0,0,0,0,0,0,0,0,0],"split_type":[0,0,0,0,0,0,0,0,0,0,0,0,0,0,0,0,0,0,0,0,0,0,0,0,0,0,0,0,0,0,0,0,0,0,0,0,0,0,0,0,0,0,0,0,0,0,0,0,0,0,0,0,0,0,0,0,0,0,0,0,0,0,0,0,0,0,0,0,0,0,0,0,0,0,0,0,0,0,0,0,0,0,0,0,0,0,0,0,0,0,0,0,0,0,0,0,0,0,0,0,0,0,0,0,0,0,0,0,0,0,0,0,0,0,0,0,0,0,0,0,0,0,0],"sum_hessian":[1.067E3,6.7E1,1E3,1.7E1,5E1,7.79E2,2.21E2,1.6E1,1E0,4.9E1,1E0,5.8E2,1.99E2,1.84E2,3.7E1,5.49E2,3.1E1,1.94E2,5E0,1.61E2,2.3E1,3.3E1,4E0,1.56E2,3.93E2,2.7E1,4E0,9.8E1,9.6E1,3E0,2E0,9.4E1,6.7E1,2.2E1,1E0,3.2E1,1E0,6.1E1,9.5E1,1.68E2,2.25E2,1.5E1,1.2E1,1E0,3E0,4.3E1,5.1E1,1E0,6.6E1,3.1E1,3E1,3E0,9.2E1,3E0,1.2E1,1.1E1,1E0,1E0,4.2E1,3.9E1,1.2E1,6.2E1,4E0,1.3E1,1.8E1,1.6E1,1.4E1,2E0,1E0,4.9E1,4.3E1,3.9E1,3E0,3.8E1,1E0,1E0,1.1E1,7E0,6E0,1.6E1,2E0,1.2E1,4E0,5E0,9E0,3.2E1,1.7E1,4E1,3E0,1E0,2E0,6E0,1E0,6E0,1E1,1.1E1,1E0,1E0,3.1E1,1.5E1,2E0,3.9E1,1E0,1E0,9E0,9E0,2E0,9E0,6E0,1E0,1E0,3.8E1,1E0,5E0,4E0,8E0,1E0,4E0,5E0,4E0,2E0,3.7E1,1E0],"tree_param":{"num_deleted":"0","num_feature":"14","num_nodes":"123","size_leaf_vector":"0"}},{"base_weights":[-2.103204E0,-2.7704113E0,-2.0684018E0,-2.797065E0,-7.321882E-1,-2.1328473E0,-1.8274293E0,-2.1844075E0,-1.9084233E0,-1.6884774E0,-2.4558156E0,-2.1058295E0,-2.407963E0,-1.7650146E0,-1.1014981E0,-2.6037223E0,-9.5888555E-1,-1.9468075E0,-2.1922526E0,-2.4487913E0,-9.519043E-1,-1.5726888E0,-1.94249E0,-1.1353137E0,-1.6187048E-1,-2.6414318E0,-6.79656E-1,-2.0108001E0,-1.0489813E0,-2.2915328E0,-1.8990995E0,-2.809429E0,-2.2658339E0,-1.1909018E0,-3.1593958E-1,-1.4793353E0,-2.1062353E0,-2.0156238E0,-1.3600961E0,-2.7347803E0,-1.2809594E0,-1.7645972E0,-2.1406076E0,-4.186654E-1,-1.3526385E0,-2.4976633E0,-2.0869448E0,-1.0696831E0,-2.1286187E0,-8.005347E-1,-2.3000753E0,-1.2830739E0,-1.6968325E0,-1.8490927E0,-2.4516902E0,-1.4677278E0,-8.807421E-2,-2.7777278E0,-7.446523E-1,-3.439099E-1,-1.8055393E0,-2.1506255E0,-5.543871E-1,-1.11442566E-1,-4.5782146E-1,-9.5288026E-1,-2.548901E0,-1.1095047E-1,-2.1028852E0,-4.5601892E-1,-1.2438365E0,-1.4271492E0,-2.2320917E0,-9.1573524E-1,-2.2746658E-1,-1.4912541E-1,-1.3347512E0,-1.7911137E0,-1.884098E-1,-1.9050349E0,-1.0840493E0,-2.5293477E0,-6.43414E-1,-2.1062698E0,-1.4245753E0,-2.1601388E0,-5.901222E-1,1.4161205E-1,-1.2619064E0,-2.5619822E0,-6.138568E-1,-2.1104364E0,-6.134782E-1,-1.3118316E0,-1.4595318E-1,-4.429199E-1,-1.9262916E0,-2.6766062E-1,4.3972492E-2,-1.3662488E0,-4.8036513E-1,-7.4828434E-1,-1.8792694E0,-4.3084002E-1,1.4822531E-1,-2.1442134E0,-1.5896549E0,-2.1581783E0,-8.85094E-1,-1.6272544E0,-6.638013E-1,-2.3191304E0,-2.8743525E0,-1.3546208E0,-3.7778568E-1,-2.0575693E0,-5.6931305E-1,-1.4757055E0,-9.01254E-1,9.402275E-2,-8.145704E-1,-1.9274137E0,-3.1375933E-1,-1.6456659E0,-6.303523E-1,-2.236455E0,-1.0902665E0,-7.969952E-2,-1.693975E0,-4.2675304E-1,-1.1615696E0,-1.5152923E0,-2.4627957E0,-2.9429324E0,-9.9870205E-2,-1.5033803E0,-3.3656836E-1,-1.0273718E0,1.1690283E-1,-1.8006573E0,-7.637403E-1,-1.7351296E0,-2.774035E-1,-3.1969492E0,-2.104982E0,-1.8528641E0,-4.304676E-1,-1.8957589E0,-7.284085E-1,-6.900101E-1,2.739048E-1,-8.461399E-1,-3.2526777E0,-5.215311E-1,-2.0175726E0],"categories":[],"categories_nodes":[],"categories_segments":[],"categories_sizes":[],"default_left":[1,1,1,0,0,1,1,1,0,1,1,1,1,1,1,1,0,1,1,1,1,1,1,0,0,1,0,1,1,1,1,0,1,0,0,1,0,1,1,1,0,1,1,1,0,1,1,1,1,1,0,1,1,1,1,0,0,0,0,0,1,1,0,0,0,1,1,0,1,0,1,1,0,0,0,1,1,1,1,1,0,0,0,1,1,0,0,0,0,1,0,0,0,1,0,0,1,0,0,1,1,0,1,0,0,0,1,1,0,1,1,1,1,0,0,0,0,1,1,0,0,0,0,0,0,0,0,0,1,0,0,1,0,1,0,0,0,0,0,1,0,1,1,1,0,0,0,1,0,0,0,0,0,0,0],"id":12,"left_children":[1,3,5,-1,-1,7,9,11,-1,13,15,17,19,21,23,25,-1,27,29,31,33,35,37,-1,-1,39,-1,41,43,45,47,-1,49,-1,-1,51,-1,53,55,57,-1,59,61,63,-1,65,67,69,71,73,-1,75,77,79,81,-1,-1,-1,-1,-1,83,85,-1,-1,-1,87,89,-1,91,-1,93,95,-1,-1,-1,97,99,101,103,105,-1,-1,-1,107,109,-1,-1,-1,-1,111,-1,-1,-1,113,-1,-1,115,-1,-1,117,119,-1,121,-1,-1,-1,123,125,-1,127,129,131,133,-1,-1,-1,-1,135,137,-1,-1,-1,-1,-1,-1,-1,-1,-1,139,-1,-1,141,-1,143,-1,-1,-1,-1,-1,145,-1,147,149,151,-1,-1,-1,153,-1,-1,-1,-1,-1,-1,-1],"loss_changes":[1.9068848E1,6.6833496E-1,1.1926758E1,0E0,0E0,5.0654297E0,1.5237488E1,6.2070312E0,0E0,6.3670654E0,5.9167786E0,2.3701172E0,7.180664E0,2.47464E0,5.78804E-1,6.7160034E-1,0E0,8.175049E0,4.5250244E0,3.8614502E0,5.3571033E-1,1.0182495E0,6.659851E-1,0E0,0E0,6.877899E-1,0E0,1.5278931E0,2.1132946E0,4.1917725E0,1.3523468E1,0E0,3.5775146E0,0E0,0E0,9.816284E-1,0E0,4.7729492E-1,1.5136471E0,4.9568176E-1,0E0,3.0435028E0,4.6032715E-1,2.1157026E-2,0E0,5.9612427E0,3.4834595E0,1.570221E0,1.4598083E0,5.577159E-2,0E0,2.3207245E0,4.2134476E0,2.4594116E-1,6.1940765E-1,0E0,0E0,0E0,0E0,0E0,3.9880676E0,2.5439453E-1,0E0,0E0,0E0,1.8698344E0,1.0092163E0,0E0,2.11792E-2,0E0,9.282913E-1,4.550783E0,0E0,0E0,0E0,8.04364E-2,4.4705963E-1,1.3517075E0,3.0869296E-1,2.8761292E-1,0E0,0E0,0E0,1.18270874E-1,3.5456161E0,0E0,0E0,0E0,0E0,9.958496E-1,0E0,0E0,0E0,4.7784805E-2,0E0,0E0,7.558441E-2,0E0,0E0,6.5499115E-1,6.524786E-1,0E0,1.4302521E0,0E0,0E0,0E0,3.0594254E-1,6.945801E-2,0E0,2.23983E0,4.482572E-1,3.428131E0,7.3170166E0,0E0,0E0,0E0,0E0,4.3977356E-1,1.4041786E0,0E0,0E0,0E0,0E0,0E0,0E0,0E0,0E0,0E0,8.080368E-1,0E0,0E0,2.784277E0,0E0,1.5717773E0,0E0,0E0,0E0,0E0,0E0,5.615349E-1,0E0,2.3620224E-1,8.7141734E-1,9.159851E-1,0E0,0E0,0E0,2.8697395E-1,0E0,0E0,0E0,0E0,0E0,0E0,0E0],"parents":[2147483647,0,0,1,1,2,2,5,5,6,6,7,7,9,9,10,10,11,11,12,12,13,13,14,14,15,15,17,17,18,18,19,19,20,20,21,21,22,22,25,25,27,27,28,28,29,29,30,30,32,32,35,35,37,37,38,38,39,39,41,41,42,42,43,43,45,45,46,46,47,47,48,48,49,49,51,51,52,52,53,53,54,54,60,60,61,61,65,65,66,66,68,68,70,70,71,71,75,75,76,76,77,77,78,78,79,79,83,83,84,84,89,89,93,93,96,96,99,99,100,100,102,102,106,106,107,107,109,109,110,110,111,111,112,112,117,117,118,118,128,128,131,131,133,133,139,139,141,141,142,142,143,143,147,147],"right_children":[2,4,6,-1,-1,8,10,12,-1,14,16,18,20,22,24,26,-1,28,30,32,34,36,38,-1,-1,40,-1,42,44,46,48,-1,50,-1,-1,52,-1,54,56,58,-1,60,62,64,-1,66,68,70,72,74,-1,76,78,80,82,-1,-1,-1,-1,-1,84,86,-1,-1,-1,88,90,-1,92,-1,94,96,-1,-1,-1,98,100,102,104,106,-1,-1,-1,108,110,-1,-1,-1,-1,112,-1,-1,-1,114,-1,-1,116,-1,-1,118,120,-1,122,-1,-1,-1,124,126,-1,128,130,132,134,-1,-1,-1,-1,136,138,-1,-1,-1,-1,-1,-1,-1,-1,-1,140,-1,-1,142,-1,144,-1,-1,-1,-1,-1,146,-1,148,150,152,-1,-1,-1,154,-1,-1,-1,-1,-1,-1,-1],"split_conditions":[-1.6505343E-1,3.2546387E0,-6.432663E-2,-4.7550106E-1,-1.24472E-1,1.1392035E0,4.675494E-1,-2.2587359E-1,-3.2443196E-1,3.0981904E-1,5.78979E-1,-4.1187906E-1,1.2772672E0,-1.1658506E0,3.3972938E0,8.6864185E-1,-1.6301055E-1,2.0328622E0,-3.0415672E-1,-3.3775383E-1,-1.1731205E0,-2.7171674E-1,1.5720645E-1,-1.9300334E-1,-2.7517982E-2,1.0246565E1,-1.15541525E-1,-2.4382813E-1,2.4573596E0,-1.18867576E-1,-1.1784759E0,-4.7760293E-1,-1.1990063E0,-2.024533E-1,-5.3709727E-2,4.5136285E-1,-3.5806E-1,5.7487017E-1,4.0385622E-1,2.4807343E0,-2.177631E-1,-1.16571E0,3.9913535E0,-4.9872005E-1,-2.2994855E-1,-1.3218853E0,-1.1435091E-1,-2.7128986E-1,-1.1193799E0,2.2980894E-1,-3.9101282E-1,-5.9405E-2,1.1657608E0,5.7818854E-1,2.6309175E0,-2.4951373E-1,-1.4972615E-2,-4.7221375E-1,-1.265909E-1,-5.8464684E-2,-8.060093E-1,2.1292267E0,-9.424581E-2,-1.8945236E-2,-7.782965E-2,-5.1591057E-1,4.1381197E0,-1.886158E-2,2.5831695E0,-7.752322E-2,-1.1802288E0,-5.25318E-1,-3.794556E-1,-1.55675E-1,-3.8669318E-2,-1.0291592E0,3.0940924E0,-1.8373982E0,-4.4857198E-1,2.7703583E-1,-1.842884E-1,-4.299891E-1,-1.0938039E-1,7.0780735E0,1.0626059E0,-3.6722362E-1,-1.0032078E-1,2.407405E-2,-2.1452409E-1,5.6801105E-1,-1.04355656E-1,-3.587742E-1,-1.0429129E-1,-2.5925258E-1,-2.481204E-2,-7.529639E-2,1.3112521E0,-4.5502305E-2,7.475324E-3,1.5507954E0,-5.022093E-1,-1.2720834E-1,1.4564383E0,-7.3242806E-2,2.5198303E-2,-3.645163E-1,6.810348E-2,1.2299696E0,-1.5046598E-1,-7.8814745E-1,2.680011E-3,-1.2002193E0,7.9837173E-1,-2.3028554E-1,-6.4223565E-2,-3.497868E-1,-9.678322E-2,-4.0258685E-1,6.667161E-1,1.5983868E-2,-1.3847697E-1,-3.2766032E-1,-5.3339086E-2,-2.797632E-1,-1.071599E-1,-3.8019735E-1,-1.853453E-1,-1.3548918E-2,-1.032583E-1,-7.254802E-2,-1.9746684E-1,2.5931865E-1,-4.1867527E-1,1.9080544E-1,-1.6977934E-2,-2.5557464E-1,-5.7216622E-2,-1.746532E-1,1.9873481E-2,1.457337E0,-1.2983586E-1,2.0551112E0,-5.271399E-1,-1.8497394E0,-3.5784692E-1,-3.149869E-1,-7.317949E-2,-1.5452272E-1,-1.2382945E-1,-1.1730171E-1,4.6563815E-2,-1.4384378E-1,-5.529552E-1,-8.866029E-2,-3.4298736E-1],"split_indices":[13,1,13,0,0,2,0,6,0,13,4,5,10,11,1,2,0,8,3,1,4,7,13,0,0,0,0,9,8,11,4,0,2,0,0,10,0,8,3,3,0,10,0,9,0,8,11,3,2,3,0,13,9,7,1,0,0,0,0,0,9,4,0,0,0,1,8,0,4,0,4,1,0,0,0,2,5,5,2,4,0,0,0,3,8,0,0,0,0,5,0,0,0,1,0,0,3,0,0,8,1,0,5,0,0,0,13,11,0,9,3,2,10,0,0,0,0,4,5,0,0,0,0,0,0,0,0,0,13,0,0,5,0,2,0,0,0,0,0,4,0,8,1,9,0,0,0,13,0,0,0,0,0,0,0],"split_type":[0,0,0,0,0,0,0,0,0,0,0,0,0,0,0,0,0,0,0,0,0,0,0,0,0,0,0,0,0,0,0,0,0,0,0,0,0,0,0,0,0,0,0,0,0,0,0,0,0,0,0,0,0,0,0,0,0,0,0,0,0,0,0,0,0,0,0,0,0,0,0,0,0,0,0,0,0,0,0,0,0,0,0,0,0,0,0,0,0,0,0,0,0,0,0,0,0,0,0,0,0,0,0,0,0,0,0,0,0,0,0,0,0,0,0,0,0,0,0,0,0,0,0,0,0,0,0,0,0,0,0,0,0,0,0,0,0,0,0,0,0,0,0,0,0,0,0,0,0,0,0,0,0,0,0],"sum_hessian":[1.067E3,4.9E1,1.018E3,4.8E1,1E0,7.97E2,2.21E2,6.41E2,1.56E2,1.84E2,3.7E1,4.82E2,1.59E2,1.61E2,2.3E1,3.3E1,4E0,1.78E2,3.04E2,1.54E2,5E0,8.2E1,7.9E1,2.2E1,1E0,3.2E1,1E0,1.65E2,1.3E1,2.22E2,8.2E1,4.7E1,1.07E2,3E0,2E0,7.3E1,9E0,6.8E1,1.1E1,2.9E1,3E0,6.2E1,1.03E2,5E0,8E0,1.05E2,1.17E2,1.9E1,6.3E1,3E0,1.04E2,4.2E1,3.1E1,5.3E1,1.5E1,1E1,1E0,2.8E1,1E0,2E0,6E1,1.02E2,1E0,1E0,4E0,4E0,1.01E2,1E0,1.16E2,5E0,1.4E1,1E1,5.3E1,2E0,1E0,2E0,4E1,2.9E1,2E0,4.8E1,5E0,1.4E1,1E0,3.1E1,2.9E1,1.01E2,1E0,1E0,3E0,1E2,1E0,1.15E2,1E0,1.3E1,1E0,4E0,6E0,1E0,1E0,3.8E1,2E0,3E0,2.6E1,1E0,1E0,2.4E1,2.4E1,2.9E1,2E0,2.2E1,7E0,6.1E1,3.9E1,1.2E1,1E0,5E0,1E0,2.9E1,9E0,1E0,1E0,2.5E1,1E0,2.2E1,2E0,2.6E1,3E0,1E0,2.1E1,6E0,1E0,1.1E1,5E1,3.8E1,1E0,2.8E1,1E0,8E0,1E0,1.8E1,3E0,9E0,2E0,2.7E1,1.1E1,1.7E1,1E0,7E0,2E0,1E0,1E0,1E0,2.6E1,1E0,6E0],"tree_param":{"num_deleted":"0","num_feature":"14","num_nodes":"155","size_leaf_vector":"0"}},{"base_weights":[-1.7582972E0,-2.3114402E0,-1.7294302E0,-2.8233037E0,-1.987525E0,-1.7701491E0,-1.4738294E0,-1.1653677E0,-2.9666705E0,-1.6279052E0,-1.8390812E0,-1.2887424E0,-2.0456238E0,-1.6739438E0,-8.734565E-1,-1.8263376E0,-3.6855729E0,-1.3682994E0,-9.699056E-1,-2.1569464E0,-6.714666E-1,-1.7047584E0,-1.3401294E0,-1.9022083E-1,-1.0429713E0,-1.9498929E0,-1.7143531E0,-1.2405046E0,-1.6253288E0,-7.6013905E-1,-1.3468629E0,-2.299523E0,-1.3396086E0,-1.8552179E0,-1.5783191E0,-1.1626729E0,-2.4313762E0,4.8488617E-2,-2.6202035E-1,-1.0991468E0,-1.282568E-1,-1.5605199E0,-2.0693884E0,-1.0004075E0,-1.7250828E0,-1.3545899E0,-9.478298E-1,-1.7053843E0,-7.586777E-1,-8.2191837E-1,-3.2298708E-1,-1.8921825E0,-7.153128E-1,-2.117796E-1,-1.5865089E0,-1.1943822E0,-1.849699E-1,-1.3130286E0,-2.330955E0,-2.0767035E0,-2.9952908E-1,1.3562632E-1,-1.2123508E0,-6.7722154E-1,-1.3884621E0,-9.871625E-1,-8.0587864E-2,-8.509606E-1,-1.9314241E-1,-6.876647E-1,-1.9090586E0,-1.3365957E0,-8.474024E-1,-1.588201E0,-1.0106174E0,-2.4980845E0,-8.297418E-1,-2.2265513E0,-1.8589834E0,-9.60316E-1,8.603096E-2,-2.8708982E-1,-1.0088984E0,-1.9179153E0,-5.0726414E-1,-1.422574E0,-4.898313E-1,-9.619905E-1,-4.350226E-1,-1.6620951E0,1.2957525E-1,-7.762228E-1,-2.2229292E0,-2.417324E0,-1.9031665E0,-1.1908257E0,-1.9020238E0,-1.9594768E0,-1.2753453E0,-4.6325254E-1,-1.6927446E0,-1.4048448E0,-6.26645E-1,-2.7317693E0,-2.0225325E0,-1.9354905E0,-2.0813179E-1,-2.6633453E-1,-1.2848481E0,-5.198736E-1,-1.9128023E0,-1.6991733E0,-3.2076693E-1,-1.7249303E0,-4.762373E-1,-7.564437E-1,-3.952423E-1,-1.5467291E0,-3.082486E0,-7.7278256E-1,-1.9986379E0,-4.2587072E-1,-8.56046E-1,-5.066646E-1,-1.01442814E-1,2.5062275E-1,-1.7742819E0,-9.69456E-1,-9.138107E-2,-7.9767036E-1,-2.0377665E0,-5.4974586E-1,-1.2408829E-1,-1.6208045E-1,4.0235043E-2,-3.7253952E-1,-1.9029322E0,-2.0593803E0,-5.866046E-1,-2.025945E0,-5.209217E-1,-2.128315E0,-1.1511749E0,-5.8745766E-1,-2.167783E0,-2.2656693E0,-1.3643653E0,-1.2661316E0,-3.4567404E-1,-2.3562005E0,-6.956663E-1,-4.7496668E-1,-1.5816704E0],"categories":[],"categories_nodes":[],"categories_segments":[],"categories_sizes":[],"default_left":[1,1,1,1,0,1,1,0,0,1,1,1,1,1,1,1,0,1,1,1,0,1,1,1,1,1,1,1,1,1,0,0,0,1,1,1,0,0,0,0,0,1,1,1,0,1,1,0,0,1,0,1,0,0,0,1,0,1,1,1,0,0,0,1,0,1,0,0,0,0,1,1,1,1,1,0,0,1,1,0,0,0,0,1,0,0,0,0,0,1,0,1,0,1,1,1,1,0,1,0,1,0,1,1,0,1,0,0,0,0,0,0,0,0,0,1,1,1,0,1,1,0,0,1,1,0,1,0,0,0,1,0,0,0,0,0,1,1,0,1,0,1,1,0,0,1,1,0,0,0,0,0,0],"id":13,"left_children":[1,3,5,7,-1,9,11,-1,-1,13,15,17,19,21,23,25,-1,27,29,31,-1,33,35,37,39,41,43,45,47,49,-1,-1,-1,51,53,55,-1,-1,-1,-1,-1,57,59,61,-1,63,65,-1,-1,67,-1,69,-1,-1,-1,71,-1,73,75,77,-1,-1,-1,79,-1,81,-1,-1,-1,-1,83,85,87,89,91,-1,-1,93,95,-1,-1,-1,-1,97,-1,-1,-1,-1,-1,99,-1,101,-1,103,105,107,109,-1,111,-1,113,-1,115,117,-1,119,-1,-1,-1,-1,-1,-1,-1,-1,-1,121,123,125,-1,127,129,-1,-1,131,133,-1,135,-1,-1,-1,137,-1,-1,-1,-1,-1,139,141,-1,143,-1,145,147,-1,-1,149,151,-1,-1,-1,-1,-1,-1],"loss_changes":[1.3055908E1,2.6786194E0,7.996582E0,5.835266E-1,0E0,5.5759277E0,1.2815155E1,0E0,0E0,8.749573E0,6.9404297E0,1.5391998E0,3.7528381E0,5.5444336E-1,2.0021582E0,4.668213E0,0E0,8.7431335E-1,1.032095E0,5.32074E-1,0E0,1.8088379E0,2.5952759E0,9.840113E-2,6.297951E-1,9.240234E0,6.642456E-1,8.196335E-1,5.100479E-1,2.476635E-1,0E0,0E0,0E0,3.1972046E0,1.2532043E0,5.851364E-1,0E0,0E0,0E0,0E0,0E0,9.714691E0,1.9932251E0,1.8498502E0,0E0,4.6295166E-2,6.367779E-1,0E0,0E0,1.2782097E-1,0E0,8.0126953E-1,0E0,0E0,0E0,1.00997925E-1,0E0,2.8053436E0,1.6906891E0,2.418457E0,0E0,0E0,0E0,9.469073E-1,0E0,1.4690399E-2,0E0,0E0,0E0,0E0,2.9348755E-1,4.6803474E-1,5.4050446E-2,3.5156326E0,6.230974E0,0E0,0E0,2.432434E0,2.6568604E-1,0E0,0E0,0E0,0E0,1.9830322E-1,0E0,0E0,0E0,0E0,0E0,1.3443756E-1,0E0,1.4703579E0,0E0,2.9164429E0,2.1723175E0,3.531828E-1,2.1228027E-1,0E0,3.0961552E0,0E0,1.182251E-1,0E0,3.6180782E-1,9.778687E0,0E0,1.832901E0,0E0,0E0,0E0,0E0,0E0,0E0,0E0,0E0,0E0,6.3471794E-2,2.7596045E-1,4.5345974E0,0E0,4.4746447E-1,3.9518738E-1,0E0,0E0,4.7156215E-2,4.0885355E-2,0E0,9.14093E-1,0E0,0E0,0E0,7.7926636E-2,0E0,0E0,0E0,0E0,0E0,3.0468178E-1,5.4229736E-2,0E0,1.547451E-1,0E0,6.863251E-1,2.5320053E-2,0E0,0E0,2.4827728E0,7.9492664E-1,0E0,0E0,0E0,0E0,0E0,0E0],"parents":[2147483647,0,0,1,1,2,2,3,3,5,5,6,6,9,9,10,10,11,11,12,12,13,13,14,14,15,15,17,17,18,18,19,19,21,21,22,22,23,23,24,24,25,25,26,26,27,27,28,28,29,29,33,33,34,34,35,35,41,41,42,42,43,43,45,45,46,46,49,49,51,51,55,55,57,57,58,58,59,59,63,63,65,65,70,70,71,71,72,72,73,73,74,74,77,77,78,78,83,83,89,89,91,91,93,93,94,94,95,95,96,96,98,98,100,100,102,102,103,103,105,105,115,115,116,116,117,117,119,119,120,120,123,123,124,124,126,126,130,130,136,136,137,137,139,139,141,141,142,142,145,145,146,146],"right_children":[2,4,6,8,-1,10,12,-1,-1,14,16,18,20,22,24,26,-1,28,30,32,-1,34,36,38,40,42,44,46,48,50,-1,-1,-1,52,54,56,-1,-1,-1,-1,-1,58,60,62,-1,64,66,-1,-1,68,-1,70,-1,-1,-1,72,-1,74,76,78,-1,-1,-1,80,-1,82,-1,-1,-1,-1,84,86,88,90,92,-1,-1,94,96,-1,-1,-1,-1,98,-1,-1,-1,-1,-1,100,-1,102,-1,104,106,108,110,-1,112,-1,114,-1,116,118,-1,120,-1,-1,-1,-1,-1,-1,-1,-1,-1,122,124,126,-1,128,130,-1,-1,132,134,-1,136,-1,-1,-1,138,-1,-1,-1,-1,-1,140,142,-1,144,-1,146,148,-1,-1,150,152,-1,-1,-1,-1,-1,-1],"split_conditions":[-1.6505343E-1,-4.7486544E-1,-3.0973696E-3,-1.4683089E0,-3.3787924E-1,-4.1233277E-1,1.0626296E0,-1.9811252E-1,-5.04334E-1,2.0490592E0,6.584201E-1,3.0981904E-1,5.78979E-1,2.1835275E0,2.3613353E0,2.562108E-1,-6.265474E-1,-3.6338067E-1,-7.582083E-1,-1.0797722E0,-1.14149325E-1,2.9218924E-1,4.5921E0,-7.486528E-1,1.1113484E0,-5.510087E-1,-1.4624532E0,-5.423218E-1,2.5916022E-1,-9.209057E-1,-2.289667E-1,-3.9091894E-1,-2.2773346E-1,-2.5652792E-2,3.0181187E-1,1.502639E0,-4.1333395E-1,8.243065E-3,-4.454346E-2,-1.8685496E-1,-2.1803657E-2,-5.6640613E-1,2.6008573E0,3.552476E-1,-2.9326406E-1,-1.9512831E0,1.12521455E-1,-2.8991532E-1,-1.2897521E-1,-1.09709695E-1,-5.4907802E-2,-1.9511349E0,-1.21603176E-1,-3.600253E-2,-2.6970652E-1,-1.0417956E-1,-3.1444885E-2,-3.0415672E-1,-9.545852E-2,-9.351166E-2,-5.0919943E-2,2.3056474E-2,-2.0609964E-1,1.8231957E0,-2.3603855E-1,-5.3760386E-1,-1.3699937E-2,-1.446633E-1,-3.283421E-2,-1.16903E-1,3.9836848E0,-4.6071738E-1,-7.143092E-1,1.5731628E0,1.1432288E0,-4.246744E-1,-1.410561E-1,-1.2581463E-1,-4.8111397E-1,-1.6325372E-1,1.4625263E-2,-4.880527E-2,-1.7151272E-1,1.5010183E0,-8.6234905E-2,-2.4183759E-1,-8.3271325E-2,-1.6353838E-1,-7.3953845E-2,-1.3510354E0,2.2027792E-2,-1.8140313E-1,-3.7789798E-1,-5.184485E-1,3.2173285E0,-4.4200358E-1,-8.959587E-2,-3.3311108E-1,-9.433835E-1,-7.8752935E-2,-5.5286944E-1,-2.3882361E-1,2.365407E-2,-1.203361E0,-3.4383053E-1,-5.403011E-1,-3.5382405E-2,-4.5276873E-2,-2.1842417E-1,-8.837852E-2,-3.251764E-1,-2.8885946E-1,-5.453038E-2,-2.9323816E-1,-8.096034E-2,-2.711021E-1,-1.0790393E0,-4.4922858E-1,-5.2402264E-1,-5.43432E-1,-1.2459394E-1,-7.239802E-2,-1.4552782E-1,-7.315172E-1,-1.0019066E0,4.260587E-2,-1.3435912E-1,-1.6480753E-1,-1.5534783E-2,-1.3560396E-1,4.5864754E0,-9.34568E-2,-2.109501E-2,-2.7553678E-2,6.839957E-3,-6.3331716E-2,8.069742E-1,6.512188E-1,-9.972278E-2,-1.1654123E0,-8.855669E-2,8.049921E-1,-2.825234E-1,-9.9867806E-2,-3.6852312E-1,1.0909448E0,-1.0262661E0,-2.1524239E-1,-5.8764588E-2,-4.005541E-1,-1.18263274E-1,-8.074433E-2,-2.6888397E-1],"split_indices":[13,11,13,5,0,5,0,0,0,8,0,13,4,10,8,2,0,1,11,2,0,4,10,4,1,1,8,1,3,11,0,0,0,13,4,6,0,0,0,0,0,2,9,2,0,10,6,0,0,7,0,9,0,0,0,13,0,3,13,11,0,0,0,5,0,1,0,0,0,0,0,1,9,10,10,0,0,13,4,0,0,0,0,8,0,0,0,0,0,8,0,5,0,2,6,1,11,0,5,0,1,0,8,2,0,1,0,0,0,0,0,0,0,0,0,3,2,1,0,1,13,0,0,4,2,0,5,0,0,0,7,0,0,0,0,0,3,3,0,8,0,1,1,0,0,7,4,0,0,0,0,0,0],"split_type":[0,0,0,0,0,0,0,0,0,0,0,0,0,0,0,0,0,0,0,0,0,0,0,0,0,0,0,0,0,0,0,0,0,0,0,0,0,0,0,0,0,0,0,0,0,0,0,0,0,0,0,0,0,0,0,0,0,0,0,0,0,0,0,0,0,0,0,0,0,0,0,0,0,0,0,0,0,0,0,0,0,0,0,0,0,0,0,0,0,0,0,0,0,0,0,0,0,0,0,0,0,0,0,0,0,0,0,0,0,0,0,0,0,0,0,0,0,0,0,0,0,0,0,0,0,0,0,0,0,0,0,0,0,0,0,0,0,0,0,0,0,0,0,0,0,0,0,0,0,0,0,0,0],"sum_hessian":[1.067E3,4.9E1,1.018E3,1.6E1,3.3E1,8.73E2,1.45E2,2E0,1.4E1,2.93E2,5.8E2,1.12E2,3.3E1,2.75E2,1.8E1,5.78E2,2E0,8.7E1,2.5E1,3E1,3E0,2.48E2,2.7E1,4E0,1.4E1,2.67E2,3.11E2,6.2E1,2.5E1,1.8E1,7E0,2.4E1,6E0,1.07E2,1.41E2,2.5E1,2E0,1E0,3E0,1.3E1,1E0,6.6E1,2.01E2,6E0,3.05E2,4.2E1,2E1,2.2E1,3E0,1.5E1,3E0,1.03E2,4E0,1E0,1.4E2,2.4E1,1E0,5.2E1,1.4E1,2E2,1E0,1E0,5E0,3E0,3.9E1,1.9E1,1E0,1.4E1,1E0,2E0,1.01E2,1.5E1,9E0,2.5E1,2.7E1,1.2E1,2E0,1.13E2,8.7E1,2E0,1E0,1E0,1.8E1,1E2,1E0,1.3E1,2E0,6E0,3E0,2.4E1,1E0,2.4E1,3E0,6.7E1,4.6E1,7E0,8E1,9.2E1,8E0,1E0,2.3E1,3E0,2.1E1,3.4E1,3.3E1,4.5E1,1E0,1E0,6E0,1E0,7.9E1,5E0,3E0,2.2E1,1E0,1.2E1,9E0,9E0,2.5E1,3E0,4.2E1,4E0,8E0,6E0,3E0,1E0,8E0,2E0,1E0,2E0,4E1,5E0,1E0,2E0,1E0,1E0,7E0,3.9E1,1E0,6E0,1E0,3.5E1,4E0,1E0,5E0,2.8E1,7E0,3E0,1E0,2.6E1,2E0,2E0,5E0],"tree_param":{"num_deleted":"0","num_feature":"14","num_nodes":"153","size_leaf_vector":"0"}},{"base_weights":[-1.471248E0,-2.3742542E0,-1.4561299E0,-2.4418747E0,-6.799736E-1,-1.447657E0,-2.693387E0,-1.5042214E0,-1.2765667E0,-3.2680974E0,-1.0293108E0,-1.5850056E0,-1.3593673E0,-1.2145376E0,-1.6408498E0,-1.5221308E0,-1.8248222E0,-1.3675987E0,-7.459278E-1,-1.3292191E0,-1.0288392E0,-1.9984453E0,-1.3224506E0,-1.3842378E0,-1.6095954E0,-1.8714982E0,-5.823496E-1,4.511261E-2,-9.131584E-1,-1.3897101E0,-7.735576E-1,-7.07329E-1,-1.0965706E0,-2.0578625E0,-5.83302E-1,-1.4352304E0,-4.5613432E-1,-1.2916502E0,-1.8627975E0,-1.7758505E0,-1.4887354E0,-2.2048795E0,-1.6724553E0,-1.5861447E-1,-8.1196815E-1,-1.1843004E0,-1.5392555E0,-8.090404E-1,-1.20657444E-1,-5.7566243E-1,-9.6086276E-1,-1.2020191E0,-8.878585E-1,-2.341581E0,-1.2893076E0,-1.4780794E0,-3.3197355E-1,-1.0102575E0,-1.4383848E0,-2.1646783E0,-1.2236965E0,-1.7871045E0,-3.5899162E-1,-1.5049363E0,-7.3736304E-1,-2.5584488E0,-1.6336043E0,-6.997223E-1,-1.6928773E0,-1.3320853E0,-9.07919E-1,-1.6216145E0,-1.0597389E0,-8.415826E-1,-1.7672539E-1,-1.3170667E0,-8.9679796E-1,-9.130864E-1,-3.6485448E-1,-6.388687E-1,-1.370947E0,-1.6137236E0,-1.1483485E0,-2.5552866E0,-8.7240446E-1,-5.4541993E-1,-1.4364692E0,-3.783064E-1,-1.51032E0,-2.7141654E0,4.4366837E-2,-1.0574083E0,-1.715584E0,1.7453353E-1,-1.0193208E0,-3.8543987E-1,-1.6368062E0,-2.2633314E-1,-1.1103282E0,-1.337291E0,-3.4505558E-1,1.240983E-1,-9.7313094E-1,-7.2575915E-1,-3.4178388E-1,-6.552415E-1,-1.5171113E0,-2.178348E0,-1.4139804E0,-1.2800449E0,-5.9639865E-1,-2.7179859E0,-4.641466E-1,-6.489897E-1,-1.1735535E-1,-5.8964664E-1,-1.6572689E0,-2.975009E0,-1.1226721E0,-1.0881596E0,-1.9044018E-1,-1.8462597E0,-7.37381E-2,2.2498512E-1,3.6815166E-2,2.3298264E-2,-1.1302965E0,-1.6880069E0,-9.287998E-1,-1.1637294E0,-2.6145744E-1,-4.094181E-1,-1.0799409E0,-4.0938616E-1,-8.6462265E-1,-2.1402454E-1,-4.833746E-1,-1.7838849E0,-8.9396524E-1,-2.286989E0,-4.9164867E-1,-1.1278456E0,-1.7684227E0,-1.3119853E0,-1.928587E-1,-1.4347941E0,-1.5188654E-1,-2.867547E0,-6.859684E-1,-1.1166474E0,-2.449584E-1,-2.2009246E0,-1.1247739E0,1.1856127E-1,-8.361387E-2,-1.1919519E0,-1.0249138E-2,-2.4765444E-1,-1.0154979E0,-1.2135369E0,-3.3282757E-1,-1.1937205E0,-5.5395174E-1,-6.0756683E-2,-5.1546985E-1,-9.1365165E-1,-1.3813734E-1,-4.5687866E-1,-1.8563956E0,-1.8937874E-1,-9.675664E-1,-2.393586E0,-6.105099E-1,-9.523553E-1,-2.1558201E0,-8.6475563E-1,-1.9799545E0,-1.3330084E0,-3.7217903E-1,6.1597824E-2,-2.4959984E-1,-1.1401471E0,-3.233261E-1,-1.2215853E0,-3.2035828E-1,-3.935938E-1,-1.2671471E0,4.66156E-3,-9.5796585E-2,-1.0613301E0,-6.017394E-1,-1.1170431E0,-2.3796437E0,7.8718185E-2,-6.6910887E-1,-1.3165985E0,-2.626872E-1,-1.0983415E0,-2.3457384E-1,-7.5177795E-1,-1.0108248E-1,-1.263388E0,-1.9265938E-1,-1.4509236E0,-5.844741E-1,-1.1324779E0,-2.9314804E-1,-3.809433E-1,2.2931957E-1,-1.5057572E0,-4.238763E-1],"categories":[],"categories_nodes":[],"categories_segments":[],"categories_sizes":[],"default_left":[1,1,1,0,0,1,1,1,1,0,0,1,1,1,1,1,1,0,1,1,1,1,1,1,1,1,1,0,0,1,1,1,1,1,0,1,0,1,1,1,1,1,1,0,0,1,1,1,0,0,0,1,1,0,0,0,0,1,1,1,1,0,0,1,0,1,0,0,0,1,1,1,1,0,0,1,1,0,0,1,1,1,1,1,0,1,1,0,0,1,0,1,1,1,1,0,1,0,1,0,0,0,1,1,1,0,1,1,1,1,1,1,0,0,0,0,0,0,0,1,0,1,0,0,0,1,1,0,1,1,0,0,1,1,1,0,0,1,1,1,0,1,1,1,0,0,1,0,0,1,0,0,1,0,0,1,0,0,0,0,0,0,0,1,0,0,0,0,0,0,0,0,0,1,0,0,1,0,0,0,0,0,0,0,0,1,1,0,0,1,1,1,0,0,0,1,0,1,0,0,1,0,0,1,0,0,0,0,0,0,0],"id":14,"left_children":[1,3,5,-1,-1,7,9,11,13,-1,-1,15,17,19,21,23,25,-1,27,29,31,33,35,37,39,41,43,-1,-1,45,47,49,51,53,-1,55,-1,57,59,61,63,65,67,-1,-1,69,71,73,-1,-1,-1,75,77,-1,-1,-1,-1,79,81,83,85,-1,-1,87,-1,89,-1,-1,-1,91,93,95,97,-1,-1,99,101,-1,-1,103,105,107,109,111,-1,113,115,-1,-1,117,-1,119,121,123,125,-1,127,-1,129,-1,-1,-1,131,133,135,-1,137,139,141,143,145,147,-1,-1,-1,-1,-1,-1,-1,149,-1,151,-1,-1,-1,153,155,-1,157,159,-1,-1,161,163,165,-1,-1,167,169,171,-1,173,175,177,-1,-1,179,-1,-1,181,-1,-1,183,-1,-1,185,-1,-1,-1,-1,-1,-1,-1,187,-1,-1,-1,-1,-1,-1,-1,-1,-1,189,-1,-1,191,-1,-1,-1,-1,-1,-1,-1,-1,193,195,-1,-1,197,199,201,-1,-1,-1,203,-1,205,-1,-1,207,-1,-1,209,-1,-1,-1,-1,-1,-1,-1],"loss_changes":[1.1122803E1,1.7268372E-1,7.1398926E0,0E0,0E0,8.22168E0,2.3742867E0,6.996338E0,4.0403137E0,0E0,0E0,4.701294E0,4.2907715E-1,3.57312E0,1.4560394E0,2.5841064E0,4.5934753E0,0E0,8.3491206E-1,3.6307373E0,1.2495728E0,6.090164E-2,1.4948082E0,4.771942E0,2.1385498E0,2.5500183E0,3.5769737E-1,0E0,0E0,2.0168152E0,2.7305126E-1,8.112526E-2,5.8340454E-1,3.3729553E-2,0E0,4.0751266E-1,0E0,4.2861633E0,1.9814682E0,8.7323E-1,6.43219E-1,2.2840424E0,6.6970825E-2,0E0,0E0,1.1187363E0,1.0065002E0,1.599245E-1,0E0,0E0,0E0,4.6926117E-1,4.9489975E-2,0E0,0E0,0E0,0E0,5.955906E0,2.672943E0,5.342354E0,6.5970993E-1,0E0,0E0,2.778015E-1,0E0,7.41584E0,0E0,0E0,0E0,1.8727646E0,2.9514122E0,4.3954468E-1,2.967949E-1,0E0,0E0,1.6762161E-1,1.3676128E0,0E0,0E0,4.489212E-1,1.6211929E0,2.8972015E0,1.9261055E0,2.4809494E0,0E0,1.01175666E-1,3.3164406E-1,0E0,0E0,3.7172623E0,0E0,4.0596008E-1,2.6530037E0,1.2561478E-2,2.4561443E0,0E0,4.6220398E-1,0E0,2.3970222E-1,0E0,0E0,0E0,4.6100616E-1,5.2468777E-1,4.126227E-2,0E0,1.7300491E0,1.074543E0,2.2650528E0,7.539978E-1,3.136167E0,1.0720596E0,0E0,0E0,0E0,0E0,0E0,0E0,0E0,2.5492477E-1,0E0,5.9508896E-1,0E0,0E0,0E0,4.046768E-2,1.2998676E0,0E0,1.0283136E-1,5.1338196E-2,0E0,0E0,5.689907E-2,2.6455295E-1,3.368368E-1,0E0,0E0,4.0273666E-1,2.3163033E-1,5.044708E-1,0E0,2.6372833E0,1.5374451E0,5.7102203E-2,0E0,0E0,1.6139665E-1,0E0,0E0,2.286148E-2,0E0,0E0,7.591438E-2,0E0,0E0,5.8184624E-1,0E0,0E0,0E0,0E0,0E0,0E0,0E0,7.323309E-3,0E0,0E0,0E0,0E0,0E0,0E0,0E0,0E0,0E0,2.7835655E-1,0E0,0E0,1.825489E0,0E0,0E0,0E0,0E0,0E0,0E0,0E0,0E0,4.4305822E-1,4.4890022E-1,0E0,0E0,2.6254845E-1,5.249512E-1,5.6826925E-1,0E0,0E0,0E0,6.2711143E-1,0E0,1.07795715E-1,0E0,0E0,3.647575E-1,0E0,0E0,3.7549973E-2,0E0,0E0,0E0,0E0,0E0,0E0,0E0],"parents":[2147483647,0,0,1,1,2,2,5,5,6,6,7,7,8,8,11,11,12,12,13,13,14,14,15,15,16,16,18,18,19,19,20,20,21,21,22,22,23,23,24,24,25,25,26,26,29,29,30,30,31,31,32,32,33,33,35,35,37,37,38,38,39,39,40,40,41,41,42,42,45,45,46,46,47,47,51,51,52,52,57,57,58,58,59,59,60,60,63,63,65,65,69,69,70,70,71,71,72,72,75,75,76,76,79,79,80,80,81,81,82,82,83,83,85,85,86,86,89,89,91,91,92,92,93,93,94,94,96,96,98,98,102,102,103,103,104,104,106,106,107,107,108,108,109,109,110,110,111,111,119,119,121,121,125,125,126,126,128,128,129,129,132,132,133,133,134,134,137,137,138,138,139,139,141,141,142,142,143,143,146,146,149,149,152,152,155,155,163,163,173,173,176,176,185,185,186,186,189,189,190,190,191,191,195,195,197,197,200,200,203,203],"right_children":[2,4,6,-1,-1,8,10,12,14,-1,-1,16,18,20,22,24,26,-1,28,30,32,34,36,38,40,42,44,-1,-1,46,48,50,52,54,-1,56,-1,58,60,62,64,66,68,-1,-1,70,72,74,-1,-1,-1,76,78,-1,-1,-1,-1,80,82,84,86,-1,-1,88,-1,90,-1,-1,-1,92,94,96,98,-1,-1,100,102,-1,-1,104,106,108,110,112,-1,114,116,-1,-1,118,-1,120,122,124,126,-1,128,-1,130,-1,-1,-1,132,134,136,-1,138,140,142,144,146,148,-1,-1,-1,-1,-1,-1,-1,150,-1,152,-1,-1,-1,154,156,-1,158,160,-1,-1,162,164,166,-1,-1,168,170,172,-1,174,176,178,-1,-1,180,-1,-1,182,-1,-1,184,-1,-1,186,-1,-1,-1,-1,-1,-1,-1,188,-1,-1,-1,-1,-1,-1,-1,-1,-1,190,-1,-1,192,-1,-1,-1,-1,-1,-1,-1,-1,194,196,-1,-1,198,200,202,-1,-1,-1,204,-1,206,-1,-1,208,-1,-1,210,-1,-1,-1,-1,-1,-1,-1],"split_conditions":[-1.6681296E-1,1.0117954E0,3.8367314E0,-4.1511872E-1,-1.1559551E-1,-9.49399E-2,-1.1492729E0,6.749759E-1,4.1139716E-1,-5.5557656E-1,-1.7498285E-1,-5.4543592E-2,1.244585E0,-1.9094035E-1,6.0778344E-1,-7.054885E-1,1.2772672E0,-2.3249178E-1,-3.560329E-1,3.0981904E-1,-1.2027639E0,2.5924368E0,-9.4459647E-1,7.367168E-1,4.397831E-2,-3.407982E-1,-1.1202233E0,7.669144E-3,-1.5523693E-1,-1.109221E0,3.3972938E0,-1.1081035E0,2.2570055E-2,1.9052095E0,-9.916134E-2,5.0439754E0,-7.7542834E-2,-9.412425E-3,2.5715864E-1,2.17098E0,9.486942E-1,-5.683793E-1,-1.1119268E0,-2.696446E-2,-1.3803458E-1,8.003207E-1,1.2807097E-1,-4.7017848E-1,-2.0511765E-2,-9.7862616E-2,-1.6334666E-1,1.1122692E0,8.2755363E-1,-3.980688E-1,-2.191823E-1,-2.512735E-1,-5.6435503E-2,-5.534463E-1,-8.859482E-1,-1.0936604E0,9.3996143E-1,-3.0380777E-1,-6.1028577E-2,-6.3864845E-1,-1.2535171E-1,1.8853078E0,-2.7771273E-1,-1.1895279E-1,-2.8778914E-1,3.8278618E-1,8.926419E-1,-9.454406E-2,-1.9741919E0,-1.4306904E-1,-3.0043317E-2,1.6772423E0,1.2174233E0,-1.552247E-1,-6.2025264E-2,-2.196705E-1,-1.4156487E0,5.327312E-1,5.618961E-1,3.9836848E0,-1.4830875E-1,9.4582045E-1,7.9511356E-1,-6.4312086E-2,-2.567544E-1,-1.1630115E-1,7.5423624E-3,3.162294E0,1.3983908E-1,-1.0442961E0,-7.076382E-2,-6.552478E-2,2.0911806E0,-3.8476635E-2,-6.812199E-2,-2.2733948E-1,-5.865945E-2,2.1096712E-2,-7.7791095E-2,8.322495E-2,-1.428147E-1,-1.1139105E-1,-5.1405185E-1,1.569872E-2,-1.1820755E0,3.3173496E-1,-1.5352452E-1,-9.156861E-1,-7.890493E-2,-1.1032825E-1,-1.9950408E-2,-1.0023993E-1,-2.8173572E-1,-5.0575155E-1,-1.9085425E-1,-5.980089E-1,-3.237483E-2,-1.0716326E0,-1.2535477E-2,3.824747E-2,6.2585785E-3,-5.472275E-1,2.896017E-1,-2.8696117E-1,5.832854E-1,-2.5457206E-1,-4.4447765E-2,-6.960108E-2,2.2791868E-1,-2.935347E-1,-2.671184E-1,-3.6384173E-2,-8.217368E-2,-7.3504245E-1,-4.6109277E-1,-8.708138E-1,-8.358028E-2,4.275013E0,-2.8595763E-1,-1.9582444E-1,-3.278598E-2,-2.4391499E-1,-1.076514E0,-4.87483E-1,-1.1661463E-1,-1.1310663E0,-4.164293E-2,-3.741572E-1,2.6172617E-2,2.0155415E-2,-1.4214358E-2,-1.6787759E0,-1.7423534E-3,-4.2101257E-2,-1.7263465E-1,-2.0630127E-1,-5.658069E-2,-2.0293248E-1,-9.41718E-2,-1.1180738E0,-8.762988E-2,-1.5532078E-1,-2.3483349E-2,-7.7669375E-2,-3.1558725E-1,-3.2194387E-2,-1.6448629E-1,-4.069096E-1,-1.0378668E-1,-3.1114614E-1,-3.6648944E-1,-1.4700846E-1,-1.197016E0,-2.2661144E-1,-6.3270435E-2,1.047163E-2,-4.2431973E-2,-1.93825E-1,-5.496544E-2,-2.076695E-1,-5.446091E-2,-5.5002224E-1,1.0652049E0,7.9246523E-4,-1.628542E-2,-1.0023211E-1,-6.1367154E-1,-1.2029045E0,-4.0453944E-1,1.3382092E-2,-1.13748506E-1,-2.260277E-1,-4.4656824E-2,-1.1823578E0,-3.9877553E-2,-1.2780225E-1,-5.271399E-1,-2.1477596E-1,-3.2752093E-2,1.3024539E0,-9.936059E-2,-1.9252124E-1,-4.9835168E-2,-6.4760365E-2,3.898433E-2,-2.5597873E-1,-7.205897E-2],"split_indices":[13,1,5,0,0,13,2,2,0,0,0,6,8,9,13,2,10,0,1,13,2,4,2,9,11,1,2,0,0,4,1,11,13,5,0,4,0,10,1,10,10,2,2,0,0,5,13,9,0,0,0,9,11,0,0,0,0,1,4,11,9,0,0,2,0,8,0,0,0,8,5,13,10,0,0,5,9,0,0,10,9,10,8,0,0,1,1,0,0,13,0,6,6,2,13,0,5,0,0,0,0,0,13,8,13,0,9,3,4,5,13,2,0,0,0,0,0,0,0,9,0,9,0,0,0,1,12,0,4,3,0,0,4,3,7,0,0,5,1,2,0,10,8,6,0,0,5,0,0,4,0,0,13,0,0,9,0,0,0,0,0,0,0,2,0,0,0,0,0,0,0,0,0,5,0,0,2,0,0,0,0,0,0,0,0,1,10,0,0,13,9,2,0,0,0,3,0,4,0,0,1,0,0,7,0,0,0,0,0,0,0],"split_type":[0,0,0,0,0,0,0,0,0,0,0,0,0,0,0,0,0,0,0,0,0,0,0,0,0,0,0,0,0,0,0,0,0,0,0,0,0,0,0,0,0,0,0,0,0,0,0,0,0,0,0,0,0,0,0,0,0,0,0,0,0,0,0,0,0,0,0,0,0,0,0,0,0,0,0,0,0,0,0,0,0,0,0,0,0,0,0,0,0,0,0,0,0,0,0,0,0,0,0,0,0,0,0,0,0,0,0,0,0,0,0,0,0,0,0,0,0,0,0,0,0,0,0,0,0,0,0,0,0,0,0,0,0,0,0,0,0,0,0,0,0,0,0,0,0,0,0,0,0,0,0,0,0,0,0,0,0,0,0,0,0,0,0,0,0,0,0,0,0,0,0,0,0,0,0,0,0,0,0,0,0,0,0,0,0,0,0,0,0,0,0,0,0,0,0,0,0,0,0,0,0,0,0,0,0,0,0,0,0,0,0],"sum_hessian":[1.067E3,1.5E1,1.052E3,1.4E1,1E0,1.047E3,5E0,7.81E2,2.66E2,3E0,2E0,4.95E2,2.86E2,2.31E2,3.5E1,3.98E2,9.7E1,2.81E2,5E0,1.39E2,9.2E1,1.4E1,2.1E1,1.61E2,2.37E2,9.3E1,4E0,1E0,4E0,1.24E2,1.5E1,1.8E1,7.4E1,1.3E1,1E0,1.8E1,3E0,1.38E2,2.3E1,9.4E1,1.43E2,3.1E1,6.2E1,2E0,2E0,5.6E1,6.8E1,1.4E1,1E0,1.4E1,4E0,4.6E1,2.8E1,8E0,5E0,1.7E1,1E0,5E1,8.8E1,1.4E1,9E0,9.3E1,1E0,1.39E2,4E0,1.7E1,1.4E1,2E0,6E1,3.4E1,2.2E1,5.6E1,1.2E1,1.3E1,1E0,3.1E1,1.5E1,2.6E1,2E0,2.6E1,2.4E1,5.2E1,3.6E1,1E1,4E0,3E0,6E0,1E0,1.38E2,1.6E1,1E0,2.2E1,1.2E1,2E0,2E1,1E0,5.5E1,1E0,1.1E1,3E1,1E0,1E0,1.4E1,1.9E1,7E0,5E0,1.9E1,1.1E1,4.1E1,2.8E1,8E0,9E0,1E0,2E0,1E0,2E0,4E0,1.3E1,3E0,2.1E1,1E0,1.1E1,1E0,1E0,1E0,2E0,1.8E1,5E1,5E0,1E1,1E0,3E0,1.1E1,7E0,1.2E1,5E0,2E0,1.2E1,7E0,1E1,1E0,2.5E1,1.6E1,2.7E1,1E0,2E0,6E0,8E0,1E0,2E1,1E0,6E0,5E0,1E0,1E0,1.7E1,1E0,1E0,4E0,9E0,1E0,8E0,3E0,2E0,5E0,1.1E1,1E0,1E0,1.1E1,1E0,6E0,9E0,1E0,2.3E1,2E0,4E0,1.2E1,2.6E1,1E0,2E0,4E0,1.9E1,1E0,4E0,1E0,2E0,1.5E1,1E0,1E0,1.6E1,7E0,5E0,7E0,1E0,1E0,1.4E1,1E0,1.5E1,1E0,5E0,2E0,4E0,1E0,1.1E1,3E0,1.4E1,1E0,1E0,1E0,1E1,1E0],"tree_param":{"num_deleted":"0","num_feature":"14","num_nodes":"211","size_leaf_vector":"0"}},{"base_weights":[-1.234286E0,-2.1480134E0,-1.2227448E0,-8.563881E-1,-2.3206997E0,-1.2151119E0,-2.3572714E0,-1.1667224E0,-1.361777E0,-2.8514152E0,-9.1265583E-1,-1.1999774E0,-9.8157215E-1,-1.4995694E0,-1.2199004E0,-1.2505194E0,-1.057032E0,-8.948874E-1,-1.2436488E0,-1.4140465E0,-2.4447486E0,-1.8402004E-1,-1.2264532E0,-9.314629E-1,-1.2656373E0,-1.0683768E0,-5.4618996E-1,-9.5654017E-1,-6.203418E-1,-1.3722703E0,-7.344835E-1,-1.5041685E0,-9.8032296E-1,-2.5702565E0,-7.203431E-1,-1.2337484E0,-5.063667E-1,-1.0921772E0,-5.065385E-1,-1.2315909E0,-1.4976637E0,-6.781052E-1,5.6693077E-2,-1.0587026E0,-7.543848E-1,-6.4031875E-1,-1.1040163E-1,-1.5936604E0,-8.7541145E-1,-7.826268E-1,-1.9874E-1,-1.5245482E0,-3.7100983E-1,-1.0285736E0,4.059601E-2,-1.2516502E0,-5.646226E-1,-8.2402456E-1,-8.774471E-2,-1.0148857E0,-1.2752624E0,-1.5170054E0,-2.2660351E-1,-9.377956E-3,-1.0799259E0,-3.8847008E-1,-7.957382E-1,-6.5452117E-1,-1.8523645E-1,-1.660825E0,-3.6026E-1,-1.5724399E0,-1.0245878E0,-1.1036954E0,-4.1460204E-1,-3.2053518E-1,-1.3025318E0,-1.1555624E-1,-6.313246E-1,1.4802234E-1,-2.942635E-1,-6.9002634E-1,-1.2206982E0,-1.9543741E0,-1.2529442E0,-1.6254143E0,-1.0500691E0,-1.0924563E0,-2.392335E-1,-6.766701E-2,-4.517541E-1,-8.216117E-1,-3.2350445E-1,-6.824683E-1,-2.7798018E-1,-1.8251112E0,-8.3490324E-1,-1.7938416E0,-1.4059535E0,-1.9925912E-1,-1.1858542E0,-1.1462923E0,-1.6847515E-1,-5.0782233E-1,-6.747055E-2,-7.568574E-1,-1.9113311E-1,-1.4048599E0,-8.106115E-1,-2.2604558E0,-5.887254E-1,-1.3359377E0,-1.1634421E0,-1.6486E0,-3.3739948E-1,-4.5246792E-1,-1.3670113E0,-1.1129822E0,-4.1357422E-1,-4.3537903E-1,-1.4360689E0,-6.05069E-1,-1.5294685E0,-1.193221E0,-1.7425251E-1,-9.400981E-1,-5.195555E-1,2.0982742E-1,-3.438301E-1,-8.803464E-1,-1.7233195E0,-1.1292644E0,-5.6310886E-1,-1.5829322E0,-1.246924E0,-1.0613911E0,-1.2930017E0,-1.6675136E0,-4.4602776E-1,-9.7331095E-1,-1.3926622E0,-1.4489875E0,-4.015293E-1,-1.3919982E0,-7.9559684E-1,-9.8529285E-1,-1.7628288E-1,-6.772238E-1,-1.00307845E-1,-9.534836E-2,-3.9487457E-1,-3.9609495E-1,-1.1334918E0,-1.8743691E0,-3.936316E-1,-1.304559E0,-1.263957E-1,-5.864604E-1,-1.6479683E-1,-1.7582631E0,-1.0273051E0,-5.1908E-1,-1.266533E0,-1.1050159E0,-6.5302676E-1,-1.0425931E0,-1.4935819E0,-8.0489737E-1,-1.297014E0,-7.0503294E-1,-1.6199383E0,-9.904766E-1,-1.4063835E-1,-1.9324017E-1,-1.0351939E0,-7.2860867E-1,-1.0737991E-1,-1.3800097E-1,2.5232315E-2,4.2653084E-3,-4.7702008E-1,-1.9436389E0,-4.5229626E-1,-1.8529655E0,-7.0313215E-1,-2.8385258E-1,-1.0690869E0,-1.1531925E-1,-5.9119034E-1,-1.2744943E0,-5.2590305E-1,-1.1192635E0,-3.2824484E-1,-4.8533123E-2,-7.690722E-1,-1.2484003E0,-4.9877825E-1,-1.5354805E0,-5.2086955E-1,-8.44437E-1,7.202721E-2,-4.1034126E-1,-1.1191304E0,-8.8730764E-1,-1.9403422E0,-1.1671448E-1,-8.596999E-1,-4.5162392E-1,-1.1561205E0,-1.279178E0,-3.5856724E-1,-1.1328923E0,-3.6457253E-1,4.1277885E-2,-1.1407757E-1,-9.140521E-1,-3.2308912E-1,-1.3359988E0,-6.483265E-1,-6.715755E-2,-7.358247E-1,-1.6136745E0,-9.0162975E-1,-9.2237157E-1,-3.638113E-1,-2.0158095E0,-7.652893E-1,-1.214098E0,-3.461504E-1,-1.2138245E0,-9.4675326E-1,-3.8345972E-1,-7.0988655E-2,-1.4492512E0,-7.0639116E-1,-1.00789785E-1,3.3685684E-2,-1.9267654E-1,-7.9423666E-1,-6.2881535E-1,-1.6633376E0,-9.544496E-1,-1.5644455E-1,-2.1206379E-1,-1.2284485E0,-7.7637213E-1,-1.6088465E0,-1.7167842E0,-6.63503E-1,-1.0331291E0,-5.2752113E-1,-6.707754E-1,-1.2716647E0,-4.3151283E-1,-1.7523575E0,-7.6506615E-2,-9.187479E-1,2.0586157E-1,-7.623322E-1,-7.639729E-1,-1.02394104E-1,-1.4938511E0,-1.051673E0,-1.7850438E0,-5.002861E-1],"categories":[],"categories_nodes":[],"categories_segments":[],"categories_sizes":[],"default_left":[1,1,1,0,0,1,1,1,1,0,0,1,1,1,1,1,1,1,1,1,1,0,1,1,1,0,1,1,1,1,1,1,1,0,0,0,0,1,1,1,1,0,0,1,1,1,0,1,0,0,0,1,0,1,0,1,1,0,1,1,1,1,0,0,1,1,1,1,0,1,0,1,1,1,1,0,0,0,0,0,0,1,1,1,1,1,1,1,0,0,0,0,0,0,0,0,0,0,1,0,1,1,0,0,0,1,1,1,1,0,0,1,1,1,0,0,0,1,0,0,1,0,0,1,0,1,1,0,1,1,1,1,1,1,1,1,1,0,0,1,1,0,0,0,1,1,0,1,1,0,0,1,0,1,0,0,0,0,0,1,1,1,1,1,1,1,1,1,0,0,0,0,0,0,1,0,0,0,0,0,0,0,0,1,1,0,1,0,0,1,0,1,0,1,1,1,1,1,0,1,0,0,0,0,1,0,0,0,1,0,0,1,0,0,0,0,1,1,0,1,1,1,0,1,0,0,0,0,0,1,0,0,0,1,0,0,0,0,0,0,1,1,0,0,1,0,0,1,1,0,1,1,1,0,1,0,0,0,0,0,0,0,0,0,0],"id":15,"left_children":[1,3,5,-1,-1,7,9,11,13,-1,-1,15,17,19,21,23,25,27,29,31,33,-1,35,37,39,-1,41,43,45,47,49,51,53,-1,-1,-1,-1,55,57,59,61,-1,-1,63,65,67,-1,69,-1,-1,-1,71,-1,73,-1,75,77,-1,79,81,83,85,-1,-1,87,89,91,93,-1,95,-1,97,99,101,103,-1,-1,-1,-1,-1,-1,105,107,109,111,113,115,117,-1,-1,-1,-1,-1,-1,-1,-1,-1,-1,119,-1,121,123,-1,-1,-1,125,127,129,131,-1,-1,133,135,137,-1,-1,-1,139,-1,-1,141,-1,-1,143,-1,145,147,-1,149,151,153,155,157,159,161,163,165,-1,-1,167,169,-1,-1,-1,171,173,-1,175,177,-1,-1,179,-1,181,-1,-1,-1,-1,-1,183,185,187,189,191,193,195,197,199,-1,-1,-1,-1,-1,-1,201,-1,-1,-1,-1,-1,-1,-1,-1,203,205,-1,207,-1,-1,209,-1,211,-1,213,215,217,219,221,-1,223,-1,-1,-1,-1,225,-1,-1,-1,227,-1,-1,229,-1,-1,-1,-1,231,233,-1,235,237,239,-1,241,-1,-1,-1,-1,-1,243,-1,-1,-1,245,-1,-1,-1,-1,-1,-1,247,249,-1,-1,251,-1,-1,253,255,-1,257,259,261,-1,263,-1,-1,-1,-1,-1,-1,-1,-1,-1,-1],"loss_changes":[8.636108E0,6.891327E-1,6.2890625E0,0E0,0E0,5.8771973E0,1.6807251E0,3.7357178E0,3.1557922E0,0E0,0E0,3.533081E0,1.7722626E0,6.6473083E0,6.635437E-1,1.1895142E0,4.7122192E-1,1.082344E0,8.912926E-1,3.0987244E0,9.63707E-2,0E0,5.819702E-2,1.2223473E0,1.836731E0,0E0,5.156206E-1,8.328934E-1,1.432352E-1,1.0248795E0,5.08008E-2,1.6282501E0,1.174736E0,0E0,0E0,0E0,0E0,8.076458E-1,1.124347E0,2.6048584E0,1.0084E0,0E0,0E0,1.1033859E0,1.4483452E-1,8.024216E-3,0E0,5.614433E-1,0E0,0E0,0E0,6.1569214E-1,0E0,5.571041E-1,0E0,1.9838905E-1,1.0676825E-1,0E0,2.870092E-1,4.105339E0,2.689331E0,1.02668E0,0E0,0E0,2.5482178E-1,7.093966E-2,5.1879883E-2,1.0229111E-2,0E0,2.4015045E-1,0E0,5.373535E-1,1.2277842E0,5.637913E-1,9.51758E-2,0E0,0E0,0E0,0E0,0E0,0E0,8.8892937E-1,2.1841812E0,2.4312096E0,9.0441895E-1,6.9802856E-1,1.8437376E0,2.0856094E-1,0E0,0E0,0E0,0E0,0E0,0E0,0E0,0E0,0E0,0E0,8.9468384E-1,0E0,8.7066174E-1,6.1317635E-1,0E0,0E0,0E0,6.8561554E-1,3.7827235E-1,3.3269348E0,6.259794E-1,0E0,0E0,1.6538696E0,8.356323E-1,1.8878937E-1,0E0,0E0,0E0,4.414177E-1,0E0,0E0,8.642578E-2,0E0,0E0,2.3618889E-1,0E0,3.0959702E-1,8.574977E-1,0E0,1.3083786E-2,1.1446466E0,2.6766205E0,8.8989496E-1,5.666733E-3,2.0904694E0,1.1408691E0,1.0420609E0,1.9084625E0,0E0,0E0,8.0957794E-1,8.8955116E-1,0E0,0E0,0E0,8.818064E-1,3.1377316E-1,0E0,2.1457577E-1,2.7142093E-2,0E0,0E0,1.9642979E-1,0E0,5.984993E-1,0E0,0E0,0E0,0E0,0E0,1.5948944E0,6.929016E-2,7.740104E-2,4.9102783E-2,6.065216E-1,8.044586E-1,3.1826363E0,6.674118E-1,9.2765427E-1,0E0,0E0,0E0,0E0,0E0,0E0,1.701498E-1,0E0,0E0,0E0,0E0,0E0,0E0,0E0,0E0,4.720993E-1,2.6691675E-1,0E0,6.900883E-2,0E0,0E0,5.6106567E-2,0E0,4.715271E-1,0E0,2.236872E-2,3.512659E-1,3.9540863E-1,1.0760393E0,2.3021698E-1,0E0,5.634079E-1,0E0,0E0,0E0,0E0,4.9692535E-1,0E0,0E0,0E0,2.380371E-3,0E0,0E0,1.16241455E-1,0E0,0E0,0E0,0E0,3.3656538E-2,4.0235138E-1,0E0,2.0353088E-2,6.905365E-2,3.7248993E-1,0E0,3.4207153E-1,0E0,0E0,0E0,0E0,0E0,5.4522705E-1,0E0,0E0,0E0,4.6915054E-1,0E0,0E0,0E0,0E0,0E0,0E0,3.0373383E-1,9.3221664E-2,0E0,0E0,4.484253E-1,0E0,0E0,3.868637E-1,3.791932E-1,0E0,1.017967E0,2.3960352E-1,8.2403564E-1,0E0,8.917999E-2,0E0,0E0,0E0,0E0,0E0,0E0,0E0,0E0,0E0,0E0],"parents":[2147483647,0,0,1,1,2,2,5,5,6,6,7,7,8,8,11,11,12,12,13,13,14,14,15,15,16,16,17,17,18,18,19,19,20,20,22,22,23,23,24,24,26,26,27,27,28,28,29,29,30,30,31,31,32,32,37,37,38,38,39,39,40,40,43,43,44,44,45,45,47,47,51,51,53,53,55,55,56,56,58,58,59,59,60,60,61,61,64,64,65,65,66,66,67,67,69,69,71,71,72,72,73,73,74,74,81,81,82,82,83,83,84,84,85,85,86,86,87,87,98,98,100,100,101,101,105,105,106,106,107,107,108,108,111,111,112,112,113,113,117,117,120,120,123,123,125,125,126,126,128,128,129,129,130,130,131,131,132,132,133,133,134,134,135,135,136,136,139,139,140,140,144,144,145,145,147,147,148,148,151,151,153,153,159,159,160,160,161,161,162,162,163,163,164,164,165,165,166,166,167,167,174,174,183,183,184,184,186,186,189,189,191,191,193,193,194,194,195,195,196,196,197,197,199,199,204,204,208,208,211,211,216,216,217,217,219,219,220,220,221,221,223,223,229,229,233,233,240,240,241,241,244,244,247,247,248,248,250,250,251,251,252,252,254,254],"right_children":[2,4,6,-1,-1,8,10,12,14,-1,-1,16,18,20,22,24,26,28,30,32,34,-1,36,38,40,-1,42,44,46,48,50,52,54,-1,-1,-1,-1,56,58,60,62,-1,-1,64,66,68,-1,70,-1,-1,-1,72,-1,74,-1,76,78,-1,80,82,84,86,-1,-1,88,90,92,94,-1,96,-1,98,100,102,104,-1,-1,-1,-1,-1,-1,106,108,110,112,114,116,118,-1,-1,-1,-1,-1,-1,-1,-1,-1,-1,120,-1,122,124,-1,-1,-1,126,128,130,132,-1,-1,134,136,138,-1,-1,-1,140,-1,-1,142,-1,-1,144,-1,146,148,-1,150,152,154,156,158,160,162,164,166,-1,-1,168,170,-1,-1,-1,172,174,-1,176,178,-1,-1,180,-1,182,-1,-1,-1,-1,-1,184,186,188,190,192,194,196,198,200,-1,-1,-1,-1,-1,-1,202,-1,-1,-1,-1,-1,-1,-1,-1,204,206,-1,208,-1,-1,210,-1,212,-1,214,216,218,220,222,-1,224,-1,-1,-1,-1,226,-1,-1,-1,228,-1,-1,230,-1,-1,-1,-1,232,234,-1,236,238,240,-1,242,-1,-1,-1,-1,-1,244,-1,-1,-1,246,-1,-1,-1,-1,-1,-1,248,250,-1,-1,252,-1,-1,254,256,-1,258,260,262,-1,264,-1,-1,-1,-1,-1,-1,-1,-1,-1,-1],"split_conditions":[-1.6774227E-1,-1.4683089E0,3.8367314E0,-1.4558598E-1,-3.9451894E-1,-2.2950837E-1,-1.1492729E0,-3.0973696E-3,3.339305E-1,-4.8474059E-1,-1.5515149E-1,7.3682666E-1,1.3567413E-1,9.8692405E-1,-5.476825E-1,-1.3170505E0,1.2505586E0,3.0981904E-1,-1.0797722E0,6.313609E-1,6.7733526E-1,-3.128341E-2,2.2858708E0,6.268295E-1,1.0548248E0,-1.8162405E-1,-1.1232044E0,-1.8162271E-1,3.3972938E0,6.99296E-2,-2.1106341E-1,2.017769E0,1.6651936E0,-4.369436E-1,-1.2245833E-1,-2.0973724E-1,-8.608235E-2,1.6928983E0,-5.240069E-1,-1.1994935E0,1.1307322E0,-1.1527788E-1,9.637823E-3,3.4213527E-3,-1.071393E0,1.9118149E0,-1.8768277E-2,2.2211444E0,-1.4881995E-1,-1.3304655E-1,-3.37858E-2,-6.1711926E-2,-6.307167E-2,1.4309154E-1,6.9013215E-3,-1.8877552E0,-1.4285521E-1,-1.4008418E-1,-5.1591057E-1,-1.2815273E-1,-1.1837616E0,-2.5912783E-1,-3.8522597E-2,-1.5942527E-3,-6.812199E-2,-5.4425454E-1,8.2755363E-1,3.680881E0,-3.14902E-2,1.2900171E0,-6.12442E-2,-1.1396773E-1,-1.2362005E0,1.1498915E-1,-1.1947318E0,-5.4490983E-2,-2.2143042E-1,-1.964456E-2,-1.0732518E-1,2.5163798E-2,-5.0024796E-2,3.760106E-1,1.3891118E0,2.5159452E0,-1.4464006E-1,3.680879E0,-1.1676304E0,2.158463E0,-4.0669695E-2,-1.1503391E-2,-7.679819E-2,-1.39674E-1,-5.4995757E-2,-1.16019614E-1,-4.725663E-2,-3.102689E-1,-1.4193355E-1,-3.0495307E-1,-1.0040604E0,-3.387405E-2,1.1027953E-1,1.6014128E0,-2.8640777E-2,-8.6329795E-2,-1.1469994E-2,1.0916286E0,-7.635752E-2,-2.2172338E-1,-2.1181622E-1,-3.842775E-1,-1.00083314E-1,-2.6651248E-1,7.6185405E-2,6.687589E-1,-5.735791E-2,-7.691955E-2,-2.3239192E-1,-1.4707689E-1,-7.030762E-2,-7.401443E-2,7.041514E-1,-1.02861725E-1,-2.6000965E-1,1.4377921E0,-2.9622927E-2,3.4115338E0,-9.3146324E-1,3.5670664E-2,2.4384448E-1,-5.353403E-1,-1.2035347E0,-9.7489387E-1,5.3505898E-3,-6.5981984E-2,-7.4308956E-1,-7.294653E-2,-9.0511605E-2,-2.834773E-1,-7.582472E-2,-3.5961628E-1,-1.094676E0,-2.4632788E-1,-6.8259984E-2,-2.366397E-1,1.2261031E0,-1.9511349E0,-2.996809E-2,1.0256621E0,-5.138057E-1,-1.620922E-2,-6.712868E-2,-1.3004189E0,-1.926936E-1,-2.51482E-1,-6.6917375E-2,-2.2177503E-1,-2.148727E-2,-9.969827E-2,-2.801546E-2,6.1325675E-1,-5.7212156E-1,-2.7946375E-2,-1.462428E-1,2.7719016E0,-4.4964045E-2,-3.0403072E-1,1.9136937E-1,3.0922081E0,-2.2049238E-1,-1.19855605E-1,-2.753895E-1,-1.6838102E-1,-2.390852E-2,-3.2850828E-2,-8.0727726E-1,-1.2386347E-1,-1.8254586E-2,-2.3460165E-2,4.2894934E-3,7.2510244E-4,-8.1093416E-2,-3.3041862E-1,-7.6890364E-2,-1.1416118E0,-5.3386426E-1,-4.8254937E-2,2.0727442E-1,-1.9604273E-2,-1.0050236E-1,2.4191675E0,-8.940352E-2,2.717993E0,-5.5801623E-2,-3.6651745E-1,-1.2898973E-1,1.0691565E0,-9.993434E-2,-9.704083E-3,-8.8547826E-2,-1.7883138E-1,1.2244625E-2,-6.975801E-2,-1.9025217E-1,-1.508423E-1,3.5494256E-1,-1.984146E-2,-1.4614898E-1,-7.6776065E-2,6.178219E-1,-2.1746026E-1,-6.095643E-2,-1.01217896E-1,-6.197733E-2,7.0172404E-3,-1.9393187E-2,-1.5538886E-1,-4.5765865E-1,-2.1957397E-1,-1.1021551E-1,-1.0019066E0,-1.5061363E0,-1.1747991E0,-1.5327705E-1,-3.171413E-1,-6.1847925E-2,-3.4268764E-1,-1.3009918E-1,-2.0639665E-1,-5.884557E-2,-1.826161E0,-1.6094805E-1,-6.5188155E-2,-1.2068071E-2,-5.564041E-1,-1.200865E-1,-1.7134264E-2,5.7265665E-3,-3.2755014E-2,-1.3502023E-1,-1.0689861E-1,9.742964E-1,6.3785875E-1,-2.6595574E-2,-3.6050845E-2,-6.188762E-1,-1.3198327E-1,-2.7350393E-1,-1.196882E0,6.725919E-2,-1.7563196E-1,1.3456419E0,-2.639633E-1,9.768094E-2,-7.335718E-2,1.4421306E0,-1.3006125E-2,-1.5618715E-1,3.499647E-2,-1.2959647E-1,-1.2987539E-1,-1.7406998E-2,-2.5395468E-1,-1.7878442E-1,-3.0345747E-1,-8.504864E-2],"split_indices":[13,5,5,0,0,6,2,13,2,0,0,4,0,3,1,8,10,13,2,10,4,0,2,5,5,0,5,9,1,8,3,5,8,0,0,0,0,10,9,2,7,0,0,13,2,8,0,3,0,0,0,13,0,13,0,9,12,0,1,13,2,3,0,0,0,1,11,10,0,9,0,11,9,4,2,0,0,0,0,0,0,5,8,3,13,8,4,11,0,0,0,0,0,0,0,0,0,0,2,0,13,1,0,0,0,8,3,8,9,0,0,2,5,11,0,0,0,1,0,0,9,0,0,10,0,10,4,0,3,1,2,4,5,4,4,5,10,0,0,2,4,0,0,0,6,9,0,1,1,0,0,10,0,6,0,0,0,0,0,5,8,2,13,10,5,3,12,5,0,0,0,0,0,0,8,0,0,0,0,0,0,0,0,2,1,0,4,0,0,2,0,9,0,1,13,2,3,11,0,12,0,0,0,0,1,0,0,0,4,0,0,13,0,0,0,0,1,10,0,2,9,2,0,1,0,0,0,0,0,5,0,0,0,2,0,0,0,0,0,0,5,5,0,0,10,0,0,8,1,0,5,7,4,0,2,0,0,0,0,0,0,0,0,0,0],"split_type":[0,0,0,0,0,0,0,0,0,0,0,0,0,0,0,0,0,0,0,0,0,0,0,0,0,0,0,0,0,0,0,0,0,0,0,0,0,0,0,0,0,0,0,0,0,0,0,0,0,0,0,0,0,0,0,0,0,0,0,0,0,0,0,0,0,0,0,0,0,0,0,0,0,0,0,0,0,0,0,0,0,0,0,0,0,0,0,0,0,0,0,0,0,0,0,0,0,0,0,0,0,0,0,0,0,0,0,0,0,0,0,0,0,0,0,0,0,0,0,0,0,0,0,0,0,0,0,0,0,0,0,0,0,0,0,0,0,0,0,0,0,0,0,0,0,0,0,0,0,0,0,0,0,0,0,0,0,0,0,0,0,0,0,0,0,0,0,0,0,0,0,0,0,0,0,0,0,0,0,0,0,0,0,0,0,0,0,0,0,0,0,0,0,0,0,0,0,0,0,0,0,0,0,0,0,0,0,0,0,0,0,0,0,0,0,0,0,0,0,0,0,0,0,0,0,0,0,0,0,0,0,0,0,0,0,0,0,0,0,0,0,0,0,0,0,0,0,0,0,0,0,0,0,0,0,0,0,0,0,0,0,0,0,0,0],"sum_hessian":[1.067E3,1.1E1,1.056E3,2E0,9E0,1.051E3,5E0,7.97E2,2.54E2,3E0,2E0,6.71E2,1.26E2,1.24E2,1.3E2,4.9E2,1.81E2,9.8E1,2.8E1,1.16E2,8E0,1E0,1.29E2,2.5E1,4.65E2,1.76E2,5E0,7.8E1,2E1,2.1E1,7E0,9.4E1,2.2E1,7E0,1E0,1.27E2,2E0,1.7E1,8E0,4.11E2,5.4E1,4E0,1E0,4.9E1,2.9E1,1.9E1,1E0,1.3E1,8E0,6E0,1E0,9.2E1,2E0,2.1E1,1E0,1.2E1,5E0,4E0,4E0,7.3E1,3.38E2,5.3E1,1E0,1E0,4.8E1,4E0,2.5E1,1.8E1,1E0,1.2E1,1E0,8.2E1,1E1,1.8E1,3E0,1E0,1.1E1,1E0,4E0,2E0,2E0,3E1,4.3E1,8E0,3.3E2,4.1E1,1.2E1,4.7E1,1E0,1E0,3E0,2.3E1,2E0,1.6E1,2E0,9E0,3E0,3.1E1,5.1E1,2E0,8E0,1.7E1,1E0,2E0,1E0,2.6E1,4E0,2.8E1,1.5E1,6E0,2E0,1.64E2,1.66E2,4E1,1E0,5E0,7E0,4.5E1,2E0,2E0,4.9E1,4E0,4E0,1.6E1,1E0,1.3E1,1.3E1,1E0,3E0,1.2E1,1.6E1,5E0,1E1,3.9E1,1.25E2,9.8E1,6.8E1,3.9E1,1E0,3.3E1,1.2E1,4.8E1,1E0,9E0,7E0,1.2E1,1E0,9E0,4E0,1E0,2E0,5E0,7E0,1.4E1,2E0,4E0,1E0,9E0,1E0,2.8E1,1.1E1,4E0,1.21E2,8.7E1,1.1E1,3.3E1,3.5E1,2.4E1,9E0,4E0,8E0,5E0,2E0,1E0,1.1E1,8E0,1E0,3E0,1E0,1E0,4E0,1.3E1,1E0,2.5E1,3E0,1E0,1E1,1E0,3E0,1.19E2,2E0,8.5E1,2E0,2E0,9E0,2.3E1,1E1,3.3E1,2E0,2.3E1,1E0,2E0,9E0,3E0,2.2E1,1E0,2E0,2E0,8E0,1.18E2,1E0,8.3E1,2E0,1E0,1E0,6E0,3E0,1.9E1,4E0,4E0,6E0,2.8E1,5E0,1.9E1,4E0,2E1,2E0,7E0,1E0,5.4E1,2.9E1,2E0,1E0,1.5E1,4E0,3E0,1E0,1E0,5E0,2E0,2.6E1,1.8E1,1E0,1E0,5.3E1,4E0,1.1E1,2.4E1,2E0,1.4E1,4E0,5E0,4.8E1,1E0,2.3E1,1E0,1E0,1E0,3E0,4E0,1E0,2.1E1,2.7E1,2.2E1,1E0],"tree_param":{"num_deleted":"0","num_feature":"14","num_nodes":"265","size_leaf_vector":"0"}},{"base_weights":[-1.0380853E0,-1.970853E0,-1.0291862E0,-7.5933075E-1,-2.2085264E0,-1.0233846E0,-2.3049934E0,-9.90434E-1,-1.1704248E0,-4.9450827E-1,-2.7436523E0,-1.0145401E0,-8.47973E-1,-1.2949986E0,-1.0234067E0,-1.0726602E0,-9.2033005E-1,-7.570241E-1,-1.1085314E0,-1.1981286E0,-2.1198103E0,-1.6837835E-1,-1.0310361E0,-9.5638984E-1,-1.1109891E0,-9.4002175E-1,-7.113693E-1,-8.0781895E-1,-5.250523E-1,-1.217168E0,-6.304753E-1,-1.2893432E0,-8.1440985E-1,-1.2860947E0,-2.8404312E0,-8.526651E-1,-1.1718479E0,-1.1172079E0,-3.2018852E-1,-9.424514E-1,-1.5415478E-1,-7.339299E-1,-3.983593E-2,-8.94214E-1,-6.396266E-1,-5.4120314E-1,-1.01017475E-1,-1.2487712E0,-2.293458E-1,-6.6858673E-1,-1.8184757E-1,-5.4376733E-1,-1.3257393E0,-9.021676E-1,-1.6393343E-2,-5.592568E-1,-1.050829E0,-1.2600453E0,-3.7301522E-1,-1.3168753E0,-1.0688787E0,-1.1367244E0,-9.188016E-1,-7.8968656E-1,-4.5384747E-1,-1.2820657E-1,-9.228631E-1,-3.4009036E-1,-6.714064E-1,-5.9164876E-1,-3.248887E-1,-1.2783812E0,-2.838707E-1,-1.7667611E-1,-7.296028E-1,-1.3356785E0,-3.348794E-1,-9.3647856E-1,-1.59441E-1,3.7145615E-2,-6.173563E-2,-1.2695011E0,-4.308043E-1,-6.959885E-1,-1.3379577E0,-3.512226E-1,-1.3773334E0,3.7769318E-2,-4.8515368E-1,-1.0906006E0,-1.5530406E0,2.3087502E-2,-1.0730084E0,-2.5972557E-1,-1.1635623E0,-9.2952913E-1,-3.5087013E-1,-8.580685E-3,-1.8372917E-1,-9.329686E-1,-2.1889877E-1,-6.1915398E-2,-3.9415526E-1,-1.9198656E-1,-6.824615E-1,-1.0369396E-1,-6.190959E-1,-3.2846832E-1,-1.3066287E0,-1.623359E0,-1.2192359E0,-1.1367843E0,-6.825861E-1,-1.4325161E0,-3.087206E-1,-4.6812683E-1,-1.3563728E-1,-8.063506E-1,-3.127733E-1,-1.3713346E0,-2.5176907E-1,1.00967884E-1,-4.895122E-1,-6.783262E-1,-1.5371388E0,-5.387304E-1,-1.2137251E0,-2.9407215E-1,-1.590152E0,-1.1414038E0,-9.631479E-1,-6.025845E-1,-1.2499479E0,-9.3999404E-1,-6.338262E-1,-4.4179383E-1,5.187416E-2,-9.496171E-1,-3.667024E-1,-6.388643E-1,-1.8105364E-1,-1.337455E0,-3.2963753E-1,-1.8052173E0,-8.6222726E-1,-4.4114494E-1,-1.2419918E0,-2.2918749E-1,-8.441587E-1,-5.0504315E-1,-1.2036824E-1,-1.8215942E-1,-8.3235246E-1,-3.968695E-1,9.5901966E-2,-1.42342E0,-5.1490146E-1,-1.5676888E0,-4.4779396E-1,-1.4405759E-1,-6.462784E-1,-2.0734215E-1,-1.2444575E0,-7.4195004E-1,-1.6685284E0,-8.754338E-1,-1.2109997E0,-6.578809E-1,-1.000813E0,-9.417783E-1,-2.7283287E-1,-6.80768E-1,-8.2203865E-2,-8.311857E-1,-1.1863134E0,-1.4334345E0,-7.436336E-1,-1.9344803E0,-7.726014E-1,-2.767582E-1,-4.3237686E-2,-1.1527475E-1,-5.339241E-1,-1.8103917E-1,3.0822277E-2,-1.6676997E0,-1.060522E0,-7.8454685E-1,-1.6546265E0,-1.7676904E0,-7.5558615E-1,-5.0707585E-1,-1.077605E0,-1.5183073E0,-1.1066396E0,-1.1599779E-1,-7.836852E-1,-6.79766E-1,-1.034363E0,-6.9368774E-1,-1.136048E0,-6.091482E-1,-1.3751482E0,-1.5045918E0,-5.9983635E-1,3.9029121E-3,-1.7681503E-1,-6.931868E-1,-3.5809225E-1,-1.1125432E0,-2.4414349E-1,-1.6984199E0,-4.5506954E-1,-6.9440764E-1,-3.758272E-1,-1.5665531E-1,-1.2079146E0,-1.6521387E0,-7.299306E-1,-5.401415E-1,-1.1380556E0,-1.9403839E-1,-7.062832E-1,-8.2942873E-1,-1.0886472E0,-7.2670764E-1,6.5905094E-2,-7.2948873E-1,-1.6508389E-1,-7.508627E-2,-4.0272185E-1,-1.2628555E-1,-4.1724914E-1,1.919918E-1,-3.368683E-1,-5.130478E-1,-1.3495659E0,-1.7116451E0,-1.4174557E-1,-1.5060902E-1,-5.799621E-1,-9.369087E-2,-1.1486186E0,-8.500134E-1,-1.9857597E-1,-9.319777E-1,-5.277291E-1,-7.7136546E-1,-1.762991E-1,-1.1336136E-1,-4.5442846E-1,-7.000351E-2,-4.3529892E-1,-1.7785263E-1,-1.4158232E0,-2.929058E-1,-1.7628194E0,1.8836355E-1,-5.9233314E-1,-2.2450295E-1,-5.934683E-1,-1.4864161E0,-2.1376133E-1,-3.0112323E-1,-6.7870474E-1,-1.5588021E0,-2.7269936E-1,-1.7617083E-1,-7.149673E-1],"categories":[],"categories_nodes":[],"categories_segments":[],"categories_sizes":[],"default_left":[1,1,1,0,0,1,1,1,1,0,0,1,1,1,1,1,1,1,1,1,1,0,0,1,1,1,1,1,1,1,1,1,1,0,0,1,1,1,0,1,0,1,0,1,1,1,0,1,0,0,0,1,1,1,1,1,1,1,1,1,1,1,1,0,0,1,1,1,1,1,0,1,0,0,0,1,0,1,0,0,0,1,1,1,1,1,1,0,0,1,1,0,1,0,1,1,1,0,0,1,0,0,0,0,0,0,1,0,1,1,1,0,1,0,0,1,0,1,1,1,0,0,0,0,1,1,1,0,1,1,1,0,0,1,1,0,0,1,0,0,0,1,0,1,0,0,0,1,0,1,1,0,0,0,0,1,0,1,0,0,0,0,0,0,1,1,1,1,1,0,0,0,0,1,1,1,0,0,0,0,0,1,1,0,0,0,1,0,1,0,0,1,1,1,1,0,0,1,1,1,0,0,0,0,0,0,0,1,1,0,0,0,0,0,1,1,1,1,0,1,1,0,0,1,0,1,0,1,0,0,1,0,0,0,1,0,1,1,0,0,0,0,0,0,0,0,1,0,0,0,1,0,0,0,1,0,0,0,1,0,0,1,0,0,1,0,0,0,0],"id":16,"left_children":[1,3,5,-1,-1,7,9,11,13,-1,-1,15,17,19,21,23,25,27,29,31,33,-1,-1,35,37,39,41,43,45,47,49,51,53,-1,-1,55,57,59,-1,61,-1,63,-1,65,67,69,-1,71,-1,-1,-1,73,75,77,79,81,83,85,87,89,91,93,95,-1,-1,97,99,101,103,105,-1,107,-1,-1,-1,109,-1,111,-1,-1,-1,113,115,117,119,121,123,-1,-1,125,127,-1,129,-1,131,133,135,-1,-1,137,-1,-1,-1,-1,-1,-1,139,-1,141,143,145,-1,147,-1,-1,149,-1,151,153,155,-1,-1,-1,-1,157,159,161,-1,163,165,167,-1,-1,169,171,-1,-1,173,-1,-1,-1,175,-1,177,-1,-1,-1,179,-1,181,183,-1,-1,-1,-1,185,-1,187,-1,-1,-1,-1,-1,-1,189,191,193,195,197,-1,-1,-1,-1,199,201,203,-1,-1,-1,-1,-1,205,207,-1,-1,-1,209,-1,211,-1,-1,213,215,217,219,-1,-1,221,223,225,-1,-1,-1,-1,-1,-1,-1,227,229,-1,-1,-1,-1,-1,231,233,235,237,-1,239,241,-1,-1,243,-1,245,-1,247,-1,-1,249,-1,-1,-1,251,-1,253,255,-1,-1,-1,-1,-1,-1,-1,-1,257,-1,-1,-1,259,-1,-1,-1,261,-1,-1,-1,263,-1,-1,265,-1,-1,267,-1,-1,-1,-1],"loss_changes":[6.836914E0,9.1451263E-1,5.4870605E0,0E0,0E0,3.961914E0,1.8199844E0,2.1275024E0,2.117859E0,0E0,0E0,3.059204E0,2.288887E0,5.290344E0,4.200287E-1,9.4732666E-1,5.2046204E-1,7.659378E-1,8.9450836E-1,2.1000214E0,1.7540703E0,0E0,0E0,1.6602631E0,1.2799377E0,3.5308838E-1,4.101181E-1,6.050453E-1,8.9148045E-2,4.940567E-1,1.5201807E-2,1.2057724E0,1.3858528E0,0E0,0E0,4.2963257E0,2.0663605E0,1.776886E0,0E0,1.5014648E-1,0E0,7.88641E-2,0E0,1.0009041E0,6.6755295E-2,2.6021957E-2,0E0,3.2279968E-1,0E0,0E0,0E0,2.1218944E-1,2.125473E-1,3.0939293E-1,9.575943E-3,2.7374678E0,4.061157E0,2.9272652E0,2.4864769E-1,1.5125351E0,1.2468567E0,2.6267815E-1,1.1177826E0,0E0,0E0,1.8349297E-2,1.4435577E-1,5.079323E-2,1.2079239E-2,1.3669872E-1,0E0,1.8796158E-1,0E0,0E0,0E0,2.3162079E-1,0E0,8.860016E-2,0E0,0E0,0E0,3.4086037E-1,2.8902864E-1,7.6281357E-1,5.97332E-1,3.6209124E-1,2.0850601E0,0E0,0E0,1.6563835E0,7.9387665E-1,0E0,9.2944336E-1,0E0,3.6139107E-1,1.2213135E-1,2.4263173E-1,0E0,0E0,1.0429382E-1,0E0,0E0,0E0,0E0,0E0,0E0,5.5623055E-3,0E0,2.2170639E-1,6.5818024E-1,3.551178E-1,0E0,5.390978E-1,0E0,0E0,2.9867172E-1,0E0,1.4052105E-1,2.786368E-1,3.822708E-1,0E0,0E0,0E0,0E0,3.0151367E-2,2.4646878E-1,5.7704926E-1,0E0,4.9049377E-1,1.9200287E0,6.0635376E-1,0E0,0E0,7.3394775E-3,2.288742E-1,0E0,0E0,3.0343628E-1,0E0,0E0,0E0,1.3093567E-1,0E0,1.07170105E-1,0E0,0E0,0E0,2.3416683E-2,0E0,2.198739E-1,4.227152E-2,0E0,0E0,0E0,0E0,2.7028656E-1,0E0,1.3164139E-1,0E0,0E0,0E0,0E0,0E0,0E0,7.46521E-1,2.209015E0,2.328598E0,9.3166256E-1,3.309021E-1,0E0,0E0,0E0,0E0,6.371479E-1,5.791874E-1,1.0587311E-1,0E0,0E0,0E0,0E0,0E0,2.2692777E-2,3.9585495E-1,0E0,0E0,0E0,2.3800945E-1,0E0,1.7269135E-1,0E0,0E0,1.0782862E-1,2.5709724E0,1.853836E0,1.1116028E0,0E0,0E0,1.7515182E-2,4.2648315E-2,7.000179E-1,0E0,0E0,0E0,0E0,0E0,0E0,0E0,9.045601E-2,1.3395703E-1,0E0,0E0,0E0,0E0,0E0,6.100905E-2,3.1599888E-1,1.2761822E0,1.9144516E0,0E0,2.1232367E-2,8.9627075E-1,0E0,0E0,1.1689758E-1,0E0,5.292759E-1,0E0,9.5666885E-2,0E0,0E0,1.1306572E-1,0E0,0E0,0E0,4.8330545E-2,0E0,9.90345E-1,1.1535263E0,0E0,0E0,0E0,0E0,0E0,0E0,0E0,0E0,8.05511E-1,0E0,0E0,0E0,1.544838E-1,0E0,0E0,0E0,9.551201E-1,0E0,0E0,0E0,1.4775753E-1,0E0,0E0,8.048973E-1,0E0,0E0,5.6275368E-2,0E0,0E0,0E0,0E0],"parents":[2147483647,0,0,1,1,2,2,5,5,6,6,7,7,8,8,11,11,12,12,13,13,14,14,15,15,16,16,17,17,18,18,19,19,20,20,23,23,24,24,25,25,26,26,27,27,28,28,29,29,30,30,31,31,32,32,35,35,36,36,37,37,39,39,41,41,43,43,44,44,45,45,47,47,51,51,52,52,53,53,54,54,55,55,56,56,57,57,58,58,59,59,60,60,61,61,62,62,65,65,66,66,67,67,68,68,69,69,71,71,75,75,77,77,81,81,82,82,83,83,84,84,85,85,86,86,89,89,90,90,92,92,94,94,95,95,96,96,99,99,106,106,108,108,109,109,110,110,112,112,115,115,117,117,118,118,119,119,124,124,125,125,126,126,128,128,129,129,130,130,133,133,134,134,137,137,141,141,143,143,147,147,149,149,150,150,155,155,157,157,164,164,165,165,166,166,167,167,168,168,173,173,174,174,175,175,181,181,182,182,186,186,188,188,191,191,192,192,193,193,194,194,197,197,198,198,199,199,207,207,208,208,214,214,215,215,216,216,217,217,219,219,220,220,223,223,225,225,227,227,230,230,234,234,236,236,237,237,246,246,250,250,254,254,258,258,261,261,264,264],"right_children":[2,4,6,-1,-1,8,10,12,14,-1,-1,16,18,20,22,24,26,28,30,32,34,-1,-1,36,38,40,42,44,46,48,50,52,54,-1,-1,56,58,60,-1,62,-1,64,-1,66,68,70,-1,72,-1,-1,-1,74,76,78,80,82,84,86,88,90,92,94,96,-1,-1,98,100,102,104,106,-1,108,-1,-1,-1,110,-1,112,-1,-1,-1,114,116,118,120,122,124,-1,-1,126,128,-1,130,-1,132,134,136,-1,-1,138,-1,-1,-1,-1,-1,-1,140,-1,142,144,146,-1,148,-1,-1,150,-1,152,154,156,-1,-1,-1,-1,158,160,162,-1,164,166,168,-1,-1,170,172,-1,-1,174,-1,-1,-1,176,-1,178,-1,-1,-1,180,-1,182,184,-1,-1,-1,-1,186,-1,188,-1,-1,-1,-1,-1,-1,190,192,194,196,198,-1,-1,-1,-1,200,202,204,-1,-1,-1,-1,-1,206,208,-1,-1,-1,210,-1,212,-1,-1,214,216,218,220,-1,-1,222,224,226,-1,-1,-1,-1,-1,-1,-1,228,230,-1,-1,-1,-1,-1,232,234,236,238,-1,240,242,-1,-1,244,-1,246,-1,248,-1,-1,250,-1,-1,-1,252,-1,254,256,-1,-1,-1,-1,-1,-1,-1,-1,258,-1,-1,-1,260,-1,-1,-1,262,-1,-1,-1,264,-1,-1,266,-1,-1,268,-1,-1,-1,-1],"split_conditions":[-1.6869552E-1,-1.4683089E0,4.2526674E0,-1.2908623E-1,-3.7544948E-1,-7.5010665E-2,8.089488E-1,-3.0973696E-3,3.0332172E-1,-8.4066406E-2,-4.664209E-1,4.5866218E-1,1.3567413E-1,8.145954E-1,-5.384373E-1,-5.534463E-1,1.6850533E0,3.0981904E-1,-1.0797722E0,6.279685E-1,2.991501E-1,-2.862432E-2,-1.7527615E-1,-7.179276E-1,3.16394E0,-7.686806E-2,6.127126E-1,-2.0916922E-1,3.3972938E0,5.0439754E0,-2.1106341E-1,-1.2362005E0,7.5090396E-1,-2.186361E-1,-4.8287332E-1,6.365278E-2,-1.24972455E-1,-7.676722E-1,-5.443205E-2,-5.185368E-1,-2.6206313E-2,-1.3513538E-1,-6.7721084E-3,3.4213527E-3,-1.071393E0,-4.3754384E-1,-1.7172972E-2,3.030613E0,-3.8988788E-2,-1.1365975E-1,-3.0914087E-2,9.291986E-1,8.407785E0,1.6014128E0,-5.0991E-1,-1.7734063E0,-2.6369281E-2,-1.2931279E0,5.150427E-2,-5.798398E-2,-7.557579E-1,4.659863E-1,1.161655E0,-1.3424672E-1,-7.715407E-2,-4.263264E-2,-6.812199E-2,-5.4425454E-1,-1.5310166E0,3.4958136E-1,-5.523108E-2,4.4577895E-3,-4.8258018E-2,-3.0034939E-2,-1.2403248E-1,-4.2354232E-1,-5.69295E-2,1.4377921E0,-2.710497E-2,6.3147545E-3,-1.0495057E-2,1.5670187E0,-1.0498569E-1,-5.117866E-1,7.0780735E0,3.552476E-1,-6.0248464E-1,6.420784E-3,-8.2476124E-2,-1.436457E0,-5.529668E-1,3.9248755E-3,4.99215E-2,-4.4153348E-2,-1.2724705E0,1.735012E0,4.1717517E-1,-1.4587165E-3,-3.1233959E-2,2.158463E0,-3.7212793E-2,-1.0525618E-2,-6.7006394E-2,-3.2637715E-2,-1.1601846E-1,-1.7627973E-2,4.2503386E0,-5.5839617E-2,2.2211444E0,-1.1630115E-1,-1.203361E0,-1.9325334E-1,-1.2537292E-1,-2.4352774E-1,-5.24825E-2,-6.97444E-2,-2.3058338E-2,-1.525855E-1,6.337754E-1,-8.1816584E-2,-4.2800743E-2,1.716454E-2,-8.321708E-2,-1.1531545E-1,4.2416307E-1,-5.3767204E-1,-1.5987055E0,-4.9992267E-2,-1.412272E0,-1.1823282E0,-3.736539E-1,-1.0243937E-1,-2.1249114E-1,2.3374057E0,1.3477087E0,-7.510495E-2,8.818608E-3,-1.4707689E-1,-6.233941E-2,-1.0860693E-1,-3.077912E-2,1.2900171E0,-5.603838E-2,-1.0541296E-1,-1.4657864E-1,-7.499464E-2,-2.111386E-1,-1.0326838E0,-1.4350699E-1,-1.3004189E0,-1.0291592E0,-3.0967101E-2,-1.4149992E-1,-6.7467816E-2,1.6303334E-2,6.112999E-1,-8.753325E-2,-5.6640613E-1,-7.612497E-2,-2.448979E-2,-1.0986733E-1,-3.5248164E-2,-2.1155778E-1,-1.261315E-1,4.3759352E-1,7.906931E-2,-9.2012525E-1,-7.1318305E-1,-3.3765715E-1,-1.6010231E-1,-4.638159E-2,-1.1573056E-1,-1.3974657E-2,-3.5961628E-1,-1.094676E0,1.2799565E1,-1.2641771E-1,-3.2886165E-1,-1.3134225E-1,-4.7048893E-2,-7.3504066E-3,-2.840292E-1,-5.676998E-1,-3.0776659E-2,5.239787E-3,-2.8350896E-1,4.053529E0,-1.3337296E-1,1.5780643E-1,-3.0050737E-1,-1.2844965E-1,3.2342815E-1,-4.8641154E-1,-2.3289274E-1,-1.0757273E0,-1.9719625E-2,-1.3322648E-1,-1.4831784E0,-5.362327E-1,3.0922081E0,-1.9312815E-1,-1.03555195E-1,-2.337752E-1,-2.557806E-1,-1.0197218E-1,6.634951E-4,-3.0058555E-2,6.069522E0,-5.1753736E-1,-1.8913235E-1,-4.1504394E-2,-2.887314E-1,-7.736182E-2,-1.180493E-1,-1.3079414E-1,-1.1458511E0,-6.7592895E-1,2.0248752E0,-1.240882E-1,-8.750098E-1,-9.089691E-1,-3.2986525E-2,-1.2006815E-1,-9.540048E-2,-1.8507004E-1,-1.1428027E0,1.1203866E-2,-8.220637E-1,-2.806426E-2,-1.2764666E-2,-3.5926673E-1,-2.1468544E-2,-7.093236E-2,3.2638606E-2,-3.4065294E-1,-8.721813E-2,-1.5842769E-1,-1.8601375E0,-2.4096746E-2,-2.5603533E-2,-9.8593555E-2,-1.5927449E-2,-1.9526516E-1,-1.4450228E-1,-3.3757918E-2,-1.5843621E-1,-1.0531361E0,-1.3113213E-1,-2.9970847E-2,-1.9271431E-2,-1.1490862E0,-1.1900596E-2,-7.400082E-2,-3.0234948E-2,1.6284771E0,-4.979399E-2,-2.996793E-1,3.2021806E-2,1.1370489E-1,-3.8165502E-2,-1.00889616E-1,2.2850952E0,-3.633943E-2,-5.119095E-2,-1.420764E0,-2.6499635E-1,-4.635889E-2,-2.9949041E-2,-1.2154444E-1],"split_indices":[13,5,5,0,0,6,0,13,2,0,0,4,0,3,1,1,4,13,2,10,5,0,0,2,10,6,10,9,1,4,3,9,8,0,0,10,7,9,0,1,0,13,0,13,2,8,0,8,0,0,0,1,6,1,1,10,8,8,5,8,9,4,10,0,0,1,0,1,5,13,0,13,0,0,0,1,0,10,0,0,0,5,10,9,3,2,5,0,0,9,1,0,11,0,9,9,8,0,0,11,0,0,0,0,0,0,10,0,3,13,2,0,13,0,0,13,0,13,5,11,0,0,0,0,3,1,10,0,5,4,9,0,0,2,1,0,0,1,0,0,0,9,0,2,0,0,0,4,0,10,2,0,0,0,0,8,0,2,0,0,0,0,0,0,2,10,4,5,4,0,0,0,0,2,4,0,0,0,0,0,0,3,10,0,0,0,3,0,4,0,0,9,9,2,11,0,0,5,8,5,0,0,0,0,0,0,0,8,10,0,0,0,0,0,13,2,5,5,0,4,4,0,0,13,0,2,0,2,0,0,8,0,0,0,1,0,13,5,0,0,0,0,0,0,0,0,2,0,0,0,2,0,0,0,5,0,0,0,13,0,0,1,0,0,10,0,0,0,0],"split_type":[0,0,0,0,0,0,0,0,0,0,0,0,0,0,0,0,0,0,0,0,0,0,0,0,0,0,0,0,0,0,0,0,0,0,0,0,0,0,0,0,0,0,0,0,0,0,0,0,0,0,0,0,0,0,0,0,0,0,0,0,0,0,0,0,0,0,0,0,0,0,0,0,0,0,0,0,0,0,0,0,0,0,0,0,0,0,0,0,0,0,0,0,0,0,0,0,0,0,0,0,0,0,0,0,0,0,0,0,0,0,0,0,0,0,0,0,0,0,0,0,0,0,0,0,0,0,0,0,0,0,0,0,0,0,0,0,0,0,0,0,0,0,0,0,0,0,0,0,0,0,0,0,0,0,0,0,0,0,0,0,0,0,0,0,0,0,0,0,0,0,0,0,0,0,0,0,0,0,0,0,0,0,0,0,0,0,0,0,0,0,0,0,0,0,0,0,0,0,0,0,0,0,0,0,0,0,0,0,0,0,0,0,0,0,0,0,0,0,0,0,0,0,0,0,0,0,0,0,0,0,0,0,0,0,0,0,0,0,0,0,0,0,0,0,0,0,0,0,0,0,0,0,0,0,0,0,0,0,0,0,0,0,0,0,0,0,0,0,0],"sum_hessian":[1.067E3,8E0,1.059E3,2E0,6E0,1.056E3,3E0,8.69E2,1.87E2,1E0,2E0,7.38E2,1.31E2,9.7E1,9E1,4.5E2,2.88E2,1E2,3.1E1,8.9E1,8E0,1E0,8.9E1,1.18E2,3.32E2,2.6E2,2.8E1,8E1,2E1,2.4E1,7E0,7E1,1.9E1,5E0,3E0,8.3E1,3.5E1,3.29E2,3E0,2.59E2,1E0,2.7E1,1E0,5E1,3E1,1.9E1,1E0,2.3E1,1E0,6E0,1E0,4E0,6.6E1,1.7E1,2E0,3.5E1,4.8E1,3.1E1,4E0,5.9E1,2.7E2,2.3E1,2.36E2,2.1E1,6E0,2E0,4.8E1,4E0,2.6E1,1.4E1,5E0,2.2E1,1E0,2E0,2E0,6.5E1,1E0,1.6E1,1E0,1E0,1E0,4E0,3.1E1,2.3E1,2.5E1,4E0,2.7E1,1E0,3E0,3.3E1,2.6E1,1E0,2.69E2,1E0,2.2E1,2.31E2,5E0,1E0,1E0,4.7E1,1E0,1E0,3E0,1E0,2.5E1,1E0,1.3E1,1E0,2.1E1,1.5E1,5E1,7E0,9E0,3E0,1E0,2.7E1,4E0,1.7E1,6E0,2.4E1,1E0,1E0,3E0,6E0,2.1E1,7E0,2.6E1,1E0,2.5E1,1.6E2,1.09E2,4E0,1.8E1,2.21E2,1E1,4E0,1E0,4.5E1,2E0,1.2E1,1E0,2E1,1E0,1.1E1,4E0,2E0,4.8E1,3E0,6E0,2.4E1,3E0,1E0,1.6E1,5E0,1E0,2.2E1,2E0,2E1,1E0,2E0,5E0,1E0,2.5E1,3E0,2.2E1,3.6E1,1.24E2,1.4E1,9.5E1,2.2E2,1E0,9E0,1E0,3.3E1,1.2E1,1.6E1,4E0,9E0,2E0,2E0,1E0,2E0,2.2E1,2E0,1E0,1.1E1,1.1E1,3E0,1.7E1,1.9E1,3E0,1.4E1,2.2E1,2.8E1,9.6E1,3E0,1.1E1,1.1E1,8.4E1,2.5E1,8E0,4E0,8E0,1.4E1,2E0,1E0,1E0,1E1,1.2E1,1E1,1E0,1.6E1,1E0,4E0,1E1,3E0,1.9E1,2.3E1,5E0,6E0,9E1,1E0,1E1,2.1E1,6.3E1,2.4E1,1E0,9E0,1E0,2E0,1E1,2E0,8E0,1E0,2E0,4E0,1.5E1,2.2E1,1E0,1E0,5E0,1E0,8.9E1,2E1,1E0,1E1,1.4E1,8E0,1E0,2E0,8E0,1E0,1E0,1E0,1.4E1,1E0,2.1E1,1E0,1.3E1,4E0,4E0,1.3E1,1E0,4E0,9E0,1.2E1,1E0,1E0,8E0],"tree_param":{"num_deleted":"0","num_feature":"14","num_nodes":"269","size_leaf_vector":"0"}},{"base_weights":[-8.7327766E-1,-1.7586071E0,-8.6577916E-1,-8.510027E-1,-2.1329694E0,-8.604807E-1,-2.0507662E0,-8.323744E-1,-9.853063E-1,-4.5247507E-1,-2.432705E0,-8.1262976E-1,-9.6998745E-1,-1.0633893E0,-7.9061204E-1,-8.306868E-1,-6.5998363E-1,-6.280194E-1,-1.048943E0,-9.979163E-1,-1.4475944E0,-1.5406609E-1,-7.9907656E-1,-8.7888694E-1,-7.596242E-1,-8.9150256E-1,-5.8558893E-1,6.030321E-2,-6.636682E-1,-9.4276273E-1,-1.2575707E0,-1.0118731E0,-1.3491757E-1,-2.2260273E0,-1.0368438E0,-8.100178E-1,-3.321279E-1,-8.8414973E-1,-1.3683176E-1,-7.6131755E-1,-1.4105129E-1,-5.557973E-1,-1.0851249E0,-5.317466E-1,-8.1624943E-1,-5.581629E-1,-9.725251E-1,-1.1336E0,-7.062552E-1,-1.3728329E0,-6.637686E-1,-6.9776684E-1,-1.0597292E0,-6.085167E-1,-2.4782758E0,-7.377734E-1,-9.1762805E-1,8.7750435E-2,-2.4094264E-1,-7.779268E-1,-6.172873E-1,-3.325925E-1,-7.516551E-1,-1.1366887E0,-2.8474283E-1,-4.88943E-1,-8.8767606E-1,-8.8533616E-1,-3.369061E-1,-6.15398E-1,-6.68548E-2,-1.2593919E0,-7.4349785E-1,-4.0665275E-1,-8.207437E-1,-1.438903E0,-5.188014E-1,-8.428439E-1,-1.5199776E-1,-1.4707041E0,-1.0009851E0,-4.8327163E-1,-8.8372815E-1,-1.5356895E0,-9.0087384E-1,-7.401951E-1,-8.73349E-1,-6.3378394E-1,-3.6449432E-2,-1.1914619E0,-3.2186508E-1,-5.22255E-1,-2.9014483E-1,-7.851124E-3,-9.243107E-2,-1.3311089E0,-3.614807E-1,-2.1956539E-1,-9.366738E-1,-4.2675325E-1,-1.1287403E-1,-8.4481984E-1,-1.8164873E-1,-1.4792938E0,-3.761301E-1,-9.48749E-1,-3.4089375E-1,-3.716151E-3,-2.4961345E-1,-2.4780178E-1,-1.5790486E0,-9.26419E-1,-1.223019E0,-3.500836E-1,-6.407563E-1,-7.790803E-1,-1.503858E0,-1.7148482E0,-2.3036861E-1,-9.069225E-1,-3.4689102E-1,-7.662056E-1,-6.23176E-1,-3.7667274E-1,-8.913064E-1,-6.434388E-1,-1.624136E-1,-5.5433774E-1,-2.2132747E-1,-4.570686E-1,-3.1807326E-2,-1.381197E0,-1.8971825E-1,-4.7204903E-1,-1.7881203E-1,-8.680248E-1,-2.1356487E-1,-1.3896704E-1,-1.0158305E0,-3.9562225E-2,3.3988E-2,-1.6622064E0,-4.5689297E-1,-4.827732E-1,-9.4599193E-1,-4.1442254E-1,1.3119824E-1,-3.295601E-1,-7.42448E-1,-3.9683256E-1,-8.660345E-1,-1.7628491E0,-1.0445118E-1,-9.701037E-1,-8.4437925E-1,-4.4214883E-1,-1.3600285E-1,-6.6685563E-1,-2.7179527E-1,-8.975145E-1,-2.563057E-1,-6.536182E-1,-1.6393852E-1,-1.4836693E-1,-5.6094295E-1,1.7235279E-1,-1.2593555E-1,-3.6935043E-1,-1.4168912E0,-9.471641E-1,-4.7282982E-1,-1.0743592E0,-2.445364E-1,-4.9972403E-1,-1.0975418E-1,1.7567253E-1,2.112484E-2,-8.751774E-2,-3.6819124E-1,-8.0173326E-1,-1.340828E-1,-6.1999004E-2,-4.7279108E-1,-9.89551E-1,-6.1007744E-1,-1.0873922E0,-8.010045E-1,-8.1671053E-1,-1.1524642E0,-2.960678E-1,-7.521629E-2,-5.672286E-1,-1.610446E-1,-1.1320504E0,-3.064146E-1,-5.323656E-1,-2.1346347E-1,-2.3624134E-1,-8.4876907E-1,3.5710335E-3,-9.656954E-2,-4.98758E-1,-1.1045632E0,-3.1420597E-1,-7.395387E-1,-1.3068732E0,-9.8843336E-1,-1.6273499E-1,-8.0855274E-1,-9.198316E-1,-7.1620536E-1,-8.675289E-2,-1.25036E0,-6.2571275E-1,-4.358387E-1,-2.2068532E-1,-5.771073E-1,-1.1701218E0,-4.085827E-1,-9.239696E-1,-4.0720004E-1,-8.47755E-1,-1.4952191E0,-9.783745E-2,-1.0014294E0,-4.1744155E-1,-8.2799345E-1,-8.627361E-1,-1.4040922E0,-4.4971055E-1,-8.1872547E-1,-6.4831233E-1,-2.5141177E-1,-4.5929086E-1,-1.8893306E-1,-6.1148286E-1,-1.5105152E-1,-1.2046875E0,-3.4310055E-1,-9.29435E-1,-9.715748E-2,-1.00978E0,-2.5019455E-1,-2.2183037E-1,-8.346199E-1,-8.7860745E-1,9.238577E-2,-6.939964E-1,-3.161551E-1,-7.5324434E-1,-1.2606878E0,-1.6178608E-1,-6.52613E-1,-1.2761649E0,-5.172157E-1,-2.1745205E-1,-1.0000823E0,-1.0176935E0,-2.7144337E-1,-8.913514E-1,-3.1386724E-1,-7.686454E-1,-8.572674E-2,-1.4023632E-1,-4.428665E-1,-9.6517855E-1,-6.5241724E-1,-1.0397791E0,-7.888469E-1,-4.0109362E-2,-3.2712045E-1,-8.0441475E-2,-4.74198E-1,-3.577601E-1,-1.0311075E0,-4.247889E-1,-7.498934E-1,-5.590888E-1,-1.1765469E0,-8.125782E-2,4.184119E-2,-3.8547835E-1,-1.1134511E0,-6.1030626E-1,-1.520849E-1,-2.4960041E-1,-8.0429685E-1],"categories":[],"categories_nodes":[],"categories_segments":[],"categories_sizes":[],"default_left":[1,1,1,0,0,1,1,1,1,0,0,1,1,1,1,1,1,1,1,1,1,0,1,1,1,1,1,0,1,1,1,1,0,1,0,0,0,1,1,1,0,1,1,1,1,1,0,1,1,1,0,1,1,0,0,1,1,0,0,1,1,0,0,1,0,1,0,0,0,0,1,1,1,1,1,1,0,1,1,1,1,1,1,1,1,1,1,1,0,0,0,1,1,0,0,1,0,0,0,1,0,1,0,0,0,1,0,1,0,0,1,1,0,1,1,1,1,0,0,1,1,0,1,0,1,1,0,1,0,0,1,1,0,0,0,1,0,0,1,0,0,0,0,0,0,1,1,1,1,1,1,0,0,1,1,0,0,0,1,0,0,0,0,0,1,0,0,0,0,0,0,1,0,1,0,0,0,0,0,1,0,1,0,1,1,1,1,1,1,0,0,1,0,0,0,1,0,0,0,0,0,0,1,0,1,1,1,0,1,1,1,0,0,1,1,0,1,1,0,0,0,1,0,0,1,0,1,1,0,1,1,0,0,0,0,1,0,1,0,1,0,1,0,0,0,1,0,1,1,1,0,0,0,0,0,0,0,0,0,1,0,0,0,1,1,1,1,1,0,1,0,0,0,0,1,1,1,0,0,0,0,0,0,0,0,0,0],"id":17,"left_children":[1,3,5,-1,-1,7,9,11,13,-1,-1,15,17,19,21,23,25,27,29,31,33,-1,35,37,39,41,43,-1,45,47,49,51,-1,53,-1,-1,-1,55,57,59,-1,61,63,65,67,69,-1,71,73,75,-1,77,79,-1,-1,81,83,-1,-1,85,87,-1,-1,89,-1,91,-1,-1,-1,-1,93,95,97,99,101,103,-1,105,107,109,111,113,115,117,119,121,123,125,-1,-1,-1,127,129,-1,-1,131,-1,-1,-1,133,-1,135,-1,-1,-1,137,-1,139,-1,-1,141,143,-1,145,147,149,151,-1,-1,153,155,-1,157,-1,159,161,-1,163,-1,-1,165,167,-1,-1,-1,169,-1,-1,171,-1,-1,-1,-1,-1,-1,173,175,177,179,181,183,-1,-1,185,187,-1,-1,-1,189,-1,-1,-1,-1,-1,191,-1,-1,-1,-1,-1,-1,193,-1,195,-1,-1,-1,-1,-1,197,-1,199,-1,201,203,205,207,209,211,-1,-1,213,-1,-1,-1,215,-1,-1,-1,-1,-1,-1,217,-1,219,221,223,-1,225,227,229,-1,-1,231,233,-1,235,237,-1,-1,-1,239,-1,-1,241,-1,243,245,-1,247,249,-1,-1,-1,-1,251,-1,253,-1,255,-1,257,-1,-1,-1,259,-1,261,263,265,-1,-1,-1,-1,-1,-1,-1,-1,-1,267,-1,-1,-1,269,271,273,275,277,-1,279,-1,-1,-1,-1,281,283,285,-1,-1,-1,-1,-1,-1,-1,-1,-1,-1],"loss_changes":[5.567444E0,9.0302086E-1,4.8969727E0,0E0,0E0,2.8917236E0,1.3410587E0,1.5756226E0,2.0325165E0,0E0,0E0,1.5658569E0,2.1492615E0,1.875885E0,1.8939972E-1,1.668396E0,9.591942E-1,5.7985497E-1,6.53038E-1,1.2606735E0,3.127571E0,0E0,2.2182465E-2,1.4411316E0,1.890564E-1,6.3189125E-1,4.1047287E-1,0E0,1.4148045E-1,1.86232E0,7.998314E-1,9.741974E-1,0E0,5.320015E-1,0E0,0E0,0E0,1.2684631E0,1.14668615E-1,1.9441223E-1,0E0,1.4345288E-1,1.3031483E-1,4.4960976E-1,6.600332E-2,4.6501875E-1,0E0,5.8486557E-1,6.609726E-1,3.8201523E-1,0E0,1.2971039E0,8.696518E-1,0E0,0E0,2.507431E0,1.9198303E0,0E0,0E0,2.5006104E-1,3.0268288E-1,0E0,0E0,6.2815666E-2,0E0,2.0607758E-1,0E0,0E0,0E0,0E0,3.8015954E-3,9.355316E-1,8.0645084E-1,1.0881901E-2,1.542778E-1,2.1626282E-1,0E0,4.2080498E-1,7.1445465E-2,9.336586E-1,3.239212E-1,4.2590857E-1,2.0082436E0,1.2419701E0,7.3420715E-1,8.5609436E-2,2.440033E-1,4.5680046E-2,0E0,0E0,0E0,3.1176567E-1,4.1668868E-1,0E0,0E0,8.813629E-1,0E0,0E0,0E0,1.6667962E-2,0E0,9.293747E-2,0E0,0E0,0E0,4.5636845E-1,0E0,5.399278E-3,0E0,0E0,8.039284E-2,1.511383E-1,0E0,6.427095E-1,1.66718E-1,1.1188049E0,1.9904718E0,0E0,0E0,4.0190125E-1,4.0310204E-2,0E0,4.173317E-1,0E0,1.4373779E-2,4.903984E-2,0E0,2.4036407E-2,0E0,0E0,1.177915E-1,1.628952E-1,0E0,0E0,0E0,1.151104E-1,0E0,0E0,1.887083E-1,0E0,0E0,0E0,0E0,0E0,0E0,3.869605E-1,1.0975253E-2,1.4528632E-2,2.1710491E-1,2.2502196E-1,5.0281715E-1,0E0,0E0,2.0444946E0,4.4823456E-1,0E0,0E0,0E0,6.3596964E-3,0E0,0E0,0E0,0E0,0E0,6.6814423E-3,0E0,0E0,0E0,0E0,0E0,0E0,5.185604E-2,0E0,7.831335E-3,0E0,0E0,0E0,0E0,0E0,1.2272835E-2,0E0,7.145228E-3,0E0,6.909294E-1,3.0388737E-1,5.326843E-1,1.7676163E-1,9.269409E-1,1.0391426E0,0E0,0E0,1.9290924E-2,0E0,0E0,0E0,2.6036978E-2,0E0,0E0,0E0,0E0,0E0,0E0,2.975769E-1,0E0,1.7540121E-1,7.2130203E-1,6.196251E-1,0E0,1.3338089E-1,7.7937317E-1,1.872139E0,0E0,0E0,4.0023804E-2,8.177757E-5,0E0,3.9447784E-2,1.5468597E-2,0E0,0E0,0E0,4.6147776E-1,0E0,0E0,1.3003159E-1,0E0,5.183792E-2,1.0968285E0,0E0,5.9623194E-1,7.289238E-1,0E0,0E0,0E0,0E0,4.2384863E-2,0E0,2.7889252E-2,0E0,1.8492699E-1,0E0,7.432175E-2,0E0,0E0,0E0,1.9523239E-1,0E0,2.9736042E-1,3.3913064E-1,5.0284004E-1,0E0,0E0,0E0,0E0,0E0,0E0,0E0,0E0,0E0,1.5350342E-1,0E0,0E0,0E0,1.5528864E-1,7.540798E-2,2.3180866E-1,5.467987E-1,8.542919E-1,0E0,2.7004896E-2,0E0,0E0,0E0,0E0,2.6191425E-1,6.154604E-1,5.0690556E-1,0E0,0E0,0E0,0E0,0E0,0E0,0E0,0E0,0E0,0E0],"parents":[2147483647,0,0,1,1,2,2,5,5,6,6,7,7,8,8,11,11,12,12,13,13,14,14,15,15,16,16,17,17,18,18,19,19,20,20,22,22,23,23,24,24,25,25,26,26,28,28,29,29,30,30,31,31,33,33,37,37,38,38,39,39,41,41,42,42,43,43,44,44,45,45,47,47,48,48,49,49,51,51,52,52,55,55,56,56,59,59,60,60,63,63,65,65,70,70,71,71,72,72,73,73,74,74,75,75,77,77,78,78,79,79,80,80,81,81,82,82,83,83,84,84,85,85,86,86,87,87,91,91,92,92,95,95,99,99,101,101,105,105,107,107,110,110,111,111,113,113,114,114,115,115,116,116,119,119,120,120,122,122,124,124,125,125,127,127,130,130,131,131,135,135,138,138,145,145,146,146,147,147,148,148,149,149,150,150,153,153,154,154,158,158,164,164,171,171,173,173,179,179,181,181,183,183,184,184,185,185,186,186,187,187,188,188,191,191,195,195,202,202,204,204,205,205,206,206,208,208,209,209,210,210,213,213,214,214,216,216,217,217,221,221,224,224,226,226,227,227,229,229,230,230,235,235,237,237,239,239,241,241,245,245,247,247,248,248,249,249,259,259,263,263,264,264,265,265,266,266,267,267,269,269,274,274,275,275,276,276],"right_children":[2,4,6,-1,-1,8,10,12,14,-1,-1,16,18,20,22,24,26,28,30,32,34,-1,36,38,40,42,44,-1,46,48,50,52,-1,54,-1,-1,-1,56,58,60,-1,62,64,66,68,70,-1,72,74,76,-1,78,80,-1,-1,82,84,-1,-1,86,88,-1,-1,90,-1,92,-1,-1,-1,-1,94,96,98,100,102,104,-1,106,108,110,112,114,116,118,120,122,124,126,-1,-1,-1,128,130,-1,-1,132,-1,-1,-1,134,-1,136,-1,-1,-1,138,-1,140,-1,-1,142,144,-1,146,148,150,152,-1,-1,154,156,-1,158,-1,160,162,-1,164,-1,-1,166,168,-1,-1,-1,170,-1,-1,172,-1,-1,-1,-1,-1,-1,174,176,178,180,182,184,-1,-1,186,188,-1,-1,-1,190,-1,-1,-1,-1,-1,192,-1,-1,-1,-1,-1,-1,194,-1,196,-1,-1,-1,-1,-1,198,-1,200,-1,202,204,206,208,210,212,-1,-1,214,-1,-1,-1,216,-1,-1,-1,-1,-1,-1,218,-1,220,222,224,-1,226,228,230,-1,-1,232,234,-1,236,238,-1,-1,-1,240,-1,-1,242,-1,244,246,-1,248,250,-1,-1,-1,-1,252,-1,254,-1,256,-1,258,-1,-1,-1,260,-1,262,264,266,-1,-1,-1,-1,-1,-1,-1,-1,-1,268,-1,-1,-1,270,272,274,276,278,-1,280,-1,-1,-1,-1,282,284,286,-1,-1,-1,-1,-1,-1,-1,-1,-1,-1],"split_conditions":[-1.6876858E-1,-1.2301841E0,4.2526674E0,-1.4467046E-1,-3.626048E-1,-7.5010665E-2,8.089488E-1,1.0474465E0,7.452278E-1,-7.692076E-2,-4.1355985E-1,1.7518498E-2,-1.2812761E0,8.145954E-1,-5.2364904E-1,4.5866218E-1,-1.5477412E0,-1.8428421E0,-2.4088922E-1,7.4587E-1,-7.355479E-1,-2.6191235E-2,2.2858708E0,1.0149107E0,-7.686806E-2,-3.6286902E-1,5.1132685E-1,1.0251546E-2,2.98448E0,-8.2694083E-1,3.4417883E-2,-5.51488E-1,-2.2935988E-2,-5.487628E-1,-1.7626344E-1,-1.3770303E-1,-5.6461744E-2,-1.1985189E0,-8.0834687E-1,1.617218E0,-2.397872E-2,5.740513E-1,1.1429062E0,3.4936216E0,5.78979E-1,2.8448117E0,-1.6532928E-1,-3.0121887E-1,-1.1597351E0,-2.5023377E-1,-1.1284066E-1,-9.3802404E-1,-4.9661416E-1,-1.0344784E-1,-4.2130688E-1,-1.2815273E-1,-1.1837616E0,1.4917574E-2,-4.096025E-2,1.0308654E0,6.127126E-1,-5.6540724E-2,-1.2778136E-1,-9.003239E-1,-4.840628E-2,6.4680874E-1,-1.5090494E-1,-1.5050715E-1,-5.727404E-2,-1.0461766E-1,2.7070725E0,3.030613E0,-1.160294E0,-1.2258123E-1,6.328853E0,8.115229E0,-8.819624E-2,-5.931281E-2,-8.824619E-1,4.5066364E-2,7.209675E-1,-4.3589443E-1,1.2157078E0,4.3531456E0,2.7719016E0,1.1058941E0,-1.074299E0,2.4275455E0,-6.1964034E-3,-2.0254853E-1,-5.4717064E-2,4.830184E-1,-1.9076833E-1,-1.3346911E-3,-1.5713282E-2,1.0296955E0,-6.1451722E-2,-3.7326116E-2,-1.5923455E-1,5.691257E-2,-1.9188585E-2,7.966511E-1,-3.0880285E-2,-2.5147995E-1,-6.394212E-2,-1.282205E0,-5.795194E-2,-1.1379006E0,-4.2434286E-2,-4.21263E-2,-1.0541296E-1,-1.1771171E0,-2.0791323E-1,-5.271399E-1,5.2525576E-2,8.303661E-3,1.0306282E0,-2.915242E-1,-3.9162666E-2,-1.453481E-1,-1.1389166E0,-1.3025495E-1,-1.00628756E-1,-6.4034365E-2,1.5802196E0,9.895222E-1,-2.7610311E-2,-2.3399534E0,-3.762567E-2,-7.770166E-2,-1.1072875E0,-1.6521087E-1,-3.2252103E-2,-8.024833E-2,-3.0398045E-2,2.0316727E0,-3.6306027E-2,-2.3624396E-2,2.5262525E0,-6.7255786E-3,5.7779597E-3,-2.825751E-1,-7.76718E-2,-8.2071446E-2,-1.6081864E-1,-7.604338E-1,-4.8708412E-1,-3.0245304E-1,-1.2029045E0,-1.0254626E-1,-2.0095336E-1,-2.9968435E-1,-1.77567E-2,4.906109E-1,1.829405E0,-7.51653E-2,-2.3120485E-2,-1.1336546E-1,1.1373885E0,-1.5257747E-1,-4.3571968E-2,-1.111151E-1,-2.7869549E-2,-2.5222378E-2,3.680881E0,2.9299974E-2,-2.1409044E-2,-6.2789574E-2,-2.408715E-1,-1.610179E-1,-8.038107E-2,7.6956825E0,-4.157119E-2,5.224231E-2,-1.8658211E-2,2.986433E-2,3.5912227E-3,-1.4878016E-2,-6.2592514E-2,-1.5633701E-1,-2.2794075E-2,-2.2512323E-1,-8.037449E-2,-2.563169E-1,3.0045137E-1,-3.9021492E-1,-1.0004185E0,-3.9648464E-1,-1.3909613E-1,-5.0331526E-2,-1.278677E-2,-3.5327995E-1,-2.7377581E-2,-1.9244857E-1,-5.2090485E-2,-1.5452272E-1,-3.628879E-2,-4.016103E-2,-1.4429075E-1,6.070757E-4,-1.6416822E-2,-8.478886E-2,-1.2022127E0,-5.3415015E-2,1.2406976E0,-1.159992E0,-1.0565641E0,-2.7664948E-2,5.424017E-1,7.738719E-1,-8.4355876E-2,-1.4747992E-2,-2.125612E-1,1.7995265E0,4.547609E-1,-3.7516505E-2,6.069522E0,1.4006177E0,-6.945906E-2,-1.5707484E-1,-6.922401E-2,6.112095E-1,-2.5418726E-1,-1.6632367E-2,1.9374001E0,-7.096507E-2,-1.3887954E0,7.7083945E-1,-2.3869568E-1,-1.6780466E-1,7.705891E-1,-1.102131E-1,-4.2740002E-2,-7.807945E-2,-3.2118622E-2,-1.1230009E0,-2.567876E-2,6.5431684E-1,-5.8327094E-2,-1.9338791E0,-1.6516771E-2,-1.3053259E-1,-4.2533074E-2,-3.7711162E-2,-1.4188538E-1,3.2551908E0,1.5705582E-2,1.4685997E0,-5.5368906E-1,-7.334447E-1,-2.1431693E-1,-2.7503634E-2,-1.1094421E-1,-2.1694803E-1,-8.792668E-2,-3.696685E-2,-1.7001398E-1,-1.730079E-1,-4.6145372E-2,-1.1739695E0,-5.335743E-2,-1.3066971E-1,-1.4573545E-2,-3.0739028E-2,4.0578544E-3,-1.1431516E0,-8.9152664E-1,-6.2446463E-1,-1.3410397E-1,5.430298E-1,-5.5610478E-2,-1.3675051E-2,-8.0613665E-2,-6.0819216E-2,-1.1804601E0,-9.714187E-1,-6.456572E-1,-9.5045105E-2,-2.0001298E-1,-1.381383E-2,7.1130022E-3,-6.553132E-2,-1.892867E-1,-1.0375207E-1,-2.5854433E-2,-4.243207E-2,-1.3673046E-1],"split_indices":[13,5,5,0,0,6,0,5,2,0,0,13,8,3,1,4,9,10,10,3,4,0,2,5,6,1,0,0,5,10,3,1,0,1,0,0,0,2,2,4,0,8,3,12,4,5,0,3,4,6,0,4,1,0,0,13,2,0,0,11,10,0,0,2,0,5,0,0,0,0,1,8,4,3,0,0,0,9,2,6,8,1,9,3,10,9,9,1,0,0,0,13,10,0,0,7,0,0,0,7,0,12,0,0,0,8,0,2,0,0,2,4,0,1,10,10,10,0,0,13,2,0,13,0,4,3,0,5,0,0,2,13,0,0,0,5,0,0,0,0,0,0,0,0,0,4,1,5,2,13,9,0,0,2,8,0,0,0,1,0,0,0,0,0,10,0,0,0,0,0,0,6,0,5,0,0,0,0,0,13,0,3,0,8,9,11,4,8,13,0,0,5,0,0,0,13,0,0,0,0,0,0,2,0,8,11,2,0,2,5,10,0,0,7,11,0,8,12,0,0,0,5,0,0,8,0,8,5,0,5,7,0,0,0,0,5,0,11,0,9,0,6,0,0,0,9,0,8,1,9,0,0,0,0,0,0,0,0,0,4,0,0,0,3,5,2,2,5,0,8,0,0,0,0,4,5,9,0,0,0,0,0,0,0,0,0,0],"split_type":[0,0,0,0,0,0,0,0,0,0,0,0,0,0,0,0,0,0,0,0,0,0,0,0,0,0,0,0,0,0,0,0,0,0,0,0,0,0,0,0,0,0,0,0,0,0,0,0,0,0,0,0,0,0,0,0,0,0,0,0,0,0,0,0,0,0,0,0,0,0,0,0,0,0,0,0,0,0,0,0,0,0,0,0,0,0,0,0,0,0,0,0,0,0,0,0,0,0,0,0,0,0,0,0,0,0,0,0,0,0,0,0,0,0,0,0,0,0,0,0,0,0,0,0,0,0,0,0,0,0,0,0,0,0,0,0,0,0,0,0,0,0,0,0,0,0,0,0,0,0,0,0,0,0,0,0,0,0,0,0,0,0,0,0,0,0,0,0,0,0,0,0,0,0,0,0,0,0,0,0,0,0,0,0,0,0,0,0,0,0,0,0,0,0,0,0,0,0,0,0,0,0,0,0,0,0,0,0,0,0,0,0,0,0,0,0,0,0,0,0,0,0,0,0,0,0,0,0,0,0,0,0,0,0,0,0,0,0,0,0,0,0,0,0,0,0,0,0,0,0,0,0,0,0,0,0,0,0,0,0,0,0,0,0,0,0,0,0,0,0,0,0,0,0,0,0,0,0,0,0,0,0,0,0,0,0,0],"sum_hessian":[1.067E3,7E0,1.06E3,3E0,4E0,1.057E3,3E0,8.69E2,1.88E2,1E0,2E0,7.66E2,1.03E2,1.31E2,5.7E1,6.81E2,8.5E1,2.1E1,8.2E1,1.15E2,1.6E1,1E0,5.6E1,3.99E2,2.82E2,1.8E1,6.7E1,1E0,2E1,5.8E1,2.4E1,1.13E2,2E0,4E0,1.2E1,5.4E1,2E0,3.96E2,3E0,2.81E2,1E0,8E0,1E1,5.7E1,1E1,1.7E1,3E0,3E1,2.8E1,1.9E1,5E0,1.7E1,9.6E1,1E0,3E0,7.8E1,3.18E2,1E0,2E0,2.48E2,3.3E1,5E0,3E0,9E0,1E0,5.3E1,4E0,8E0,2E0,1.5E1,2E0,2.1E1,9E0,9E0,1.9E1,1.7E1,2E0,1.3E1,4E0,9E0,8.7E1,3E1,4.8E1,6E0,3.12E2,1.84E2,6.4E1,3.2E1,1E0,8E0,1E0,4.4E1,9E0,1E0,1E0,1.9E1,2E0,3E0,6E0,8E0,1E0,1.8E1,1E0,1.6E1,1E0,1E1,3E0,2E0,2E0,1E0,8E0,6.9E1,1.8E1,1.8E1,1.2E1,4.3E1,5E0,5E0,1E0,3.08E2,4E0,1.46E2,3.8E1,3E0,6.1E1,3.1E1,1E0,3.9E1,5E0,5E0,4E0,1.8E1,1E0,6E0,2E0,1.7E1,1E0,1E0,9E0,1E0,1E0,7E0,1E0,4E0,6.5E1,1.6E1,2E0,4E0,8E0,9E0,3.4E1,4E0,1E0,1.46E2,1.62E2,2E0,2E0,3.3E1,5E0,6E1,1E0,3E1,1E0,1E0,3.8E1,1E0,3E0,1E0,1.7E1,1.3E1,4E0,8E0,1E0,1.2E1,4E0,1E0,1E0,1E0,3E0,7E0,1E0,2E0,7E0,2.1E1,1.3E1,8.3E1,6.3E1,1.52E2,1E1,4E0,1E0,3.7E1,1E0,7E0,1E0,1E1,2E0,1E0,6E0,1E0,1E0,5E0,1.6E1,5E0,8E0,2.2E1,6.1E1,1E0,6.2E1,7.1E1,8.1E1,1E0,9E0,2.3E1,1.4E1,2E0,8E0,1.4E1,2E0,4E0,4E0,8E0,1.4E1,1E0,6E1,4E0,5.8E1,6.6E1,5E0,2.4E1,5.7E1,2.1E1,2E0,1.2E1,2E0,7E0,1E0,1.3E1,1E0,7E0,1E0,5.9E1,1E0,1E0,5.7E1,6.5E1,1E0,7E0,1.7E1,5.2E1,5E0,1E0,6E0,1.1E1,2E0,1E0,6E0,5.8E1,1E0,6.3E1,2E0,6E0,1E0,8E0,9E0,1.4E1,3.8E1,2.2E1,4.1E1,6E0,2E0,1E0,8E0,2E0,1.2E1,1.3E1,2.5E1,6E0,1.6E1,4E0,2E0,2E0,1E1,7E0,6E0,3E0,2.2E1],"tree_param":{"num_deleted":"0","num_feature":"14","num_nodes":"287",