{"learner":{"attributes":{"best_iteration":"29","best_ntree_limit":"30","scikit_learn":"{\"n_estimators\": 30, \"objective\": \"reg:squarederror\", \"max_depth\": 5, \"max_leaves\": null, \"max_bin\": null, \"grow_policy\": \"depthwise\", \"learning_rate\": null, \"verbosity\": null, \"booster\": null, \"tree_method\": null, \"gamma\": null, \"min_child_weight\": null, \"max_delta_step\": null, \"subsample\": null, \"sampling_method\": null, \"colsample_bytree\": null, \"colsample_bylevel\": null, \"colsample_bynode\": null, \"reg_alpha\": null, \"reg_lambda\": null, \"scale_pos_weight\": null, \"base_score\": null, \"missing\": NaN, \"num_parallel_tree\": null, \"random_state\": null, \"n_jobs\": null, \"monotone_constraints\": null, \"interaction_constraints\": null, \"importance_type\": null, \"gpu_id\": null, \"validate_parameters\": null, \"predictor\": null, \"enable_categorical\": false, \"feature_types\": null, \"max_cat_to_onehot\": null, \"max_cat_threshold\": null, \"eval_metric\": \"rmse\", \"early_stopping_rounds\": null, \"callbacks\": null, \"kwargs\": {\"eta\": 0.15}, \"_estimator_type\": \"regressor\"}"},"feature_names":[],"feature_types":[],"gradient_booster":{"model":{"gbtree_model_param":{"num_parallel_tree":"1","num_trees":"30","size_leaf_vector":"0"},"tree_info":[0,0,0,0,0,0,0,0,0,0,0,0,0,0,0,0,0,0,0,0,0,0,0,0,0,0,0,0,0,0],"trees":[{"base_weights":[-8.818011E0,-9.797118E0,-7.075864E0,-1.0769519E1,-9.329335E0,-8.0287075E0,-6.486679E0,-9.990755E0,-8.966115E0,-8.576226E0,-7.2061653E0,-6.0571337E0,-9.158199E0,-6.6691337E0,-5.266041E0,-9.51498E0,-3.925203E0,-5.547527E0,-4.037964E0,-1.0176441E1,-6.17586E0],"categories":[],"categories_nodes":[],"categories_segments":[],"categories_sizes":[],"default_left":[1,1,1,0,1,1,1,0,0,0,0,1,1,0,1,1,0,0,0,0,0],"id":0,"left_children":[1,3,5,-1,7,9,11,-1,-1,-1,-1,13,15,-1,17,19,-1,-1,-1,-1,-1],"loss_changes":[1.9758672E3,2.4750781E2,1.9213086E2,0E0,3.6308594E1,1.1157227E1,2.5895312E2,0E0,0E0,0E0,0E0,8.059082E1,2.9865234E1,0E0,1.5279297E1,1.0038574E1,0E0,0E0,0E0,0E0,0E0],"parents":[2147483647,0,0,1,1,2,2,4,4,5,5,6,6,11,11,12,12,14,14,15,15],"right_children":[2,4,6,-1,8,10,12,-1,-1,-1,-1,14,16,-1,18,20,-1,-1,-1,-1,-1],"split_conditions":[-9.412919E-2,-1.1342414E-1,-6.577606E-2,-1.6154279E0,-3.8721138E-1,-2.4673933E-1,3.4780368E-1,-1.4986134E0,-1.3449173E0,-1.2864339E0,-1.0809249E0,4.493276E-3,4.50077E-2,-1.0003701E0,1.9236171E-1,-1.5002647E-1,-5.8878046E-1,-8.3212906E-1,-6.056946E-1,-1.5264663E0,-9.26379E-1],"split_indices":[13,13,13,0,1,1,0,0,0,0,0,13,7,0,13,1,0,0,0,0,0],"split_type":[0,0,0,0,0,0,0,0,0,0,0,0,0,0,0,0,0,0,0,0,0],"sum_hessian":[1.198E3,7.64E2,4.34E2,2.41E2,5.23E2,1.61E2,2.73E2,1.76E2,3.47E2,9.1E1,7E1,2.38E2,3.5E1,1.3E2,1.08E2,3.2E1,3E0,8.5E1,2.3E1,2.5E1,7E0],"tree_param":{"num_deleted":"0","num_feature":"14","num_nodes":"21","size_leaf_vector":"0"}},{"base_weights":[-7.5055733E0,-8.15444E0,-5.6102805E0,-8.8728075E0,-7.503739E0,-5.2776155E0,-7.9131784E0,-9.572191E0,-8.449833E0,-8.143819E0,-7.135593E0,-5.766379E0,-4.489326E0,-8.804379E0,-5.5906253E0,-8.744695E0,-7.3885694E0,-7.512868E0,-6.5727863E0,-4.725074E0,-3.4575064E0,-9.108579E0,-3.5373914E0,-8.788805E0,-2.4756207E0],"categories":[],"categories_nodes":[],"categories_segments":[],"categories_sizes":[],"default_left":[1,1,1,1,1,1,1,0,0,1,1,0,1,1,0,1,0,0,0,0,0,0,0,0,0],"id":1,"left_children":[1,3,5,7,9,11,13,-1,-1,15,17,-1,19,21,-1,23,-1,-1,-1,-1,-1,-1,-1,-1,-1],"loss_changes":[1.4287734E3,3.4991406E2,1.9495898E2,4.276953E1,5.3583984E1,7.929639E1,2.7363037E1,0E0,0E0,1.072168E1,1.6231445E1,0E0,1.0177246E1,7.834839E0,0E0,2.300293E0,0E0,0E0,0E0,0E0,0E0,0E0,0E0,0E0,0E0],"parents":[2147483647,0,0,1,1,2,2,3,3,4,4,5,5,6,6,9,9,10,10,12,12,13,13,15,15],"right_children":[2,4,6,8,10,12,14,-1,-1,16,18,-1,20,22,-1,24,-1,-1,-1,-1,-1,-1,-1,-1,-1],"split_conditions":[-7.447328E-2,-1.099961E-1,2.9099873E-1,-3.8855737E-1,-4.087841E-1,4.493276E-3,1.1644018E0,-1.4358287E0,-1.267475E0,-4.981978E-1,-1.01235025E-1,-8.6495686E-1,1.9236171E-1,-7.140061E-2,-8.3859384E-1,1.9932132E0,-1.1082854E0,-1.1269302E0,-9.85918E-1,-7.087611E-1,-5.18626E-1,-1.3662869E0,-5.306087E-1,-1.3183208E0,-3.7134314E-1],"split_indices":[13,13,0,1,1,13,13,0,0,2,13,0,13,6,0,9,0,0,0,0,0,0,0,0,0],"split_type":[0,0,0,0,0,0,0,0,0,0,0,0,0,0,0,0,0,0,0,0,0,0,0,0,0],"sum_hessian":[1.198E3,8.9E2,3.08E2,4.17E2,4.73E2,2.72E2,3.6E1,1.49E2,2.68E2,1.65E2,3.08E2,1.64E2,1.08E2,2.4E1,1.2E1,8.6E1,7.9E1,1.77E2,1.31E2,8.5E1,2.3E1,2.2E1,2E0,8.5E1,1E0],"tree_param":{"num_deleted":"0","num_feature":"14","num_nodes":"25","size_leaf_vector":"0"}},{"base_weights":[-6.3901143E0,-7.1002445E0,-5.140093E0,-8.276978E0,-6.865203E0,-5.7192087E0,-4.624812E0,-7.307541E0,-6.5319514E0,-6.1217575E0,-5.0683045E0,-4.220863E0,-6.7629485E0,-6.6920724E0,-5.8139467E0,-6.1957E0,-3.1819305E0,-4.4145784E0,-3.133838E0,-7.5354643E0,-4.816539E0,-6.235923E0,-2.6020072E0,-7.7863717E0,-3.1836524E0,-4.9861207E0,-1.3907783E0],"categories":[],"categories_nodes":[],"categories_segments":[],"categories_sizes":[],"default_left":[1,1,1,0,1,1,1,0,1,1,0,1,1,0,0,1,0,0,0,1,1,0,0,0,0,0,0],"id":2,"left_children":[1,3,5,-1,7,9,11,-1,13,15,-1,17,19,-1,-1,21,-1,-1,-1,23,25,-1,-1,-1,-1,-1,-1],"loss_changes":[1.0278281E3,1.539336E2,1.0425195E2,0E0,4.675586E1,2.1900879E1,1.7615137E2,0E0,4.2041016E0,6.371582E0,0E0,2.8701172E1,1.7835815E1,0E0,0E0,5.419922E-1,0E0,0E0,0E0,1.416626E0,6.177063E-1,0E0,0E0,0E0,0E0,0E0,0E0],"parents":[2147483647,0,0,1,1,2,2,4,4,5,5,6,6,8,8,9,9,11,11,12,12,15,15,19,19,20,20],"right_children":[2,4,6,-1,8,10,12,-1,14,16,-1,18,20,-1,-1,22,-1,-1,-1,24,26,-1,-1,-1,-1,-1,-1],"split_conditions":[-9.435267E-2,-1.1567393E-1,-5.2175023E-2,-1.2415466E0,-3.072695E-1,-2.093564E-1,3.4780368E-1,-1.0961312E0,-1.0355914E-1,1.6563157E0,-7.6024574E-1,1.4434132E-1,1.1644018E0,-1.0038109E0,-8.7209207E-1,3.845589E0,-4.772896E-1,-6.621868E-1,-4.700757E-1,-7.140061E-2,6.6029435E-1,-9.3538845E-1,-3.9030108E-1,-1.1679558E0,-4.7754788E-1,-7.479181E-1,-2.0861675E-1],"split_indices":[13,13,13,0,1,1,0,0,13,2,0,13,13,0,0,12,0,0,0,6,7,0,0,0,0,0,0],"split_type":[0,0,0,0,0,0,0,0,0,0,0,0,0,0,0,0,0,0,0,0,0,0,0,0,0,0,0],"sum_hessian":[1.198E3,7.61E2,4.37E2,1.21E2,6.4E2,2.01E2,2.36E2,2.66E2,3.74E2,1.19E2,8.2E1,2.01E2,3.5E1,2.99E2,7.5E1,1.15E2,4E0,1.68E2,3.3E1,2.3E1,1.2E1,1.13E2,2E0,2.1E1,2E0,1.1E1,1E0],"tree_param":{"num_deleted":"0","num_feature":"14","num_nodes":"27","size_leaf_vector":"0"}},{"base_weights":[-5.440364E0,-5.909532E0,-4.069912E0,-6.4606547E0,-5.4306116E0,-3.8126416E0,-5.8581533E0,-7.360381E0,-6.2195044E0,-5.924066E0,-5.1461596E0,-4.130824E0,-3.141752E0,-6.3337655E0,-3.6747193E0,-6.442115E0,-5.3034353E0,-5.402034E0,-4.7524385E0,-4.5433807E0,-3.8387022E0,-3.2144706E0,-1.7995291E0,-6.477017E0,-1.161368E0,-6.479181E0,-1.60867E0,-5.335821E0,-1.323909E0,-5.0585594E0,-3.7735264E0,-1.7481283E0,-3.2646809E0],"categories":[],"categories_nodes":[],"categories_segments":[],"categories_sizes":[],"default_left":[1,1,1,1,1,1,1,0,0,1,1,1,1,1,0,1,1,0,0,1,0,1,0,0,0,0,0,0,0,0,0,0,0],"id":3,"left_children":[1,3,5,7,9,11,13,-1,-1,15,17,19,21,23,-1,25,27,-1,-1,29,-1,31,-1,-1,-1,-1,-1,-1,-1,-1,-1,-1,-1],"loss_changes":[7.46875E2,2.0008789E2,1.1982324E2,4.296289E1,3.730957E1,4.5298584E1,1.5148682E1,0E0,0E0,2.0492188E1,5.9609375E0,4.493164E0,3.1951294E0,1.396521E1,0E0,5.3430176E0,3.6328125E0,0E0,0E0,8.674316E0,0E0,6.2475586E-1,0E0,0E0,0E0,0E0,0E0,0E0,0E0,0E0,0E0,0E0,0E0],"parents":[2147483647,0,0,1,1,2,2,3,3,4,4,5,5,6,6,9,9,10,10,11,11,12,12,13,13,15,15,16,16,19,19,21,21],"right_children":[2,4,6,8,10,12,14,-1,-1,16,18,20,22,24,-1,26,28,-1,-1,30,-1,32,-1,-1,-1,-1,-1,-1,-1,-1,-1,-1,-1],"split_conditions":[-7.447328E-2,-1.1025447E-1,2.9099873E-1,-4.1584018E-1,-4.087841E-1,2.5065642E-2,-1.5002647E-1,-1.1040572E0,-9.329257E-1,-4.981978E-1,-1.01235025E-1,-1.0394408E0,4.1660944E-1,-1.7100564E-1,-5.512079E-1,2.5459638E0,1.8649664E0,-8.103051E-1,-7.128658E-1,-1.9805416E-1,-5.7580537E-1,-2.2455916E0,-2.6992938E-1,-9.7155255E-1,-1.7420521E-1,-9.7187716E-1,-2.4130051E-1,-8.003732E-1,-1.9858636E-1,-7.5878394E-1,-5.66029E-1,-2.6221925E-1,-4.8970214E-1],"split_indices":[13,13,0,11,1,13,1,0,0,2,13,2,13,12,0,4,5,0,0,1,0,5,0,0,0,0,0,0,0,0,0,0,0],"split_type":[0,0,0,0,0,0,0,0,0,0,0,0,0,0,0,0,0,0,0,0,0,0,0,0,0,0,0,0,0,0,0,0,0],"sum_hessian":[1.198E3,8.9E2,3.08E2,4.08E2,4.82E2,2.72E2,3.6E1,8E1,3.28E2,1.69E2,3.13E2,1.81E2,9.1E1,2.8E1,8E0,8.7E1,8.2E1,1.82E2,1.31E2,6.9E1,1.12E2,8.5E1,6E0,2.7E1,1E0,8.6E1,1E0,8.1E1,1E0,3.8E1,3.1E1,4E0,8.1E1],"tree_param":{"num_deleted":"0","num_feature":"14","num_nodes":"33","size_leaf_vector":"0"}},{"base_weights":[-4.632976E0,-5.292576E0,-3.9222615E0,-5.930786E0,-5.0111003E0,-4.414843E0,-3.474375E0,-7.1352873E0,-5.714396E0,-5.3293896E0,-4.649656E0,-5.0115814E0,-4.159189E0,-3.2514503E0,-5.0252943E0,-3.2494407E0,-5.2260885E0,-1.0729326E0,-4.1694617E0,-3.564178E0,-2.7482255E0,-5.620647E0,-3.4938252E0,-5.548117E0,-3.7398489E0,-4.3408103E0,-3.6754568E0,-3.9395847E0,-3.3061068E0,-2.8930943E0,-2.114603E0,-5.8018727E0,-2.3577003E0,-3.6164997E0,-1.0108659E0],"categories":[],"categories_nodes":[],"categories_segments":[],"categories_sizes":[],"default_left":[1,1,1,1,1,1,1,0,0,0,0,1,1,1,1,0,1,0,1,1,1,1,1,0,0,0,0,0,0,0,0,0,0,0,0],"id":4,"left_children":[1,3,5,7,9,11,13,-1,-1,-1,-1,15,17,19,21,-1,23,-1,25,27,29,31,33,-1,-1,-1,-1,-1,-1,-1,-1,-1,-1,-1,-1],"loss_changes":[5.4131836E2,8.147656E1,1.128418E2,7.184082E0,2.5378906E1,2.08042E1,9.049341E1,0E0,0E0,0E0,0E0,1.2123413E1,1.7717285E0,3.316748E1,1.4097717E1,0E0,1.1317749E1,0E0,6.364746E-1,2.9606934E0,3.8875732E0,1.104187E0,3.0395508E-1,0E0,0E0,0E0,0E0,0E0,0E0,0E0,0E0,0E0,0E0,0E0,0E0],"parents":[2147483647,0,0,1,1,2,2,3,3,4,4,5,5,6,6,11,11,12,12,13,13,14,14,16,16,18,18,19,19,20,20,21,21,22,22],"right_children":[2,4,6,8,10,12,14,-1,-1,-1,-1,16,18,20,22,-1,24,-1,26,28,30,32,34,-1,-1,-1,-1,-1,-1,-1,-1,-1,-1,-1,-1],"split_conditions":[-1.03642136E-1,-1.9890274E-1,-7.447328E-2,-1.17466554E-1,-1.1199622E-1,-5.271758E-1,2.9099873E-1,-1.0702932E0,-8.5715944E-1,-7.994085E-1,-6.974484E-1,-9.704269E-1,-1.9841814E0,4.493276E-3,1.1644018E0,-4.8741612E-1,2.588653E-1,-1.609399E-1,4.7932446E-1,-1.0394408E0,1.9236171E-1,-7.140061E-2,6.6029435E-1,-8.3221763E-1,-5.6097734E-1,-6.5112156E-1,-5.513185E-1,-5.9093773E-1,-4.9591604E-1,-4.3396416E-1,-3.1719047E-1,-8.702809E-1,-3.5365507E-1,-5.42475E-1,-1.516299E-1],"split_indices":[13,4,13,13,13,1,0,0,0,0,0,8,5,13,13,0,2,0,1,2,13,6,7,0,0,0,0,0,0,0,0,0,0,0,0],"split_type":[0,0,0,0,0,0,0,0,0,0,0,0,0,0,0,0,0,0,0,0,0,0,0,0,0,0,0,0,0,0,0,0,0,0,0],"sum_hessian":[1.198E3,6.18E2,5.8E2,1.83E2,4.35E2,2.72E2,3.08E2,2.3E1,1.6E2,2.24E2,2.11E2,7.6E1,1.96E2,2.72E2,3.6E1,1E1,6.6E1,1E0,1.95E2,1.64E2,1.08E2,2.4E1,1.2E1,5.2E1,1.4E1,1.39E2,5.6E1,6.1E1,1.03E2,8.5E1,2.3E1,2.2E1,2E0,1.1E1,1E0],"tree_param":{"num_deleted":"0","num_feature":"14","num_nodes":"35","size_leaf_vector":"0"}},{"base_weights":[-3.946724E0,-4.5042214E0,-3.3459706E0,-5.0335975E0,-4.2220917E0,-3.7644992E0,-2.965374E0,-5.4727235E0,-4.6586466E0,-4.4179173E0,-3.9014149E0,-4.284268E0,-3.5422318E0,-2.7704654E0,-4.3233395E0,-4.7933927E0,-3.5712812E0,-3.6103253E0,-2.7590878E0,-3.0912101E0,-2.4044335E0,-4.5053782E0,-1.6951727E0,-4.8654165E0,-9.2020774E-1,-3.1987693E0,-5.241101E0,-4.157891E0,-3.4371493E0,-3.4812458E0,-2.8413944E0,-2.7082539E0,-2.1217806E0,-4.844663E0,-2.7971206E0],"categories":[],"categories_nodes":[],"categories_segments":[],"categories_sizes":[],"default_left":[1,1,1,1,1,1,1,0,0,0,0,1,1,1,1,1,1,1,0,1,1,1,0,0,0,0,0,0,0,0,0,0,0,0,0],"id":5,"left_children":[1,3,5,7,9,11,13,-1,-1,-1,-1,15,17,19,21,23,25,27,-1,29,31,33,-1,-1,-1,-1,-1,-1,-1,-1,-1,-1,-1,-1,-1],"loss_changes":[3.864961E2,7.119629E1,8.1384766E1,9.081543E0,8.510254E0,1.6363525E1,6.980835E1,0E0,0E0,0E0,0E0,1.0832397E1,5.439453E-1,2.4618164E1,1.0064453E1,7.2391357E0,5.627899E0,2.5876465E0,0E0,3.944458E0,5.5892334E0,6.154785E0,0E0,0E0,0E0,0E0,0E0,0E0,0E0,0E0,0E0,0E0,0E0,0E0,0E0],"parents":[2147483647,0,0,1,1,2,2,3,3,4,4,5,5,6,6,11,11,12,12,13,13,14,14,15,15,16,16,17,17,19,19,20,20,21,21],"right_children":[2,4,6,8,10,12,14,-1,-1,-1,-1,16,18,20,22,24,26,28,-1,30,32,34,-1,-1,-1,-1,-1,-1,-1,-1,-1,-1,-1,-1,-1],"split_conditions":[-1.03642136E-1,-3.8467708E-1,-7.447328E-2,-1.1367744E-1,5.930119E-2,-5.271758E-1,2.9099873E-1,-8.2090855E-1,-6.98797E-1,-6.626876E-1,-5.8521223E-1,-7.6112145E-1,1.1411812E0,-2.031402E-2,4.50077E-2,1.9932132E0,-8.098676E-2,-8.060678E-1,-4.1386318E-1,-1.0394408E0,-1.0530943E0,-1.5002647E-1,-2.5427592E-1,-7.298125E-1,-1.3803117E-1,-4.7981542E-1,-7.861652E-1,-6.2368363E-1,-5.155724E-1,-5.221869E-1,-4.2620918E-1,-4.062381E-1,-3.182671E-1,-7.266995E-1,-4.195681E-1],"split_indices":[13,1,13,13,1,1,0,0,0,0,0,2,10,13,7,9,13,4,0,2,2,1,0,0,0,0,0,0,0,0,0,0,0,0,0],"split_type":[0,0,0,0,0,0,0,0,0,0,0,0,0,0,0,0,0,0,0,0,0,0,0,0,0,0,0,0,0,0,0,0,0,0,0],"sum_hessian":[1.198E3,6.18E2,5.8E2,2.09E2,4.09E2,2.72E2,3.08E2,9E1,1.19E2,2.46E2,1.63E2,7.6E1,1.96E2,2.72E2,3.6E1,4.1E1,3.5E1,1.77E2,1.9E1,1.41E2,1.31E2,3.3E1,3E0,4E1,1E0,3.1E1,4E0,3.7E1,1.4E2,5E1,9.1E1,5.9E1,7.2E1,2.6E1,7E0],"tree_param":{"num_deleted":"0","num_feature":"14","num_nodes":"35","size_leaf_vector":"0"}},{"base_weights":[-3.3626618E0,-3.731424E0,-2.7134395E0,-4.599538E0,-3.5948586E0,-2.603374E0,-3.7727423E0,-3.957121E0,-3.368839E0,-2.9688468E0,-2.166922E0,-4.8444633E0,-3.1169972E0,-4.2811465E0,-3.6374834E0,-3.6146944E0,-3.0701344E0,-3.1665893E0,-2.4528198E0,-2.288349E0,-1.556768E0,-5.053174E0,-1.1699677E0,-1.604627E0,-3.3877802E0,-4.574052E0,-3.0687873E0,-3.9545553E0,-3.106258E0,-3.1392663E0,-2.3869548E0,-1.9446065E0,-3.2574406E0,-2.1523228E0,-2.7177677E0,-1.6905864E0,-9.105345E-1,-3.472159E0,-8.0791306E-1],"categories":[],"categories_nodes":[],"categories_segments":[],"categories_sizes":[],"default_left":[1,1,1,0,1,1,1,1,1,1,1,1,1,1,1,0,1,1,0,1,1,0,0,0,1,0,0,0,0,0,0,0,0,0,0,0,0,0,0],"id":6,"left_children":[1,3,5,-1,7,9,11,13,15,17,19,21,23,25,27,-1,29,31,-1,33,35,-1,-1,-1,37,-1,-1,-1,-1,-1,-1,-1,-1,-1,-1,-1,-1,-1,-1],"loss_changes":[2.769248E2,7.380371E1,4.124585E1,0E0,4.09541E1,5.7371338E1,1.2308044E1,1.0216309E1,1.9379395E1,1.4171631E1,1.021814E1,4.0577393E0,5.621063E0,2.7865723E1,9.949951E0,0E0,1.6691895E0,1.0540405E1,0E0,3.0875244E0,1.4009094E0,0E0,0E0,0E0,1.9838867E0,0E0,0E0,0E0,0E0,0E0,0E0,0E0,0E0,0E0,0E0,0E0,0E0,0E0,0E0],"parents":[2147483647,0,0,1,1,2,2,4,4,5,5,6,6,7,7,8,8,9,9,10,10,11,11,12,12,13,13,14,14,16,16,17,17,19,19,20,20,24,24],"right_children":[2,4,6,-1,8,10,12,14,16,18,20,22,24,26,28,-1,30,32,-1,34,36,-1,-1,-1,38,-1,-1,-1,-1,-1,-1,-1,-1,-1,-1,-1,-1,-1,-1],"split_conditions":[-9.435267E-2,-1.1613813E-1,9.064459E-2,-6.899307E-1,5.8316167E-2,-4.5488093E-2,2.531854E-1,-5.3013366E-1,-1.09680325E-1,1.6324824E-1,1.4434132E-1,-1.5002647E-1,1.6808579E0,-2.6789501E-2,-1.0873817E-1,-5.422042E-1,-9.84205E-2,-1.1472329E0,-3.67923E-1,-1.9668718E-1,-1.9925742E-1,-7.579761E-1,-1.7549515E-1,-2.4069406E-1,6.6029435E-1,-6.861078E-1,-4.6031812E-1,-5.9318334E-1,-4.6593872E-1,-4.7088996E-1,-3.5804322E-1,-2.91691E-1,-4.886161E-1,-3.2284844E-1,-4.0766516E-1,-2.53588E-1,-1.3658018E-1,-5.2082384E-1,-1.21186964E-1],"split_indices":[13,13,0,0,11,13,13,2,13,1,13,1,0,7,13,0,13,8,0,3,7,0,0,0,7,0,0,0,0,0,0,0,0,0,0,0,0,0,0],"split_type":[0,0,0,0,0,0,0,0,0,0,0,0,0,0,0,0,0,0,0,0,0,0,0,0,0,0,0,0,0,0,0,0,0,0,0,0,0,0,0],"sum_hessian":[1.198E3,7.61E2,4.37E2,9.9E1,6.62E2,3.99E2,3.8E1,2.48E2,4.14E2,2.14E2,1.85E2,1.2E1,2.6E1,1.17E2,1.31E2,2.21E2,1.93E2,1.51E2,6.3E1,1.52E2,3.3E1,1.1E1,1E0,5E0,2.1E1,9.2E1,2.5E1,7.8E1,5.3E1,1.72E2,2.1E1,1.2E1,1.39E2,1.2E2,3.2E1,2.6E1,7E0,2E1,1E0],"tree_param":{"num_deleted":"0","num_feature":"14","num_nodes":"39","size_leaf_vector":"0"}},{"base_weights":[-2.8652282E0,-3.1078167E0,-2.1564524E0,-3.7909806E0,-2.977581E0,-2.0062733E0,-3.2062473E0,-4.493682E0,-3.511286E0,-3.1165566E0,-2.6267147E0,-2.1859615E0,-1.6289959E0,-3.6277947E0,-2.148945E0,-3.5274055E0,-9.2549133E-1,-3.463476E0,-2.9808202E0,-2.7033381E0,-1.9788741E0,-2.3383198E0,-1.8199141E0,-1.7962126E0,-1.182636E0,-3.7206988E0,-6.990471E-1,-2.4104004E0,-9.5807093E-1,-3.6009488E0,-2.5836866E0,-3.2219508E0,-2.72193E0,-2.6313646E0,-3.3867998E0,-5.818291E-1,-2.0102286E0,-2.759059E0,-2.040209E0,-1.903714E0,-9.374136E-1,-2.3130078E0,-1.4153904E0,-3.1668448E-1,-1.2370676E0,-3.8435743E0,-1.5793784E0],"categories":[],"categories_nodes":[],"categories_segments":[],"categories_sizes":[],"default_left":[1,1,1,1,1,1,1,0,1,1,1,1,1,1,1,0,0,1,1,1,1,1,1,1,1,1,0,0,0,0,0,0,0,0,0,0,0,0,0,0,0,0,0,0,0,0,0],"id":7,"left_children":[1,3,5,7,9,11,13,-1,15,17,19,21,23,25,27,-1,-1,29,31,33,35,37,39,41,43,45,-1,-1,-1,-1,-1,-1,-1,-1,-1,-1,-1,-1,-1,-1,-1,-1,-1,-1,-1,-1,-1],"loss_changes":[1.9945508E2,6.798633E1,4.2283447E1,1.1540527E1,2.853125E1,1.4946411E1,8.695038E0,0E0,1.0703125E0,1.4821777E1,5.571167E0,5.8946533E0,4.742523E0,4.2013855E0,1.7383499E0,0E0,0E0,8.112549E0,1.5638916E1,6.312256E-1,1.3084412E-2,1.0049316E1,2.5047302E0,9.518646E0,9.280205E-1,2.4432373E-1,0E0,0E0,0E0,0E0,0E0,0E0,0E0,0E0,0E0,0E0,0E0,0E0,0E0,0E0,0E0,0E0,0E0,0E0,0E0,0E0,0E0],"parents":[2147483647,0,0,1,1,2,2,3,3,4,4,5,5,6,6,8,8,9,9,10,10,11,11,12,12,13,13,14,14,17,17,18,18,19,19,20,20,21,21,22,22,23,23,24,24,25,25],"right_children":[2,4,6,8,10,12,14,-1,16,18,20,22,24,26,28,-1,-1,30,32,34,36,38,40,42,44,46,-1,-1,-1,-1,-1,-1,-1,-1,-1,-1,-1,-1,-1,-1,-1,-1,-1,-1,-1,-1,-1],"split_conditions":[-7.447328E-2,-1.1523868E-1,2.9099873E-1,-4.7079867E-1,8.29586E-2,2.5065642E-2,1.1644018E0,-6.740523E-1,2.6586084E0,-6.679739E-1,-9.13725E-2,-2.3993087E-1,-2.4244183E-1,8.969898E-1,2.0275087E0,-5.2911085E-1,-1.388237E-1,-2.4615413E-1,-1.09136745E-1,8.9561605E-1,-9.110366E-2,-1.0422227E0,1.0695236E0,-1.0530943E0,-2.1807406E0,-7.140061E-2,-1.04857065E-1,-3.6156008E-1,-1.4371064E-1,-5.4014236E-1,-3.87553E-1,-4.8329264E-1,-4.0828952E-1,-3.947047E-1,-5.0802E-1,-8.7274365E-2,-3.015343E-1,-4.1385886E-1,-3.0603138E-1,-2.855571E-1,-1.4061204E-1,-3.469512E-1,-2.1230857E-1,-4.7502674E-2,-1.8556014E-1,-5.765362E-1,-2.3690677E-1],"split_indices":[13,13,0,1,1,13,13,0,7,2,13,11,1,2,4,0,0,4,13,5,13,2,8,2,5,6,0,0,0,0,0,0,0,0,0,0,0,0,0,0,0,0,0,0,0,0,0],"split_type":[0,0,0,0,0,0,0,0,0,0,0,0,0,0,0,0,0,0,0,0,0,0,0,0,0,0,0,0,0,0,0,0,0,0,0,0,0,0,0,0,0,0,0,0,0,0,0],"sum_hessian":[1.198E3,8.9E2,3.08E2,1.38E2,7.52E2,2.72E2,3.6E1,3.5E1,1.03E2,5.33E2,2.19E2,1.81E2,9.1E1,2.4E1,1.2E1,1.02E2,1E0,1.43E2,3.9E2,1.93E2,2.6E1,1.24E2,5.7E1,6.4E1,2.7E1,2.3E1,1E0,9E0,3E0,1.21E2,2.2E1,1.96E2,1.94E2,1.79E2,1.4E1,1E0,2.5E1,4.8E1,7.6E1,5.1E1,6E0,2.5E1,3.9E1,2E0,2.5E1,2.1E1,2E0],"tree_param":{"num_deleted":"0","num_feature":"14","num_nodes":"47","size_leaf_vector":"0"}},{"base_weights":[-2.4419615E0,-2.7898405E0,-2.0671268E0,-3.1757495E0,-2.5721252E0,-2.2599812E0,-1.7776672E0,-3.6925073E0,-2.8636954E0,-2.7555635E0,-2.321959E0,-2.379528E0,-1.8342385E0,-1.5957794E0,-2.74888E0,-4.227315E0,-3.2590415E0,-2.8935163E0,-1.4738629E0,-2.767114E0,-9.7462493E-1,-2.3429813E0,-1.1344007E0,-2.7354026E0,-2.1228364E0,-1.9652989E0,-1.3993839E0,-1.667637E0,-9.9335027E-1,-3.7147624E0,-2.2893353E0,-1.5185459E0,-3.382756E0,-3.5642154E0,-2.7269347E0,-6.077678E-1,-2.7740715E0,-1.3270171E0,-1.8196774E-1,-2.868518E0,-1.8541064E0,-1.9968172E0,-2.5981574E0,-2.041876E0,-1.3129958E0,-1.9613717E0,-1.5179582E0,-1.0345362E0,-2.3036003E-2,-3.95108E0,-7.93952E-1,-1.2597001E0,-2.4660842E0],"categories":[],"categories_nodes":[],"categories_segments":[],"categories_sizes":[],"default_left":[1,1,1,1,1,1,1,1,1,1,1,1,1,1,1,0,1,1,0,1,0,0,1,1,1,1,0,1,1,1,1,0,0,0,0,0,0,0,0,0,0,0,0,0,0,0,0,0,0,0,0,0,0],"id":8,"left_children":[1,3,5,7,9,11,13,15,17,19,21,23,25,27,29,-1,31,33,-1,35,-1,-1,37,39,41,43,-1,45,47,49,51,-1,-1,-1,-1,-1,-1,-1,-1,-1,-1,-1,-1,-1,-1,-1,-1,-1,-1,-1,-1,-1,-1],"loss_changes":[1.5057959E2,4.3838867E1,2.841626E1,2.4740723E1,1.2003662E1,1.319458E1,3.7479797E1,4.5369873E0,1.5792236E0,1.9519043E0,1.736023E0,1.8492188E1,1.8091736E0,7.0878296E0,7.4748535E0,0E0,5.1987E0,5.587036E0,0E0,1.6795654E0,0E0,0E0,6.757965E-1,7.3514404E0,4.3359985E0,2.6615906E-1,0E0,4.8926697E0,9.352875E-1,3.765442E0,1.8070984E0,0E0,0E0,0E0,0E0,0E0,0E0,0E0,0E0,0E0,0E0,0E0,0E0,0E0,0E0,0E0,0E0,0E0,0E0,0E0,0E0,0E0,0E0],"parents":[2147483647,0,0,1,1,2,2,3,3,4,4,5,5,6,6,7,7,8,8,9,9,10,10,11,11,12,12,13,13,14,14,16,16,17,17,19,19,22,22,23,23,24,24,25,25,27,27,28,28,29,29,30,30],"right_children":[2,4,6,8,10,12,14,16,18,20,22,24,26,28,30,-1,32,34,-1,36,-1,-1,38,40,42,44,-1,46,48,50,52,-1,-1,-1,-1,-1,-1,-1,-1,-1,-1,-1,-1,-1,-1,-1,-1,-1,-1,-1,-1,-1,-1],"split_conditions":[-1.03642136E-1,-1.8219617E-3,-5.2175023E-2,-4.772877E-1,-1.1150751E-1,4.7235525E-1,3.4780368E-1,-1.135639E-1,3.535883E0,2.1891418E0,2.1530695E0,-7.5897586E-1,9.045384E-1,1.9236171E-1,2.531854E-1,-6.340973E-1,-1.1221349E-1,-9.985697E-1,-2.2107944E-1,-9.584923E-1,-1.4619374E-1,-3.5144722E-1,7.0229983E-1,-2.4615413E-1,-1.00889936E-1,2.3299396E-1,-2.0990759E-1,-1.0601838E0,6.909155E-1,-1.5002647E-1,1.6808579E0,-2.2778189E-1,-5.0741345E-1,-5.346323E-1,-4.090402E-1,-9.116518E-2,-4.1611072E-1,-1.9905257E-1,-2.7295161E-2,-4.3027773E-1,-2.78116E-1,-2.995226E-1,-3.8972363E-1,-3.0628142E-1,-1.9694938E-1,-2.9420575E-1,-2.2769374E-1,-1.5518044E-1,-3.4554007E-3,-5.9266204E-1,-1.190928E-1,-1.8895502E-1,-3.6991265E-1],"split_indices":[13,11,13,1,13,1,0,13,7,7,1,2,10,13,13,0,13,2,0,4,0,0,8,4,3,7,0,2,13,1,0,0,0,0,0,0,0,0,0,0,0,0,0,0,0,0,0,0,0,0,0,0,0],"split_type":[0,0,0,0,0,0,0,0,0,0,0,0,0,0,0,0,0,0,0,0,0,0,0,0,0,0,0,0,0,0,0,0,0,0,0,0,0,0,0,0,0,0,0,0,0,0,0,0,0,0,0,0,0],"sum_hessian":[1.198E3,6.18E2,5.8E2,2.18E2,4E2,3.44E2,2.36E2,7.8E1,1.4E2,2.25E2,1.75E2,2.65E2,7.9E1,2.01E2,3.5E1,3.1E1,4.7E1,1.36E2,4E0,2.23E2,2E0,1.71E2,4E0,1.07E2,1.58E2,5.8E1,2.1E1,1.78E2,2.3E1,9E0,2.6E1,4E0,4.3E1,2.3E1,1.13E2,1E0,2.22E2,3E0,1E0,9.1E1,1.6E1,1.29E2,2.9E1,5E1,8E0,5.6E1,1.22E2,2.2E1,1E0,8E0,1E0,5E0,2.1E1],"tree_param":{"num_deleted":"0","num_feature":"14","num_nodes":"53","size_leaf_vector":"0"}},{"base_weights":[-2.0821955E0,-2.3631008E0,-1.7475499E0,-2.7442143E0,-2.198173E0,-1.6810242E0,-2.5553901E0,-3.5862718E0,-2.6083941E0,-2.3899546E0,-2.00105E0,-1.867425E0,-1.3298306E0,-3.508321E0,-1.9666338E0,-2.957441E0,-2.3441107E0,-2.550462E0,-2.1220481E0,-2.0079165E0,-8.07621E-1,-2.0888872E0,-1.6991223E0,-1.2167507E0,-1.6751009E0,-3.6652064E0,-7.344055E-1,-2.099386E0,-9.6264666E-1,-3.0272107E0,-1.4589474E0,-2.4086585E0,-1.5970244E0,-2.5613806E0,-5.327611E-1,-1.1991373E0,-2.1730871E0,-2.0117023E0,-5.704546E-1,-1.0089042E0,-2.231107E0,-2.2060564E0,-1.5853696E0,-1.3576009E0,-9.1850454E-1,-1.9510919E0,-7.199364E-1,-2.2026134E0,-6.7699844E-1],"categories":[],"categories_nodes":[],"categories_segments":[],"categories_sizes":[],"default_left":[1,1,1,1,1,1,1,0,1,1,1,1,1,1,1,1,1,1,1,1,0,1,1,1,1,0,0,1,0,0,0,0,0,0,0,0,0,0,0,0,0,0,0,0,0,0,0,0,0],"id":9,"left_children":[1,3,5,7,9,11,13,-1,15,17,19,21,23,25,27,29,31,33,35,37,-1,39,41,43,45,-1,-1,47,-1,-1,-1,-1,-1,-1,-1,-1,-1,-1,-1,-1,-1,-1,-1,-1,-1,-1,-1,-1,-1],"loss_changes":[1.08581055E2,3.476172E1,2.5316162E1,1.2604126E1,1.2531982E1,3.1033691E1,1.5542175E1,0E0,8.657227E0,4.348999E0,2.7947998E-1,8.825195E0,5.0286255E0,3.400879E0,1.5776443E0,2.7973633E0,1.0238037E0,1.6536255E0,1.6806946E0,1.0406494E-1,0E0,1.9098755E1,7.689636E0,4.6341705E0,9.667236E0,0E0,0E0,1.8859024E0,0E0,0E0,0E0,0E0,0E0,0E0,0E0,0E0,0E0,0E0,0E0,0E0,0E0,0E0,0E0,0E0,0E0,0E0,0E0,0E0,0E0],"parents":[2147483647,0,0,1,1,2,2,3,3,4,4,5,5,6,6,8,8,9,9,10,10,11,11,12,12,13,13,14,14,15,15,16,16,17,17,18,18,19,19,21,21,22,22,23,23,24,24,27,27],"right_children":[2,4,6,8,10,12,14,-1,16,18,20,22,24,26,28,30,32,34,36,38,-1,40,42,44,46,-1,-1,48,-1,-1,-1,-1,-1,-1,-1,-1,-1,-1,-1,-1,-1,-1,-1,-1,-1,-1,-1,-1,-1],"split_conditions":[-1.0217033E-1,-1.9890274E-1,9.064459E-2,-1.17466554E-1,-1.6688323E-1,-4.3648932E-2,2.531854E-1,-5.379408E-1,-4.693331E-1,-1.12088814E-1,1.8722253E0,-8.1466115E-1,-2.0017149E-1,-1.5002647E-1,2.9262133E0,3.6138803E-1,7.595656E-1,3.1839166E0,-6.2175226E-1,1.7176545E0,-1.21143155E-1,-1.1894522E0,-1.1522223E0,7.025027E-2,-5.147033E-1,-5.4978096E-1,-1.10160835E-1,1.6425728E1,-1.44397E-1,-4.5408162E-1,-2.1884212E-1,-3.612988E-1,-2.3955368E-1,-3.842071E-1,-7.991417E-2,-1.798706E-1,-3.2596308E-1,-3.0175537E-1,-8.556819E-2,-1.5133564E-1,-3.3466607E-1,-3.3090848E-1,-2.3780544E-1,-2.0364015E-1,-1.3777569E-1,-2.9266378E-1,-1.0799046E-1,-3.30392E-1,-1.0154977E-1],"split_indices":[13,4,0,13,1,13,13,0,1,13,7,4,3,1,4,11,1,7,2,5,0,5,5,13,4,0,0,13,0,0,0,0,0,0,0,0,0,0,0,0,0,0,0,0,0,0,0,0,0],"split_type":[0,0,0,0,0,0,0,0,0,0,0,0,0,0,0,0,0,0,0,0,0,0,0,0,0,0,0,0,0,0,0,0,0,0,0,0,0,0,0,0,0,0,0,0,0,0,0,0,0],"sum_hessian":[1.198E3,6.48E2,5.5E2,1.91E2,4.57E2,5.11E2,3.9E1,2.3E1,1.68E2,2.26E2,2.31E2,3.31E2,1.8E2,1.3E1,2.6E1,6.8E1,1E2,1.36E2,9E1,2.29E2,2E0,1.38E2,1.93E2,1.39E2,4.1E1,1.2E1,1E0,2.2E1,4E0,6.4E1,4E0,9E1,1E1,1.35E2,1E0,6E0,8.4E1,2.28E2,1E0,1.7E1,1.21E2,3.2E1,1.61E2,9.2E1,4.7E1,3.1E1,1E1,2E1,2E0],"tree_param":{"num_deleted":"0","num_feature":"14","num_nodes":"49","size_leaf_vector":"0"}},{"base_weights":[-1.7751399E0,-1.9738433E0,-1.4253978E0,-2.565307E0,-1.899726E0,-1.3572952E0,-2.0873365E0,-2.7065372E0,-1.8661003E0,-1.8768293E0,-3.5913086E0,-1.4974566E0,-1.0613807E0,-2.745811E0,-1.6929847E0,-1.9189758E0,-5.1004696E-1,-2.2224045E0,-1.7909548E0,-1.6429403E0,-1.2508435E0,-1.158865E0,-6.751828E-1,-2.8614078E0,-6.793251E-1,-8.889093E-1,-1.8353242E0,-1.5972286E0,-2.4102452E0,-1.8349825E0,-1.1368724E0,-1.9939101E0,-1.3529006E0,-1.4005593E0,-9.539539E-1,-1.3576918E0,-8.4523433E-1,-8.552641E-1,-3.027531E-1,-2.3375022E0,-1.2220505E0],"categories":[],"categories_nodes":[],"categories_segments":[],"categories_sizes":[],"default_left":[1,1,1,1,1,1,1,0,1,1,0,1,1,1,1,0,0,1,1,1,1,1,1,0,0,0,1,0,0,0,0,0,0,0,0,0,0,0,0,0,0],"id":10,"left_children":[1,3,5,7,9,11,13,-1,15,17,-1,19,21,23,25,-1,-1,27,29,31,33,35,37,-1,-1,-1,39,-1,-1,-1,-1,-1,-1,-1,-1,-1,-1,-1,-1,-1,-1],"loss_changes":[8.051099E1,2.8530762E1,1.6911743E1,3.046814E0,1.9635986E1,1.5000916E1,5.478546E0,0E0,2.401619E-1,1.6021484E1,0E0,7.5962524E0,4.1871185E0,1.1616058E0,1.4587631E0,0E0,0E0,1.1416687E1,1.3608643E1,1.4200409E1,3.2866364E0,5.337677E0,1.6860275E0,0E0,0E0,0E0,3.9188461E0,0E0,0E0,0E0,0E0,0E0,0E0,0E0,0E0,0E0,0E0,0E0,0E0,0E0,0E0],"parents":[2147483647,0,0,1,1,2,2,3,3,4,4,5,5,6,6,8,8,9,9,11,11,12,12,13,13,14,14,17,17,18,18,19,19,20,20,21,21,22,22,26,26],"right_children":[2,4,6,8,10,12,14,-1,16,18,-1,20,22,24,26,-1,-1,28,30,32,34,36,38,-1,-1,-1,40,-1,-1,-1,-1,-1,-1,-1,-1,-1,-1,-1,-1,-1,-1],"split_conditions":[-9.435267E-2,-1.164914E-1,9.064459E-2,-1.6973001E-1,-1.0858096E-1,-2.031402E-2,2.531854E-1,-4.0598062E-1,-1.1672986E-1,-5.8142483E-1,-5.386963E-1,-2.093564E-1,-2.2408512E-1,-1.5002647E-1,1.6808579E0,-2.878464E-1,-7.650705E-2,-9.4537514E-1,-9.8456845E-2,-8.496351E-1,9.0376616E-1,-2.0794585E-1,5.7580277E-2,-4.2921117E-1,-1.0189877E-1,-1.333364E-1,-3.9907902E-1,-2.3958431E-1,-3.615368E-1,-2.752474E-1,-1.7053087E-1,-2.990865E-1,-2.029351E-1,-2.100839E-1,-1.430931E-1,-2.0365377E-1,-1.2678516E-1,-1.2828963E-1,-4.5412965E-2,-3.5062534E-1,-1.8330759E-1],"split_indices":[13,13,0,1,0,13,13,0,13,11,0,1,2,1,0,0,0,9,13,2,10,1,13,0,0,0,1,0,0,0,0,0,0,0,0,0,0,0,0,0,0],"split_type":[0,0,0,0,0,0,0,0,0,0,0,0,0,0,0,0,0,0,0,0,0,0,0,0,0,0,0,0,0,0,0,0,0,0,0,0,0,0,0,0,0],"sum_hessian":[1.198E3,7.61E2,4.37E2,8.1E1,6.8E2,3.99E2,3.8E1,6.5E1,1.6E1,6.73E2,7E0,2.68E2,1.31E2,1.2E1,2.6E1,1.5E1,1E0,1.29E2,5.44E2,1.65E2,1.03E2,1.03E2,2.8E1,1.1E1,1E0,5E0,2.1E1,3.2E1,9.7E1,5.08E2,3.6E1,7.2E1,9.3E1,6.6E1,3.7E1,6.1E1,4.2E1,1.8E1,1E1,1E1,1.1E1],"tree_param":{"num_deleted":"0","num_feature":"14","num_nodes":"41","size_leaf_vector":"0"}},{"base_weights":[-1.512967E0,-1.8125532E0,-1.3387784E0,-2.6553285E0,-1.7164625E0,-1.4771931E0,-1.131079E0,-2.8477454E0,-1.2589346E0,-2.321483E0,-1.6568962E0,-1.6102009E0,-1.2970911E0,-1.039587E0,-1.7755721E0,-2.888622E0,-6.8809223E-1,-3.151405E-1,-1.3637103E0,-1.729751E0,-1.472943E0,-1.4808663E0,-1.96205E0,-4.5712313E-1,-1.3209593E0,-1.132664E0,-7.1135145E-1,-1.4274049E0,-2.3819697E0,-2.9289956E0,-7.3777485E-1,-1.734424E0,-2.7140093E-1,-1.3197011E0,-1.6074215E0,-5.928103E-1,-1.5264034E0,-2.3952706E0,-1.4269007E0,-6.851758E-1,-1.14789724E-1,-1.33569E0,-7.4083394E-1,-1.3428168E0,-8.5680556E-1,-7.994099E-1,-3.46046E-1,-1.4653687E0,-2.3915446E-1,-2.5034356E-1,-2.5529954E0],"categories":[],"categories_nodes":[],"categories_segments":[],"categories_sizes":[],"default_left":[1,1,1,1,1,1,1,1,1,0,1,1,1,1,1,1,0,0,0,1,1,1,1,1,1,1,1,1,1,0,0,0,0,0,0,0,0,0,0,0,0,0,0,0,0,0,0,0,0,0,0],"id":11,"left_children":[1,3,5,7,9,11,13,15,17,-1,19,21,23,25,27,29,-1,-1,-1,31,33,35,37,39,41,43,45,47,49,-1,-1,-1,-1,-1,-1,-1,-1,-1,-1,-1,-1,-1,-1,-1,-1,-1,-1,-1,-1,-1,-1],"loss_changes":[6.0142822E1,3.0912598E1,2.0235596E1,7.9685364E0,1.0424927E1,8.786987E0,1.6374634E1,1.278717E0,2.624464E-1,0E0,2.3304443E0,8.789612E0,3.3657532E0,7.534729E0,4.4116974E0,9.6517944E-1,0E0,0E0,0E0,1.2670898E0,1.4553833E-1,6.8595276E0,1.1883484E1,4.6783912E-1,6.5127563E-1,1.1081665E1,1.7499676E0,8.2242584E-1,3.7356262E0,0E0,0E0,0E0,0E0,0E0,0E0,0E0,0E0,0E0,0E0,0E0,0E0,0E0,0E0,0E0,0E0,0E0,0E0,0E0,0E0,0E0,0E0],"parents":[2147483647,0,0,1,1,2,2,3,3,4,4,5,5,6,6,7,7,8,8,10,10,11,11,12,12,13,13,14,14,15,15,19,19,20,20,21,21,22,22,23,23,24,24,25,25,26,26,27,27,28,28],"right_children":[2,4,6,8,10,12,14,16,18,-1,20,22,24,26,28,30,-1,-1,-1,32,34,36,38,40,42,44,46,48,50,-1,-1,-1,-1,-1,-1,-1,-1,-1,-1,-1,-1,-1,-1,-1,-1,-1,-1,-1,-1,-1,-1],"split_conditions":[-1.09490216E-1,-5.5355966E-1,-7.447328E-2,8.7841195E-1,-1.1755432E-1,2.588653E-1,2.9099873E-1,1.2538145E0,-2.2447538E-1,-3.4822243E-1,1.4997731E-2,-1.6712946E-1,-9.9426067E-1,-2.5861436E-1,1.5799143E0,1.5590745E0,-1.0321384E-1,-4.7271077E-2,-2.0455655E-1,1.6147356E0,8.293416E-2,-1.074347E0,3.2011712E-1,-9.1289234E-1,9.226661E-1,-2.2510293E-1,5.3129286E-2,6.6029435E-1,1.5035923E0,-4.3934935E-1,-1.1066623E-1,-2.601636E-1,-4.071014E-2,-1.9795518E-1,-2.4111323E-1,-8.892155E-2,-2.2896053E-1,-3.592906E-1,-2.1403512E-1,-1.0277637E-1,-1.721846E-2,-2.0035352E-1,-1.111251E-1,-2.0142253E-1,-1.2852085E-1,-1.1991149E-1,-5.1906902E-2,-2.1980532E-1,-3.587317E-2,-3.7551537E-2,-3.8294932E-1],"split_indices":[13,1,13,11,13,2,0,2,4,0,1,3,9,2,5,6,0,0,0,10,5,8,3,8,7,1,13,7,0,0,0,0,0,0,0,0,0,0,0,0,0,0,0,0,0,0,0,0,0,0,0],"split_type":[0,0,0,0,0,0,0,0,0,0,0,0,0,0,0,0,0,0,0,0,0,0,0,0,0,0,0,0,0,0,0,0,0,0,0,0,0,0,0,0,0,0,0,0,0,0,0,0,0,0,0],"sum_hessian":[1.198E3,4.37E2,7.61E2,4.2E1,3.95E2,4.53E2,3.08E2,3.6E1,6E0,3.2E1,3.63E2,2.56E2,1.97E2,2.72E2,3.6E1,3.5E1,1E0,1E0,5E0,2.54E2,1.09E2,1.91E2,6.5E1,6E0,1.91E2,2.1E2,6.2E1,2.5E1,1.1E1,3.4E1,1E0,2.53E2,1E0,5.6E1,5.3E1,1E1,1.81E2,3.4E1,3.1E1,3E0,3E0,1.85E2,6E0,1.17E2,9.3E1,4.9E1,1.3E1,2.4E1,1E0,1E0,1E1],"tree_param":{"num_deleted":"0","num_feature":"14","num_nodes":"51","size_leaf_vector":"0"}},{"base_weights":[-1.2897699E0,-1.5012716E0,-1.1070029E0,-2.012089E0,-1.4181556E0,-1.0655082E0,-1.694325E0,-2.5048933E0,-1.6278884E0,-1.6785676E0,-1.3378239E0,-1.1821814E0,-8.2573235E-1,-2.4073687E0,-1.2354368E0,-3.4194865E0,-2.1974912E0,7.834656E-1,-1.700498E0,-2.0541592E0,-1.5710847E0,-1.3256754E0,-2.9163823E0,-1.3470862E0,-1.0462118E0,1.02024674E-1,-8.5955966E-1,-2.505256E0,-5.1847315E-1,-1.3312488E0,-5.4761446E-1,-1.9472852E0,-1.0325763E0,-2.1836188E0,-9.5805025E-1,-1.5804648E0,-3.728156E-1,-1.3649849E0,-1.0467948E0,-1.4378458E0,-8.4536004E-1,-9.62945E-1,-1.3366665E0,-7.335353E-2,1.7270966E-1,-1.0714854E0,-7.4535453E-1,-1.8637627E0,-1.0336696E0],"categories":[],"categories_nodes":[],"categories_segments":[],"categories_sizes":[],"default_left":[1,1,1,1,1,1,1,1,1,1,1,1,1,1,1,0,0,0,1,1,1,1,0,1,1,1,1,0,0,1,0,0,0,0,0,0,0,0,0,0,0,0,0,0,0,0,0,0,0],"id":12,"left_children":[1,3,5,7,9,11,13,15,17,19,21,23,25,27,29,-1,-1,-1,31,33,35,37,-1,39,41,43,45,-1,-1,47,-1,-1,-1,-1,-1,-1,-1,-1,-1,-1,-1,-1,-1,-1,-1,-1,-1,-1,-1],"loss_changes":[4.4686157E1,2.0625366E1,1.3962524E1,1.0122498E1,7.774719E0,1.6004883E1,1.0441353E1,1.201294E0,9.211212E0,1.1730347E0,3.2485352E0,7.694031E0,6.4271545E0,1.4745712E0,1.0503349E0,0E0,0E0,0E0,5.241997E0,8.879242E-1,4.111328E-1,2.6272583E0,0E0,6.9810486E0,4.202896E0,1.11841716E-1,3.9209442E0,0E0,0E0,1.7181816E0,0E0,0E0,0E0,0E0,0E0,0E0,0E0,0E0,0E0,0E0,0E0,0E0,0E0,0E0,0E0,0E0,0E0,0E0,0E0],"parents":[2147483647,0,0,1,1,2,2,3,3,4,4,5,5,6,6,7,7,8,8,9,9,10,10,11,11,12,12,13,13,14,14,18,18,19,19,20,20,21,21,23,23,24,24,25,25,26,26,29,29],"right_children":[2,4,6,8,10,12,14,16,18,20,22,24,26,28,30,-1,-1,-1,32,34,36,38,-1,40,42,44,46,-1,-1,48,-1,-1,-1,-1,-1,-1,-1,-1,-1,-1,-1,-1,-1,-1,-1,-1,-1,-1,-1],"split_conditions":[-1.0574803E-1,-5.301088E-1,7.71092E-2,-1.1259449E-1,-1.1544924E-1,-5.2175023E-2,2.531854E-1,-1.0660547E0,-1.1250682E-1,-6.707239E-1,-1.0579609E-1,-5.4549235E-1,-2.2256656E0,1.6540581E-1,2.9262133E0,-5.12923E-1,-3.296237E-1,1.1751985E-1,2.2045729E-1,2.572762E0,1.2381492E0,5.8118695E-1,-4.3745735E-1,4.833919E-1,1.1937792E0,-3.0498996E0,-1.0601838E0,-3.7578842E-1,-7.777098E-2,-5.654757E-1,-8.2142174E-2,-2.920928E-1,-1.5488645E-1,-3.2754284E-1,-1.4370754E-1,-2.3706974E-1,-5.5922344E-2,-2.0474774E-1,-1.5701923E-1,-2.1567689E-1,-1.2680401E-1,-1.4444175E-1,-2.0049998E-1,-1.10030295E-2,2.590645E-2,-1.6072282E-1,-1.1180318E-1,-2.795644E-1,-1.5505044E-1],"split_indices":[13,1,0,13,13,13,13,4,13,2,13,4,5,10,4,0,0,0,11,7,1,1,0,1,4,5,2,0,0,1,0,0,0,0,0,0,0,0,0,0,0,0,0,0,0,0,0,0,0],"split_type":[0,0,0,0,0,0,0,0,0,0,0,0,0,0,0,0,0,0,0,0,0,0,0,0,0,0,0,0,0,0,0,0,0,0,0,0,0,0,0,0,0,0,0,0,0,0,0,0,0],"sum_hessian":[1.198E3,5.52E2,6.46E2,7.4E1,4.78E2,6.06E2,4E1,3E1,4.4E1,1.08E2,3.7E2,4.05E2,2.01E2,1.4E1,2.6E1,5E0,2.5E1,1E0,4.3E1,2E1,8.8E1,3.69E2,1E0,1.79E2,2.26E2,7E0,1.94E2,1.3E1,1E0,2.2E1,4E0,3E1,1.3E1,1.7E1,3E0,8.7E1,1E0,3.2E2,4.9E1,1.5E2,2.9E1,1.79E2,4.7E1,2E0,5E0,6.5E1,1.29E2,6E0,1.6E1],"tree_param":{"num_deleted":"0","num_feature":"14","num_nodes":"49","size_leaf_vector":"0"}},{"base_weights":[-1.1001832E0,-1.3218279E0,-9.713374E-1,-2.0015297E0,-1.2484872E0,-1.0190163E0,-6.4551336E-1,-2.159972E0,-9.233851E-1,-1.7125498E0,-1.2032343E0,-1.1189928E0,-8.665454E-1,-7.888581E-1,-3.5676292E-1,-2.3483603E0,-1.3548096E0,-2.1406174E-1,-1.0059286E0,-6.336012E-1,-1.7617207E0,-1.2280114E0,-8.60283E-1,-1.0838389E0,-2.1565244E0,-7.996581E-1,-1.4089168E0,-8.7066656E-1,-8.6913496E-2,-4.155059E-1,2.0237148E-1,-2.432308E0,-8.6601E-1,-1.4673012E0,-2.2743845E-1,-2.0614843E0,-1.3045405E0,-1.3089219E0,-1.1006783E0,-9.00174E-1,-2.2780006E-1,-6.829504E-1,-1.1483886E0,-3.0873392E0,-7.111533E-1,-1.0133889E0,-6.6466373E-1,-1.0124416E0,-1.9296111E0,-6.7154855E-1,-1.0975645E0,9.551617E-2,-4.2280164E-1,-4.726576E-1,1.027205E-1,2.8207016E-1,8.1781864E-2],"categories":[],"categories_nodes":[],"categories_segments":[],"categories_sizes":[],"default_left":[1,1,1,1,1,1,1,1,1,1,1,1,1,1,1,1,1,0,0,0,1,1,1,1,1,1,1,1,1,1,1,0,0,0,0,0,0,0,0,0,0,0,0,0,0,0,0,0,0,0,0,0,0,0,0,0,0],"id":13,"left_children":[1,3,5,7,9,11,13,15,17,19,21,23,25,27,29,31,33,-1,-1,-1,35,37,39,41,43,45,47,49,51,53,55,-1,-1,-1,-1,-1,-1,-1,-1,-1,-1,-1,-1,-1,-1,-1,-1,-1,-1,-1,-1,-1,-1,-1,-1,-1,-1],"loss_changes":[3.295703E1,1.9335266E1,1.117981E1,5.0092773E0,6.2974854E0,9.13678E0,3.8576508E0,2.1273346E0,1.9452E-1,6.3451385E-1,2.0535889E0,1.2142578E1,8.559494E0,3.7143784E0,1.2336688E0,1.253479E0,8.0765724E-1,0E0,0E0,0E0,1.5591354E0,2.0518494E0,5.0139046E-1,9.204315E0,1.3948898E1,6.2510223E0,3.826767E0,1.9285202E0,5.305921E-1,9.9631214E-1,1.53751075E-2,0E0,0E0,0E0,0E0,0E0,0E0,0E0,0E0,0E0,0E0,0E0,0E0,0E0,0E0,0E0,0E0,0E0,0E0,0E0,0E0,0E0,0E0,0E0,0E0,0E0,0E0],"parents":[2147483647,0,0,1,1,2,2,3,3,4,4,5,5,6,6,7,7,8,8,9,9,10,10,11,11,12,12,13,13,14,14,15,15,16,16,20,20,21,21,22,22,23,23,24,24,25,25,26,26,27,27,28,28,29,29,30,30],"right_children":[2,4,6,8,10,12,14,16,18,20,22,24,26,28,30,32,34,-1,-1,-1,36,38,40,42,44,46,48,50,52,54,56,-1,-1,-1,-1,-1,-1,-1,-1,-1,-1,-1,-1,-1,-1,-1,-1,-1,-1,-1,-1,-1,-1,-1,-1,-1,-1],"split_conditions":[-1.09490216E-1,-5.554526E-1,7.566701E-1,7.836585E-1,-1.1755432E-1,-7.447328E-2,5.8280516E-1,-3.952476E-2,-2.2447538E-1,-1.0963514E0,7.7298856E-1,-7.8397796E-2,1.5035923E0,3.6058754E-2,2.937892E0,5.999365E-1,-5.580855E-1,-3.210926E-2,-1.508893E-1,-9.504018E-2,-1.678167E-1,5.839853E-1,9.391397E-1,-7.891897E-1,-7.3701364E-1,-1.0394408E0,1.5799143E0,1.5356752E0,2.2369897E0,9.1483074E-1,3.6136892E0,-3.648462E-1,-1.2990151E-1,-2.200952E-1,-3.411577E-2,-3.0922267E-1,-1.9568108E-1,-1.963383E-1,-1.6510175E-1,-1.3502611E-1,-3.417001E-2,-1.0244256E-1,-1.722583E-1,-4.6310088E-1,-1.06673E-1,-1.5200834E-1,-9.9699564E-2,-1.5186626E-1,-2.8944167E-1,-1.0073229E-1,-1.6463467E-1,1.43274255E-2,-6.342025E-2,-7.0898645E-2,1.5408075E-2,4.2310525E-2,1.226728E-2],"split_indices":[13,1,1,11,13,13,10,2,4,4,7,13,0,13,1,3,1,0,0,0,4,11,5,9,9,2,5,1,5,12,1,0,0,0,0,0,0,0,0,0,0,0,0,0,0,0,0,0,0,0,0,0,0,0,0,0,0],"split_type":[0,0,0,0,0,0,0,0,0,0,0,0,0,0,0,0,0,0,0,0,0,0,0,0,0,0,0,0,0,0,0,0,0,0,0,0,0,0,0,0,0,0,0,0,0,0,0,0,0,0,0,0,0,0,0,0,0],"sum_hessian":[1.198E3,4.37E2,7.61E2,4E1,3.97E2,6.62E2,9.9E1,3.4E1,6E0,3.2E1,3.65E2,3.96E2,2.66E2,6.5E1,3.4E1,2.6E1,8E0,1E0,5E0,2E0,3E1,3.38E2,2.7E1,3.85E2,1.1E1,2.39E2,2.7E1,5.8E1,7E0,3.1E1,3E0,2.4E1,2E0,7E0,1E0,1.6E1,1.4E1,2.01E2,1.37E2,2.5E1,2E0,5.5E1,3.3E2,6E0,5E0,9E1,1.49E2,1.7E1,1E1,3.3E1,2.5E1,5E0,2E0,2.8E1,3E0,1E0,2E0],"tree_param":{"num_deleted":"0","num_feature":"14","num_nodes":"57","size_leaf_vector":"0"}},{"base_weights":[-9.3842125E-1,-1.048231E0,-7.452398E-1,-1.0290297E0,-2.5403967E0,-7.027125E-1,-1.1623089E0,-1.2066654E0,-9.1851205E-1,-2.6935444E0,-6.5760756E-1,-7.7608323E-1,-4.4864413E-1,-1.3558025E0,-6.710292E-1,-1.5970894E0,-1.1003423E0,-1.0379798E0,-7.9616463E-1,-9.1449535E-1,-6.3266414E-1,-2.7483097E-1,-7.370657E-1,-1.4035707E0,-5.6916E-2,-9.7822666E-1,-2.679704E-1,-9.004138E-1,-2.1972992E0,-1.0212467E0,-1.5367788E0,-7.244113E-1,-1.0770842E0,-8.152755E-1,-1.4959687E-1,-1.9699821E-1,-9.956677E-1,-5.124428E-1,-9.063964E-1,-1.4236015E-1,-7.818117E-1,-1.0813555E0,-9.772409E-2,-1.2249855E0,-4.8691118E-1,-1.09900594E-1,-3.5904765E-1],"categories":[],"categories_nodes":[],"categories_segments":[],"categories_sizes":[],"default_left":[1,1,1,1,1,1,1,1,1,0,0,1,1,1,1,1,1,1,1,1,1,1,1,0,0,1,1,0,0,0,0,0,0,0,0,0,0,0,0,0,0,0,0,0,0,0,0],"id":14,"left_children":[1,3,5,7,9,11,13,15,17,-1,-1,19,21,23,25,27,29,31,33,35,37,39,41,-1,-1,43,45,-1,-1,-1,-1,-1,-1,-1,-1,-1,-1,-1,-1,-1,-1,-1,-1,-1,-1,-1,-1],"loss_changes":[2.4653564E1,1.921814E1,6.95195E0,1.3694153E1,8.2380676E-1,7.1082916E0,2.797535E0,1.0114868E1,6.028778E0,0E0,0E0,5.5553894E0,4.409527E0,1.5953369E0,1.347506E0,2.269246E1,6.301178E0,2.089035E0,2.794159E0,8.831192E0,4.6363297E0,3.851151E0,7.3783627E0,0E0,0E0,2.5219584E-1,6.131637E-2,0E0,0E0,0E0,0E0,0E0,0E0,0E0,0E0,0E0,0E0,0E0,0E0,0E0,0E0,0E0,0E0,0E0,0E0,0E0,0E0],"parents":[2147483647,0,0,1,1,2,2,3,3,4,4,5,5,6,6,7,7,8,8,11,11,12,12,13,13,14,14,15,15,16,16,17,17,18,18,19,19,20,20,21,21,22,22,25,25,26,26],"right_children":[2,4,6,8,10,12,14,16,18,-1,-1,20,22,24,26,28,30,32,34,36,38,40,42,-1,-1,44,46,-1,-1,-1,-1,-1,-1,-1,-1,-1,-1,-1,-1,-1,-1,-1,-1,-1,-1,-1,-1],"split_conditions":[-9.435267E-2,-8.69695E-2,9.064459E-2,9.1757495E-3,1.1862799E0,2.5065642E-2,1.1644018E0,-1.055524E0,-1.10838085E-1,-4.0403166E-1,-9.8641135E-2,-8.0844516E-1,6.614159E-1,8.969898E-1,-1.1193788E0,-2.30255E-1,1.2838919E0,-4.537376E-1,-9.626889E-2,-1.3541877E0,7.9333234E-1,8.920878E-4,-2.341843E-1,-2.105356E-1,-8.5374005E-3,-2.7857083E-1,4.8611408E-1,-1.3506208E-1,-3.295949E-1,-1.53187E-1,-2.3051684E-1,-1.08661704E-1,-1.6156264E-1,-1.2229133E-1,-2.2439532E-2,-2.9549733E-2,-1.4935017E-1,-7.6866426E-2,-1.3595946E-1,-2.1354023E-2,-1.1727176E-1,-1.6220333E-1,-1.4658614E-2,-1.8374783E-1,-7.303668E-2,-1.648509E-2,-5.385715E-2],"split_indices":[13,0,0,11,8,13,13,2,13,0,0,4,10,2,11,3,8,9,13,5,4,3,1,0,0,1,5,0,0,0,0,0,0,0,0,0,0,0,0,0,0,0,0,0,0,0,0],"split_type":[0,0,0,0,0,0,0,0,0,0,0,0,0,0,0,0,0,0,0,0,0,0,0,0,0,0,0,0,0,0,0,0,0,0,0,0,0,0,0,0,0,0,0,0,0,0,0],"sum_hessian":[1.198E3,7.61E2,4.37E2,7.53E2,8E0,3.99E2,3.8E1,2.85E2,4.68E2,7E0,1E0,3.08E2,9.1E1,2.6E1,1.2E1,5.8E1,2.27E2,2.33E2,2.35E2,1.54E2,1.54E2,5.8E1,3.3E1,2.5E1,1E0,6E0,6E0,2.8E1,3E1,1.95E2,3.2E1,2.8E1,2.05E2,2.28E2,7E0,1.6E1,1.38E2,1.09E2,4.5E1,4.7E1,1.1E1,2.1E1,1.2E1,3E0,3E0,3E0,3E0],"tree_param":{"num_deleted":"0","num_feature":"14","num_nodes":"47","size_leaf_vector":"0"}},{"base_weights":[-8.0017626E-1,-1.0550376E0,-7.3496056E-1,-1.965031E0,-9.775491E-1,-7.720814E-1,-4.79067E-1,-2.0506094E0,-2.5510025E-1,-1.0742787E0,-7.776756E-1,-8.405274E-1,-6.2573856E-1,-2.055803E-1,-6.166385E-1,-2.1262767E0,-4.1996527E-1,-1.0990547E0,-4.1467217E-1,-6.292644E-1,-9.4686437E-1,-8.22333E-1,-1.8751897E0,-5.70379E-1,-1.0838325E0,-4.014234E-2,-5.117217E-1,-1.1890332E0,-5.3869E-1,-2.3630116E0,-1.1328579E0,-1.4934906E0,-1.0481226E0,9.1907024E-2,-8.175833E-1,-5.528105E-1,-9.5440525E-1,-2.3518498E-1,-9.8399484E-1,-7.9570484E-1,-1.4988441E0,-1.0481743E0,-2.327167E0,1.4172253E-1,-6.0154957E-1,-7.830322E-1,-1.477521E0,-1.9157344E-1,3.81311E-1,9.968281E-3,-7.735635E-1,-5.9393805E-1,-1.7844176E0,-5.724333E-1,1.9492662E-1],"categories":[],"categories_nodes":[],"categories_segments":[],"categories_sizes":[],"default_left":[1,1,1,1,1,1,1,1,0,1,1,1,1,1,1,1,0,1,1,1,1,1,1,1,1,1,1,1,1,0,0,0,0,0,0,0,0,0,0,0,0,0,0,0,0,0,0,0,0,0,0,0,0,0,0],"id":15,"left_children":[1,3,5,7,9,11,13,15,-1,17,19,21,23,25,27,29,-1,31,33,35,37,39,41,43,45,47,49,51,53,-1,-1,-1,-1,-1,-1,-1,-1,-1,-1,-1,-1,-1,-1,-1,-1,-1,-1,-1,-1,-1,-1,-1,-1,-1,-1],"loss_changes":[1.9153137E1,1.5143463E1,8.730103E0,2.1108856E0,3.5146332E0,7.8378906E0,4.5386047E0,1.2046127E0,0E0,1.9792786E0,1.3376045E0,9.112976E0,6.2289658E0,2.1572967E0,3.0181007E0,1.0858688E0,0E0,1.3074341E0,1.5038863E0,5.661602E-1,6.670284E-1,8.859314E0,9.248543E-1,5.4790344E0,2.158863E0,1.9238625E0,2.0567143E0,2.1289597E0,1.943428E0,0E0,0E0,0E0,0E0,0E0,0E0,0E0,0E0,0E0,0E0,0E0,0E0,0E0,0E0,0E0,0E0,0E0,0E0,0E0,0E0,0E0,0E0,0E0,0E0,0E0,0E0],"parents":[2147483647,0,0,1,1,2,2,3,3,4,4,5,5,6,6,7,7,9,9,10,10,11,11,12,12,13,13,14,14,15,15,17,17,18,18,19,19,20,20,21,21,22,22,23,23,24,24,25,25,26,26,27,27,28,28],"right_children":[2,4,6,8,10,12,14,16,-1,18,20,22,24,26,28,30,-1,32,34,36,38,40,42,44,46,48,50,52,54,-1,-1,-1,-1,-1,-1,-1,-1,-1,-1,-1,-1,-1,-1,-1,-1,-1,-1,-1,-1,-1,-1,-1,-1,-1,-1],"split_conditions":[-1.1342414E-1,-5.554526E-1,2.3561218E-1,1.0706635E0,-1.7275086E-1,-7.447328E-2,-7.134204E-1,1.5945643E0,-3.826504E-2,1.3174512E0,2.2140393E-1,-1.1275741E-1,1.5035923E0,-7.103849E-3,-6.404872E-1,-1.4217947E-2,-6.299479E-2,-1.1817684E-1,-1.2976906E-1,8.5854566E-1,-1.3832608E-1,1.9541882E0,4.1863838E-1,-2.1131516E0,1.5799143E0,7.8913495E-2,-4.5596483E-1,-6.704453E-1,4.4405466E-1,-3.5445175E-1,-1.699287E-1,-2.240236E-1,-1.572184E-1,1.3786054E-2,-1.226375E-1,-8.292158E-2,-1.4316079E-1,-3.527775E-2,-1.4759924E-1,-1.1935573E-1,-2.2482663E-1,-1.5722615E-1,-3.4907508E-1,2.125838E-2,-9.023244E-2,-1.17454834E-1,-2.2162814E-1,-2.8736018E-2,5.719665E-2,1.4952422E-3,-1.1603453E-1,-8.909071E-2,-2.6766264E-1,-8.5865E-2,2.9238993E-2],"split_indices":[13,1,7,7,1,13,9,10,0,11,5,0,0,6,9,2,0,13,8,9,1,10,5,5,5,13,8,9,12,0,0,0,0,0,0,0,0,0,0,0,0,0,0,0,0,0,0,0,0,0,0,0,0,0,0],"split_type":[0,0,0,0,0,0,0,0,0,0,0,0,0,0,0,0,0,0,0,0,0,0,0,0,0,0,0,0,0,0,0,0,0,0,0,0,0,0,0,0,0,0,0,0,0,0,0,0,0,0,0,0,0,0,0],"sum_hessian":[1.198E3,2.41E2,9.57E2,1.7E1,2.24E2,8.34E2,1.23E2,1.6E1,1E0,1.48E2,7.6E1,5.65E2,2.69E2,4.2E1,8.1E1,1.5E1,1E0,1.42E2,6E0,4.3E1,3.3E1,5.57E2,8E0,2.42E2,2.7E1,2.8E1,1.4E1,8E0,7.3E1,1.1E1,4E0,1.3E1,1.29E2,3E0,3E0,3.7E1,6E0,2E0,3.1E1,5.38E2,1.9E1,4E0,4E0,1E1,2.32E2,1.7E1,1E1,2.1E1,7E0,5E0,9E0,5E0,3E0,7E1,3E0],"tree_param":{"num_deleted":"0","num_feature":"14","num_nodes":"55","size_leaf_vector":"0"}},{"base_weights":[-6.828876E-1,-8.041385E-1,-5.7819736E-1,-1.1360427E0,-7.431085E-1,-5.504074E-1,-9.7552246E-1,-1.0086752E0,-1.7008317E0,-7.3451364E-1,-2.3870492E0,-5.7424057E-1,-1.3185856E-1,-1.5669402E0,-6.7676544E-1,-5.051274E-1,-1.1459777E0,-9.1324174E-1,-2.3579583E0,-1.0144842E0,-6.9486904E-1,-5.623938E-1,-1.8099239E0,-2.278897E-2,-9.4418323E-1,-1.9231784E0,-8.307993E-1,-2.7744794E-1,-8.156746E-1,-6.8299556E-1,5.5258924E-1,-1.7287469E-1,-1.1987938E0,-2.2565222E-1,-9.792328E-1,-3.0285118E0,-1.0979154E0,-7.354213E-1,-1.1734242E0,-7.60011E-1,-5.7877713E-1,-5.109895E-1,-7.5090176E-1,-1.3060164E-1,4.4819745E-1,-1.1856529E0,-1.0988712E-1,-2.2513695E0,-6.257369E-1,-9.7556573E-1,-5.3483486E-2,-5.906129E-2,-6.945341E-1,-1.120892E0,-4.363049E-1],"categories":[],"categories_nodes":[],"categories_segments":[],"categories_sizes":[],"default_left":[1,1,1,1,1,1,1,1,1,1,0,1,1,1,1,1,1,1,1,1,1,1,0,1,1,1,1,1,1,0,0,0,0,0,0,0,0,0,0,0,0,0,0,0,0,0,0,0,0,0,0,0,0,0,0],"id":16,"left_children":[1,3,5,7,9,11,13,15,17,19,-1,21,23,25,27,29,31,33,35,37,39,41,-1,43,45,47,49,51,53,-1,-1,-1,-1,-1,-1,-1,-1,-1,-1,-1,-1,-1,-1,-1,-1,-1,-1,-1,-1,-1,-1,-1,-1,-1,-1],"loss_changes":[1.4754883E1,1.0357422E1,6.607025E0,4.3270187E0,4.887512E0,5.9793243E0,6.1838493E0,4.329956E0,5.0922623E0,4.500656E0,0E0,7.3848114E0,2.9908805E0,1.8113632E0,1.3822889E0,3.5756965E0,2.6195068E0,1.4203167E-1,2.5894356E0,1.6208763E0,2.6909943E0,5.139679E0,0E0,1.6326628E0,6.7554045E-1,1.9977055E0,6.229987E-1,7.787545E-1,1.9425459E0,0E0,0E0,0E0,0E0,0E0,0E0,0E0,0E0,0E0,0E0,0E0,0E0,0E0,0E0,0E0,0E0,0E0,0E0,0E0,0E0,0E0,0E0,0E0,0E0,0E0,0E0],"parents":[2147483647,0,0,1,1,2,2,3,3,4,4,5,5,6,6,7,7,8,8,9,9,11,11,12,12,13,13,14,14,15,15,16,16,17,17,18,18,19,19,20,20,21,21,23,23,24,24,25,25,26,26,27,27,28,28],"right_children":[2,4,6,8,10,12,14,16,18,20,-1,22,24,26,28,30,32,34,36,38,40,42,-1,44,46,48,50,52,54,-1,-1,-1,-1,-1,-1,-1,-1,-1,-1,-1,-1,-1,-1,-1,-1,-1,-1,-1,-1,-1,-1,-1,-1,-1,-1],"split_conditions":[-1.0574803E-1,-5.187795E-1,7.71092E-2,7.4777603E-1,-1.0579609E-1,1.4434132E-1,1.574857E-1,-5.4868644E-1,-2.3319802E-1,-1.1666632E-1,-3.5805738E-1,1.3725935E-1,3.5827465E0,1.9731028E-1,2.4375455E0,1.2606285E0,-1.2215365E0,-1.0277826E0,-1.0006194E0,-9.0997174E-2,-2.1593907E-1,-1.4132962E-1,-2.714886E-1,1.5363585E0,-1.0279183E0,2.1719453E-1,1.0212338E0,-2.3322608E-1,-3.936915E-1,-1.02449335E-1,8.288839E-2,-2.5931204E-2,-1.7981908E-1,-3.3847835E-2,-1.4688492E-1,-4.5427677E-1,-1.6468732E-1,-1.103132E-1,-1.7601365E-1,-1.14001654E-1,-8.681657E-2,-7.664843E-2,-1.1263527E-1,-1.9590247E-2,6.722962E-2,-1.7784794E-1,-1.6483068E-2,-3.3770543E-1,-9.386054E-2,-1.4633487E-1,-8.0225235E-3,-8.859194E-3,-1.0418012E-1,-1.6813381E-1,-6.5445736E-2],"split_indices":[13,1,0,10,13,13,13,5,3,13,0,13,10,4,0,8,9,2,2,8,6,3,0,8,4,8,0,3,1,0,0,0,0,0,0,0,0,0,0,0,0,0,0,0,0,0,0,0,0,0,0,0,0,0,0],"split_type":[0,0,0,0,0,0,0,0,0,0,0,0,0,0,0,0,0,0,0,0,0,0,0,0,0,0,0,0,0,0,0,0,0,0,0,0,0,0,0,0,0,0,0,0,0,0,0,0,0,0,0,0,0,0,0],"sum_hessian":[1.198E3,5.52E2,6.46E2,8.3E1,4.69E2,6.06E2,4E1,7E1,1.3E1,4.68E2,1E0,5.73E2,3.3E1,1.2E1,2.8E1,1.6E1,5.4E1,7E0,6E0,5.5E1,4.13E2,5.69E2,4E0,3E1,3E0,7E0,5E0,8E0,2E1,1.4E1,2E0,3E0,5.1E1,1E0,6E0,3E0,3E0,2.2E1,3.3E1,2.61E2,1.52E2,4.5E2,1.19E2,2.5E1,5E0,2E0,1E0,5E0,2E0,4E0,1E0,6E0,2E0,1E1,1E1],"tree_param":{"num_deleted":"0","num_feature":"14","num_nodes":"55","size_leaf_vector":"0"}},{"base_weights":[-5.832988E-1,-7.80073E-1,-5.329828E-1,-1.5159764E0,-7.1773374E-1,-5.726626E-1,-3.4962285E-1,-1.583417E0,-1.8474293E-1,-7.9278564E-1,-5.631822E-1,-7.7161515E-1,-5.1525575E-1,-4.3139565E-1,-9.237024E-2,-1.6430025E0,-3.1502533E-1,-1.1460713E0,-7.505887E-1,-4.4200867E-1,-7.034308E-1,-6.809742E-1,-1.3097472E0,-5.762432E-1,-3.2812846E-1,-3.8800266E-1,-8.695006E-1,-2.7622053E-1,1.3286862E-1,-2.0297265E0,-1.1166921E0,-4.4236135E-1,-1.2977775E0,-7.7055526E-1,-2.7255413E-1,-3.751618E-1,-7.4174756E-1,-1.2991524E0,-6.038722E-1,-5.030258E-1,-9.4992715E-1,-6.966287E-1,-2.4489055E0,-5.608697E-1,-2.73631E0,3.8118812E-1,-3.6989203E-1,-3.421838E-1,-7.7567554E-1,-1.9869661E-1,-1.096215E0,-5.9854126E-1,-1.0829193E-1,3.9663076E-1,4.2138666E-2],"categories":[],"categories_nodes":[],"categories_segments":[],"categories_sizes":[],"default_left":[1,1,1,1,1,1,1,1,0,1,1,1,1,1,1,1,0,1,1,1,1,1,1,1,1,1,1,1,1,0,0,0,0,0,0,0,0,0,0,0,0,0,0,0,0,0,0,0,0,0,0,0,0,0,0],"id":17,"left_children":[1,3,5,7,9,11,13,15,-1,17,19,21,23,25,27,29,-1,31,33,35,37,39,41,43,45,47,49,51,53,-1,-1,-1,-1,-1,-1,-1,-1,-1,-1,-1,-1,-1,-1,-1,-1,-1,-1,-1,-1,-1,-1,-1,-1,-1,-1],"loss_changes":[1.1455353E1,1.0013855E1,6.7698975E0,1.3234978E0,2.1633759E0,8.579498E0,3.5994263E0,7.672348E-1,0E0,1.3610001E0,9.9764824E-1,7.5952606E0,6.806732E0,2.1530285E0,1.8173409E0,9.900093E-1,0E0,9.2051315E-1,1.0880585E0,6.033354E-1,1.2319908E0,6.7489853E0,1.5056564E1,1.3774094E1,4.6734085E0,1.8838673E0,1.4550762E0,1.2342275E0,4.6190906E-1,0E0,0E0,0E0,0E0,0E0,0E0,0E0,0E0,0E0,0E0,0E0,0E0,0E0,0E0,0E0,0E0,0E0,0E0,0E0,0E0,0E0,0E0,0E0,0E0,0E0,0E0],"parents":[2147483647,0,0,1,1,2,2,3,3,4,4,5,5,6,6,7,7,9,9,10,10,11,11,12,12,13,13,14,14,15,15,17,17,18,18,19,19,20,20,21,21,22,22,23,23,24,24,25,25,26,26,27,27,28,28],"right_children":[2,4,6,8,10,12,14,16,-1,18,20,22,24,26,28,30,-1,32,34,36,38,40,42,44,46,48,50,52,54,-1,-1,-1,-1,-1,-1,-1,-1,-1,-1,-1,-1,-1,-1,-1,-1,-1,-1,-1,-1,-1,-1,-1,-1,-1,-1],"split_conditions":[-1.1342414E-1,-5.554526E-1,4.5484287E-1,1.0706635E0,-1.7275086E-1,-1.0309806E0,9.149345E-1,1.5945643E0,-2.771144E-2,-1.1817684E-1,2.2140393E-1,1.409427E0,-7.5810365E-2,4.351448E0,-7.7880844E-2,-4.973539E-1,-4.7253802E-2,-1.1277432E0,1.3174512E0,8.5854566E-1,-8.663894E-1,-2.2942796E-1,-1.0968337E0,-7.6308385E-2,-6.95528E-2,6.6440374E-1,-2.148514E-1,-1.1080115E0,-9.2342585E-2,-3.0445898E-1,-1.6750382E-1,-6.635421E-2,-1.9466664E-1,-1.1558329E-1,-4.088312E-2,-5.6274273E-2,-1.11262135E-1,-1.9487287E-1,-9.058083E-2,-7.545388E-2,-1.4248908E-1,-1.0449431E-1,-3.6733583E-1,-8.413046E-2,-4.1044652E-1,5.717822E-2,-5.5483807E-2,-5.132757E-2,-1.16351336E-1,-2.9804492E-2,-1.6443226E-1,-8.9781195E-2,-1.6243791E-2,5.949462E-2,6.3208E-3],"split_indices":[13,1,1,7,1,2,10,10,0,13,5,5,13,1,8,2,0,5,11,9,2,3,4,13,13,10,8,4,13,0,0,0,0,0,0,0,0,0,0,0,0,0,0,0,0,0,0,0,0,0,0,0,0,0,0],"split_type":[0,0,0,0,0,0,0,0,0,0,0,0,0,0,0,0,0,0,0,0,0,0,0,0,0,0,0,0,0,0,0,0,0,0,0,0,0,0,0,0,0,0,0,0,0,0,0,0,0,0,0,0,0,0,0],"sum_hessian":[1.198E3,2.41E2,9.57E2,1.7E1,2.24E2,7.85E2,1.72E2,1.6E1,1E0,1.48E2,7.6E1,1.73E2,6.12E2,1.3E2,4.2E1,1.5E1,1E0,1.3E1,1.35E2,4.3E1,3.3E1,1.5E2,2.3E1,4.6E2,1.52E2,1.2E2,1E1,2.3E1,1.9E1,7E0,8E0,3E0,1E1,1.29E2,6E0,3.7E1,6E0,3E0,3E1,9.2E1,5.8E1,1.6E1,7E0,4.58E2,2E0,8E0,1.44E2,1.09E2,1.1E1,3E0,7E0,7E0,1.6E1,4E0,1.5E1],"tree_param":{"num_deleted":"0","num_feature":"14","num_nodes":"55","size_leaf_vector":"0"}},{"base_weights":[-4.983079E-1,-5.561194E-1,-3.6573228E-1,-5.41644E-1,-1.5013381E0,-4.6874768E-1,-1.8936522E-1,-1.3245336E0,-5.2939206E-1,-1.6827413E0,-3.962151E-1,-4.0887558E-1,-1.2477242E0,-4.1443464E-1,-1.1396403E-1,-8.272128E-1,-2.112372E0,-7.0159394E-1,-4.8796028E-1,-2.0556462E0,-8.987072E-1,-2.968115E-1,-8.1657296E-1,-2.0350912E0,-5.717948E-1,1.7561312E-1,-5.2222264E-1,-6.2191084E-2,-3.9482826E-1,-8.8077885E-1,-1.9934225E-1,-1.1997824E0,-6.552061E-1,-4.751558E-1,-1.3570883E0,-2.2430488E-1,-7.315685E-1,-1.1427457E0,-1.9294037E-1,-2.4228675E0,-7.1043366E-1,2.4797463E-1,-6.90433E-1,2.2458807E-1,-3.4630775E-2,-6.1271524E-1,1.9653487E-1,1.4327055E-1,-1.4468814E-1,-2.2690773E-2,-5.6191885E-1],"categories":[],"categories_nodes":[],"categories_segments":[],"categories_sizes":[],"default_left":[1,1,1,1,1,1,1,1,1,1,0,1,1,1,1,1,0,1,1,0,0,1,1,1,1,1,1,1,1,0,0,0,0,0,0,0,0,0,0,0,0,0,0,0,0,0,0,0,0,0,0],"id":18,"left_children":[1,3,5,7,9,11,13,15,17,19,-1,21,23,25,27,29,-1,31,33,-1,-1,35,37,39,41,43,45,47,49,-1,-1,-1,-1,-1,-1,-1,-1,-1,-1,-1,-1,-1,-1,-1,-1,-1,-1,-1,-1,-1,-1],"loss_changes":[8.986206E0,1.05842285E1,6.5790825E0,7.183365E0,1.738945E0,1.0263432E1,2.277728E0,2.954319E0,5.4438324E0,1.0762787E0,0E0,9.626289E0,7.351618E0,2.2541113E0,1.4877268E0,1.271162E-1,0E0,2.7959366E0,6.666748E0,0E0,0E0,5.2262983E0,9.136471E0,1.8744087E0,1.1437702E0,6.9557756E-2,2.0066447E0,1.5292778E0,9.821403E-1,0E0,0E0,0E0,0E0,0E0,0E0,0E0,0E0,0E0,0E0,0E0,0E0,0E0,0E0,0E0,0E0,0E0,0E0,0E0,0E0,0E0,0E0],"parents":[2147483647,0,0,1,1,2,2,3,3,4,4,5,5,6,6,7,7,8,8,9,9,11,11,12,12,13,13,14,14,15,15,17,17,18,18,21,21,22,22,23,23,24,24,25,25,26,26,27,27,28,28],"right_children":[2,4,6,8,10,12,14,16,18,20,-1,22,24,26,28,30,-1,32,34,-1,-1,36,38,40,42,44,46,48,50,-1,-1,-1,-1,-1,-1,-1,-1,-1,-1,-1,-1,-1,-1,-1,-1,-1,-1,-1,-1,-1,-1],"split_conditions":[-8.625355E-2,-1.0858096E-1,-2.249184E-1,-1.5945115E0,4.5742887E-1,-3.1782055E-1,-2.6799208E-1,-1.6521871E0,-1.1490962E-1,-4.89695E-2,-5.943227E-2,1.0775363E0,2.603224E-1,-8.7237877E-1,2.3376726E-1,-9.577032E-2,-3.168558E-1,-5.554526E-1,2.4069269E0,-3.0834693E-1,-1.3480608E-1,-1.8048778E-1,2.4121857E0,9.2482615E-1,-1.6010323E0,2.5856805E0,6.040233E-1,6.595198E-2,-1.0324696E0,-1.3211684E-1,-2.9901339E-2,-1.7996736E-1,-9.8280914E-2,-7.127337E-2,-2.0356326E-1,-3.3645734E-2,-1.0973528E-1,-1.7141187E-1,-2.8941056E-2,-3.6343014E-1,-1.0656505E-1,3.7196197E-2,-1.03564955E-1,3.368821E-2,-5.1946165E-3,-9.190729E-2,2.9480232E-2,2.1490583E-2,-2.1703223E-2,-3.4036161E-3,-8.428783E-2],"split_indices":[13,0,1,5,8,1,10,5,13,3,0,10,10,8,9,13,0,1,10,0,0,6,10,8,9,1,2,1,2,0,0,0,0,0,0,0,0,0,0,0,0,0,0,0,0,0,0,0,0,0,0],"split_type":[0,0,0,0,0,0,0,0,0,0,0,0,0,0,0,0,0,0,0,0,0,0,0,0,0,0,0,0,0,0,0,0,0,0,0,0,0,0,0,0,0,0,0,0,0,0,0,0,0,0,0],"sum_hessian":[1.198E3,8.32E2,3.66E2,8.21E2,1.1E1,2.3E2,1.36E2,1.1E1,8.1E2,9E0,2E0,2.15E2,1.5E1,3.3E1,1.03E2,8E0,3E0,1.54E2,6.56E2,5E0,4E0,1.7E2,4.5E1,6E0,9E0,5E0,2.8E1,8.8E1,1.5E1,7E0,1E0,1.1E1,1.43E2,6.48E2,8E0,1.47E2,2.3E1,2.9E1,1.6E1,4E0,2E0,1E0,8E0,4E0,1E0,2.5E1,3E0,2.5E1,6.3E1,5E0,1E1],"tree_param":{"num_deleted":"0","num_feature":"14","num_nodes":"51","size_leaf_vector":"0"}},{"base_weights":[-4.2567706E-1,-4.6879604E-1,-2.8181237E-1,-6.004804E-1,-4.032607E-1,-1.9999939E-1,-4.381659E-1,-4.0343243E-1,-7.824078E-1,-4.7434482E-1,-2.1314293E-1,-2.5441974E-1,-8.65343E-3,-5.307519E-1,-2.0915127E-1,-5.2075595E-1,1.6711473E-1,-6.7334294E-1,-1.2216712E0,-5.3462607E-1,-3.5183865E-1,-1.5937789E-1,-7.5809E-1,-2.2931832E-1,-7.93533E-1,6.08251E-2,-6.839057E-1,-3.9062384E-1,-1.515368E0,-9.77452E-1,-1.1603818E-1,-4.2716804E-1,-1.0791768E0,3.1394443E-1,-5.1235884E-1,-6.2726516E-1,-1.9449368E0,-1.5545865E0,-6.66737E-1,-2.348678E-1,-5.5758566E-1,-4.23521E-1,-2.6944485E-1,-2.0391E-1,2.4302244E-1,-3.1503582E0,-3.6218813E-1,-1.608695E-1,-3.947074E-1,-1.1687242E0,-2.8767109E-2,1.4546193E-1,-1.4172961E-1,-5.293586E-1,-2.2406743E-1,-2.2020364E0,-2.781906E-1,-1.1477903E-3,-5.1796323E-1],"categories":[],"categories_nodes":[],"categories_segments":[],"categories_sizes":[],"default_left":[1,1,1,1,1,1,1,1,1,1,1,1,1,1,1,1,1,1,1,1,1,1,1,1,1,1,0,1,1,0,1,0,0,0,0,0,0,0,0,0,0,0,0,0,0,0,0,0,0,0,0,0,0,0,0,0,0,0,0],"id":19,"left_children":[1,3,5,7,9,11,13,15,17,19,21,23,25,27,29,31,33,35,37,39,41,43,45,47,49,51,-1,53,55,-1,57,-1,-1,-1,-1,-1,-1,-1,-1,-1,-1,-1,-1,-1,-1,-1,-1,-1,-1,-1,-1,-1,-1,-1,-1,-1,-1,-1,-1],"loss_changes":[7.305649E0,7.7060547E0,3.481266E0,1.0582275E1,8.250763E0,1.9242244E0,1.903328E0,9.99394E0,6.6989822E0,3.1276855E0,4.860027E0,1.7667112E0,2.012051E0,8.6522045E0,1.9612046E0,5.9671707E0,2.7547915E0,6.279812E0,4.5058784E0,1.926857E0,7.777176E-1,2.8450334E0,1.306553E1,1.5100784E0,1.6879797E0,6.8921626E-1,0E0,1.2678175E0,6.1836605E0,0E0,1.2461934E0,0E0,0E0,0E0,0E0,0E0,0E0,0E0,0E0,0E0,0E0,0E0,0E0,0E0,0E0,0E0,0E0,0E0,0E0,0E0,0E0,0E0,0E0,0E0,0E0,0E0,0E0,0E0,0E0],"parents":[2147483647,0,0,1,1,2,2,3,3,4,4,5,5,6,6,7,7,8,8,9,9,10,10,11,11,12,12,13,13,14,14,15,15,16,16,17,17,18,18,19,19,20,20,21,21,22,22,23,23,24,24,25,25,27,27,28,28,30,30],"right_children":[2,4,6,8,10,12,14,16,18,20,22,24,26,28,30,32,34,36,38,40,42,44,46,48,50,52,-1,54,56,-1,58,-1,-1,-1,-1,-1,-1,-1,-1,-1,-1,-1,-1,-1,-1,-1,-1,-1,-1,-1,-1,-1,-1,-1,-1,-1,-1,-1,-1],"split_conditions":[1.6856702E-1,-6.682091E-1,9.0883E-2,-6.845371E-1,-9.8456845E-2,-6.1291404E-2,-9.562506E-2,-3.750251E-1,-8.6123216E-1,-1.9000617E-1,1.3987732E0,2.9355567E0,1.3012891E0,9.5115364E-1,1.108246E-1,2.1421523E0,1.3352089E-2,2.5745564E0,-8.289527E-2,-7.4329704E-1,5.880114E-1,1.0062279E0,1.4435065E0,1.0212584E0,-2.8928423E-1,4.43573E-1,-1.0258586E-1,-1.1046003E-1,-6.963522E-2,-1.466178E-1,1.987516E0,-6.407521E-2,-1.6187653E-1,4.7091667E-2,-7.685383E-2,-9.408978E-2,-2.9174054E-1,-2.3318799E-1,-1.0001056E-1,-3.523017E-2,-8.363785E-2,-6.352816E-2,-4.041673E-2,-3.05865E-2,3.6453366E-2,-4.7255376E-1,-5.432822E-2,-2.4130424E-2,-5.9206113E-2,-1.7530863E-1,-4.3150666E-3,2.181929E-2,-2.1259442E-2,-7.9403795E-2,-3.3610117E-2,-3.3030546E-1,-4.1728593E-2,-1.7216855E-4,-7.769449E-2],"split_indices":[1,2,5,9,13,13,13,4,2,1,4,8,9,5,5,10,0,9,13,9,11,8,4,4,7,4,0,13,2,0,5,0,0,0,0,0,0,0,0,0,0,0,0,0,0,0,0,0,0,0,0,0,0,0,0,0,0,0,0],"split_type":[0,0,0,0,0,0,0,0,0,0,0,0,0,0,0,0,0,0,0,0,0,0,0,0,0,0,0,0,0,0,0,0,0,0,0,0,0,0,0,0,0,0,0,0,0,0,0,0,0,0,0,0,0,0,0,0,0,0,0],"sum_hessian":[1.198E3,9.2E2,2.78E2,3.03E2,6.17E2,1.84E2,9.4E1,1.47E2,1.56E2,4.48E2,1.69E2,1.43E2,4.1E1,6.6E1,2.8E1,1.22E2,2.5E1,1.27E2,2.9E1,2.98E2,1.5E2,1.55E2,1.4E1,1.38E2,5E0,3.8E1,3E0,5.9E1,7E0,2E0,2.6E1,1.06E2,1.6E1,2.1E1,4E0,1.24E2,3E0,1.7E1,1.2E1,2.2E1,2.76E2,7.8E1,7.2E1,1.4E2,1.5E1,1E0,1.3E1,9.9E1,3.9E1,3E0,2E0,2.7E1,1.1E1,3.1E1,2.8E1,4E0,3E0,2.1E1,5E0],"tree_param":{"num_deleted":"0","num_feature":"14","num_nodes":"59","size_leaf_vector":"0"}},{"base_weights":[-3.641549E-1,-3.493232E-1,-6.9116414E-1,-4.0635377E-1,-2.5157803E-1,-1.0889643E0,-3.764052E-1,-3.92359E-1,-1.3663456E0,-2.785648E-1,5.786183E-2,-7.9889005E-1,-1.4967331E0,-5.9315372E-2,-5.094763E-1,-3.994754E-1,6.9806784E-1,-4.268217E-1,-2.668926E0,-4.1397238E-1,-2.0419301E-1,5.3937216E-3,6.157238E-1,-8.947995E-1,-1.16985954E-1,-1.626272E0,-2.9498053E-1,1.0576972E-1,-4.797705E-1,-9.53177E-1,-3.1124634E-1,-1.158829E0,-3.891857E-1,1.69965E0,2.2759795E-2,-5.4649085E-1,-8.509922E-2,-6.3311285E-1,-2.2686945E-1,1.7411438E-1,-2.4425143E-1,-6.2198564E-2,3.9635023E-1,-9.2600566E-1,-2.6016235E-1,-1.8586445E-1,1.0385513E-2,1.4330426E-1,3.240913E-2,-2.8206682E-2,-4.0324232E-1],"categories":[],"categories_nodes":[],"categories_segments":[],"categories_sizes":[],"default_left":[1,1,1,1,1,1,1,1,1,1,1,1,1,1,1,1,1,1,0,1,1,1,0,1,1,0,0,1,0,0,1,0,0,0,0,0,0,0,0,0,0,0,0,0,0,0,0,0,0,0,0],"id":20,"left_children":[1,3,5,7,9,11,13,15,17,19,21,23,25,27,29,31,33,35,-1,37,39,41,-1,43,45,-1,-1,47,-1,-1,49,-1,-1,-1,-1,-1,-1,-1,-1,-1,-1,-1,-1,-1,-1,-1,-1,-1,-1,-1,-1],"loss_changes":[5.5738373E0,6.302826E0,5.9758797E0,9.190765E0,3.573553E0,1.4065037E0,1.2356448E0,5.8272095E0,1.10989E1,3.8631058E0,1.0211276E0,8.7633705E-1,7.656708E-1,7.448539E-1,1.5503778E0,5.104416E0,3.343199E0,2.3974967E-1,0E0,5.51462E0,3.9068975E0,8.966987E-1,0E0,1.6548157E-2,2.824976E-2,0E0,0E0,1.7384067E-2,0E0,0E0,4.052421E-1,0E0,0E0,0E0,0E0,0E0,0E0,0E0,0E0,0E0,0E0,0E0,0E0,0E0,0E0,0E0,0E0,0E0,0E0,0E0,0E0],"parents":[2147483647,0,0,1,1,2,2,3,3,4,4,5,5,6,6,7,7,8,8,9,9,10,10,11,11,12,12,13,13,14,14,15,15,16,16,17,17,19,19,20,20,21,21,23,23,24,24,27,27,30,30],"right_children":[2,4,6,8,10,12,14,16,18,20,22,24,26,28,30,32,34,36,-1,38,40,42,-1,44,46,-1,-1,48,-1,-1,50,-1,-1,-1,-1,-1,-1,-1,-1,-1,-1,-1,-1,-1,-1,-1,-1,-1,-1,-1,-1],"split_conditions":[-1.1349483E-1,-9.712343E-2,1.574857E-1,1.9580785E0,8.187616E-1,1.5418723E0,2.4375455E0,1.8874668E0,-8.247105E-1,-5.3522214E-3,1.6592038E0,1.014457E0,2.1652818E0,-2.3322608E-1,-5.654757E-1,-1.582998E0,-1.0277826E0,-3.533235E-1,-4.0033892E-1,-6.2335946E-2,1.1197275E-1,1.4380763E0,9.2358574E-2,3.238312E-1,7.517041E-1,-2.439408E-1,-4.424708E-2,7.545553E-1,-7.196558E-2,-1.4297655E-1,4.533587E-1,-1.7382436E-1,-5.837786E-2,2.549475E-1,3.4139694E-3,-8.197363E-2,-1.2764883E-2,-9.496693E-2,-3.403042E-2,2.6117157E-2,-3.6637716E-2,-9.329785E-3,5.9452537E-2,-1.3890086E-1,-3.9024353E-2,-2.7879668E-2,1.5578271E-3,2.149564E-2,4.8613697E-3,-4.2310026E-3,-6.048635E-2],"split_indices":[0,13,13,10,2,5,0,10,5,10,11,5,0,3,1,5,2,8,0,13,10,10,0,10,0,0,0,5,0,0,5,0,0,0,0,0,0,0,0,0,0,0,0,0,0,0,0,0,0,0,0],"split_type":[0,0,0,0,0,0,0,0,0,0,0,0,0,0,0,0,0,0,0,0,0,0,0,0,0,0,0,0,0,0,0,0,0,0,0,0,0,0,0,0,0,0,0,0,0,0,0,0,0,0,0],"sum_hessian":[1.198E3,1.148E3,5E1,7.23E2,4.25E2,2.1E1,2.9E1,7.14E2,9E0,3.91E2,3.4E1,1.4E1,7E0,9E0,2E1,7.1E2,4E0,6E0,3E0,1.37E2,2.54E2,3.2E1,2E0,1.2E1,2E0,6E0,1E0,7E0,2E0,5E0,1.5E1,8E0,7.02E2,1E0,3E0,4E0,2E0,6.2E1,7.5E1,2.4E1,2.3E2,2.8E1,4E0,1.1E1,1E0,1E0,1E0,4E0,3E0,4E0,1.1E1],"tree_param":{"num_deleted":"0","num_feature":"14","num_nodes":"51","size_leaf_vector":"0"}},{"base_weights":[-3.105421E-1,-3.4692973E-1,-1.8931073E-1,-4.5883223E-1,-2.9132247E-1,-1.1836641E-1,-3.254727E-1,-2.9373503E-1,-6.1154276E-1,-3.5243285E-1,-1.5794995E-1,-1.0201406E-1,-6.8664837E-1,-4.104516E-1,-1.17919035E-1,-3.9340788E-1,1.8909168E-1,-5.1721555E-1,-9.936209E-1,-4.096264E-1,-2.3636934E-1,-1.1179952E-1,-6.0811526E-1,-8.334527E-2,-5.541604E-1,2.9278088E-1,-1.0047009E0,-5.268895E-1,-1.4833365E-1,1.7186439E-1,-2.1793486E-1,-1.5996933E-1,-5.6786895E-1,3.098121E-1,-3.7989655E-1,-4.7768667E-1,-1.6231894E0,-7.392435E-1,-1.7238258E0,3.796409E-1,-4.166199E-1,-2.4894899E-1,9.026098E-2,5.7703376E-1,-1.2681961E-1,-3.0320883E-1,-2.8957624E0,5.8928866E-2,-1.4904532E-1,-7.7929336E-1,5.7813325E-3,-1.1810629E0,-3.358456E-1,-3.7795356E-1,7.45124E-2,-2.1103334E-1,3.346692E-1,-3.2531577E-1,-1.0134113E-1],"categories":[],"categories_nodes":[],"categories_segments":[],"categories_sizes":[],"default_left":[1,1,1,1,1,1,1,1,1,1,1,1,1,1,1,1,1,1,1,1,1,1,1,1,1,0,0,1,1,1,1,0,0,0,0,0,0,0,0,0,0,0,0,0,0,0,0,0,0,0,0,0,0,0,0,0,0,0,0],"id":21,"left_children":[1,3,5,7,9,11,13,15,17,19,21,23,25,27,29,31,33,35,37,39,41,43,45,47,49,-1,-1,51,53,55,57,-1,-1,-1,-1,-1,-1,-1,-1,-1,-1,-1,-1,-1,-1,-1,-1,-1,-1,-1,-1,-1,-1,-1,-1,-1,-1,-1,-1],"loss_changes":[5.2234955E0,5.5973434E0,2.6565933E0,7.484833E0,4.981312E0,1.6491106E0,1.6271791E0,7.196847E0,5.1444244E0,2.7110825E0,4.0039754E0,1.4816388E0,1.8517065E0,1.9667149E0,8.7796015E-1,4.9184494E0,1.9035977E0,4.8205147E0,4.2981014E0,1.7147293E0,6.059346E-1,1.9251721E0,1.1677309E1,1.6445811E0,8.86935E-1,0E0,0E0,5.352234E0,1.1538998E0,5.693271E-1,2.4247098E-1,0E0,0E0,0E0,0E0,0E0,0E0,0E0,0E0,0E0,0E0,0E0,0E0,0E0,0E0,0E0,0E0,0E0,0E0,0E0,0E0,0E0,0E0,0E0,0E0,0E0,0E0,0E0,0E0],"parents":[2147483647,0,0,1,1,2,2,3,3,4,4,5,5,6,6,7,7,8,8,9,9,10,10,11,11,12,12,13,13,14,14,15,15,16,16,17,17,18,18,19,19,20,20,21,21,22,22,23,23,24,24,27,27,28,28,29,29,30,30],"right_children":[2,4,6,8,10,12,14,16,18,20,22,24,26,28,30,32,34,36,38,40,42,44,46,48,50,-1,-1,52,54,56,58,-1,-1,-1,-1,-1,-1,-1,-1,-1,-1,-1,-1,-1,-1,-1,-1,-1,-1,-1,-1,-1,-1,-1,-1,-1,-1,-1,-1],"split_conditions":[1.6856702E-1,-6.682091E-1,9.0883E-2,-6.845371E-1,-1.01797044E-1,4.351448E0,4.275246E-2,-3.750251E-1,-8.6123216E-1,-1.9000617E-1,1.5030348E0,2.9355567E0,-1.8633431E-1,-9.061152E-2,-1.0152267E-1,-2.2008285E-2,1.3352089E-2,2.5745564E0,6.893842E-1,-6.239185E-1,8.99969E-1,-1.0152176E-1,1.1069372E0,-2.6163304E-1,-2.8928423E-1,4.3917134E-2,-1.5070514E-1,-2.8544763E-1,-1.2363157E0,-8.787508E-1,3.0868757E-1,-2.3995401E-2,-8.518034E-2,4.6471816E-2,-5.6984484E-2,-7.1653E-2,-2.4347843E-1,-1.1088653E-1,-2.585739E-1,5.694614E-2,-6.2492985E-2,-3.734235E-2,1.3539148E-2,8.655506E-2,-1.9022942E-2,-4.5481324E-2,-4.3436438E-1,8.839331E-3,-2.2356799E-2,-1.1689401E-1,8.671999E-4,-1.7715944E-1,-5.037684E-2,-5.6693036E-2,1.117686E-2,-3.1655002E-2,5.0200384E-2,-4.879737E-2,-1.520117E-2],"split_indices":[1,2,5,9,13,1,8,4,2,1,11,8,8,13,11,5,0,9,8,2,7,13,10,4,7,0,0,4,9,10,5,0,0,0,0,0,0,0,0,0,0,0,0,0,0,0,0,0,0,0,0,0,0,0,0,0,0,0,0],"split_type":[0,0,0,0,0,0,0,0,0,0,0,0,0,0,0,0,0,0,0,0,0,0,0,0,0,0,0,0,0,0,0,0,0,0,0,0,0,0,0,0,0,0,0,0,0,0,0,0,0,0,0,0,0,0,0,0,0,0,0],"sum_hessian":[1.198E3,9.2E2,2.78E2,3.03E2,6.17E2,1.84E2,9.4E1,1.47E2,1.56E2,4.22E2,1.95E2,1.8E2,4E0,6.6E1,2.8E1,1.22E2,2.5E1,1.27E2,2.9E1,2.81E2,1.41E2,1.78E2,1.7E1,1.74E2,6E0,1E0,3E0,4.5E1,2.1E1,7E0,2.1E1,5.3E1,6.9E1,2.1E1,4E0,1.24E2,3E0,2.3E1,6E0,2E0,2.79E2,1.36E2,5E0,3E0,1.75E2,1.6E1,1E0,5.5E1,1.19E2,4E0,2E0,9E0,3.6E1,1E1,1.1E1,2E0,5E0,1E1,1.1E1],"tree_param":{"num_deleted":"0","num_feature":"14","num_nodes":"59","size_leaf_vector":"0"}},{"base_weights":[-2.654626E-1,-2.5283188E-1,-5.4482013E-1,-2.6794732E-1,7.608842E-3,-8.891391E-1,-2.7415892E-1,-2.5446835E-1,-6.23281E-1,-9.9771366E-2,5.340563E-1,-6.4583397E-1,-1.2341938E0,-1.4111987E-1,-5.261251E-1,-2.5891703E-1,7.253097E-1,-1.0119449E0,-1.13620706E-1,-3.5731503E-1,1.710062E-1,6.75349E-1,-6.784042E-2,-7.264915E-1,-8.104006E-2,-1.3447167E0,-2.3026705E-1,1.2678748E-1,-2.841298E-1,-6.1688465E-1,-2.357645E-1,1.7017016E-2,-2.7194202E-1,9.451406E-1,-7.700682E-2,-1.4138951E0,-1.3179505E-1,3.823495E-2,-8.8564396E-1,1.3685545E-1,-6.394573E-1,-2.647718E-1,3.081224E-1,8.7204885E-1,-8.733749E-3,-2.6770854E-1,1.6594791E-1,-4.1704234E-1,-8.176864E-1,-1.4067793E-1,1.9117832E-2,1.369382E-1,2.7866244E-2,-7.459704E-1,-1.4499216E-1,-6.807192E-1,-1.1693859E-1,-2.6690197E-1,-7.117605E-2],"categories":[],"categories_nodes":[],"categories_segments":[],"categories_sizes":[],"default_left":[1,1,1,1,1,1,1,1,1,1,1,1,1,1,1,1,1,1,1,1,1,1,1,1,1,0,0,1,1,1,1,0,0,0,0,0,0,0,0,0,0,0,0,0,0,0,0,0,0,0,0,0,0,0,0,0,0,0,0],"id":22,"left_children":[1,3,5,7,9,11,13,15,17,19,21,23,25,27,29,31,33,35,37,39,41,43,45,47,49,-1,-1,51,53,55,57,-1,-1,-1,-1,-1,-1,-1,-1,-1,-1,-1,-1,-1,-1,-1,-1,-1,-1,-1,-1,-1,-1,-1,-1,-1,-1,-1,-1],"loss_changes":[4.092903E0,4.525284E0,4.509119E0,5.0428314E0,3.671206E0,1.0498943E0,9.313934E-1,4.755722E0,7.6103983E0,3.8269036E0,9.812951E-1,6.244478E-1,5.780096E-1,8.406057E-1,1.1809039E-1,3.756813E0,9.5465183E-1,7.596737E0,2.1441123E0,3.9914513E0,1.694892E0,1.2186475E0,1.8460618E-1,2.5853157E-2,2.0609068E-2,0E0,0E0,4.2170286E-3,7.9147184E-1,1.4379454E-1,1.5024543E-3,0E0,0E0,0E0,0E0,0E0,0E0,0E0,0E0,0E0,0E0,0E0,0E0,0E0,0E0,0E0,0E0,0E0,0E0,0E0,0E0,0E0,0E0,0E0,0E0,0E0,0E0,0E0,0E0],"parents":[2147483647,0,0,1,1,2,2,3,3,4,4,5,5,6,6,7,7,8,8,9,9,10,10,11,11,12,12,13,13,14,14,15,15,16,16,17,17,18,18,19,19,20,20,21,21,22,22,23,23,24,24,27,27,28,28,29,29,30,30],"right_children":[2,4,6,8,10,12,14,16,18,20,22,24,26,28,30,32,34,36,38,40,42,44,46,48,50,-1,-1,52,54,56,58,-1,-1,-1,-1,-1,-1,-1,-1,-1,-1,-1,-1,-1,-1,-1,-1,-1,-1,-1,-1,-1,-1,-1,-1,-1,-1,-1,-1],"split_conditions":[-1.1349483E-1,7.08293E-2,1.574857E-1,2.0811133E0,1.6006365E0,1.5418723E0,-2.3322608E-1,2.022464E0,-9.962246E-1,-1.1103909E0,-9.564097E-1,1.014457E0,2.1652818E0,2.483188E0,2.0416518E-1,-1.4821026E0,-4.1780466E-1,-3.7009877E-1,-9.568432E-2,-1.4980885E-1,-1.4764199E0,2.1714628E-1,-5.7547486E-1,7.795734E-2,7.517041E-1,-2.0170751E-1,-3.4540057E-2,5.2277837E0,-5.662442E-1,9.644676E-1,-4.1340828E-1,2.5525526E-3,-4.0791303E-2,1.417711E-1,-1.15510225E-2,-2.1208428E-1,-1.9769259E-2,5.7352427E-3,-1.328466E-1,2.0528318E-2,-9.5918596E-2,-3.971577E-2,4.621836E-2,1.3080734E-1,-1.3100625E-3,-4.0156282E-2,2.4892189E-2,-6.2556356E-2,-1.2265296E-1,-2.110169E-2,2.867675E-3,2.0540731E-2,4.179937E-3,-1.1189557E-1,-2.1748824E-2,-1.0210788E-1,-1.754079E-2,-4.0035296E-2,-1.0676408E-2],"split_indices":[0,13,13,8,8,5,3,8,2,4,4,5,0,0,4,9,1,1,11,10,5,13,1,5,0,0,0,4,1,3,1,0,0,0,0,0,0,0,0,0,0,0,0,0,0,0,0,0,0,0,0,0,0,0,0,0,0,0,0],"split_type":[0,0,0,0,0,0,0,0,0,0,0,0,0,0,0,0,0,0,0,0,0,0,0,0,0,0,0,0,0,0,0,0,0,0,0,0,0,0,0,0,0,0,0,0,0,0,0,0,0,0,0,0,0,0,0,0,0,0,0],"sum_hessian":[1.198E3,1.148E3,5E1,1.085E3,6.3E1,2.1E1,2.9E1,1.047E3,3.8E1,5.3E1,1E1,1.4E1,7E0,2E1,9E0,1.043E3,4E0,2.1E1,1.7E1,2.7E1,2.6E1,8E0,2E0,1.2E1,2E0,6E0,1E0,7E0,1.3E1,6E0,3E0,4.7E1,9.96E2,3E0,1E0,1.4E1,7E0,1.5E1,2E0,1E1,1.7E1,6E0,2E1,6E0,2E0,1E0,1E0,4E0,8E0,1E0,1E0,6E0,1E0,2E0,1.1E1,5E0,1E0,2E0,1E0],"tree_param":{"num_deleted":"0","num_feature":"14","num_nodes":"59","size_leaf_vector":"0"}},{"base_weights":[-2.2642754E-1,-3.8189065E-1,-2.0484595E-1,-6.869992E-1,-3.275773E-1,-2.2878979E-1,-5.177902E-2,-8.688949E-1,-2.8280687E-1,-2.912004E-1,-5.7492787E-1,-2.514963E-1,-5.187901E-2,2.2620805E-1,-1.1494742E-1,-9.862218E-1,-1.0995547E-1,-4.8827648E-1,4.4731855E-2,-4.057859E-1,-1.8333207E-1,-7.010501E-1,-3.3063808E-1,-4.185821E-1,-2.1308297E-1,2.9811459E-3,-5.20955E-1,1.04694925E-1,5.58432E-1,6.217803E-1,-1.395732E-1,-1.1649994E0,-5.029333E-1,-1.4401977E-1,-6.6977435E-1,-4.0655773E-2,1.5044737E-1,-3.1574214E-1,-6.1284727E-1,-3.581154E-1,-3.4772005E-2,-7.828474E-1,-2.7650642E-1,-1.273098E-1,-3.8650742E-1,-3.7084377E-1,-1.7288252E0,-2.0494609E-1,-1.0644904E0,5.207454E-2,-3.4092104E-1,-7.019639E-2,-6.812149E-1,-2.34811E-1,2.254662E-1,6.5243524E-1,-2.793789E-3,-2.4712855E-1,-2.9611403E-2],"categories":[],"categories_nodes":[],"categories_segments":[],"categories_sizes":[],"default_left":[1,1,1,1,1,1,1,1,1,1,1,1,1,1,1,1,0,1,1,1,1,1,1,1,1,1,1,1,1,0,1,0,0,0,0,0,0,0,0,0,0,0,0,0,0,0,0,0,0,0,0,0,0,0,0,0,0,0,0],"id":23,"left_children":[1,3,5,7,9,11,13,15,17,19,21,23,25,27,29,31,-1,33,35,37,39,41,43,45,47,49,51,53,55,-1,57,-1,-1,-1,-1,-1,-1,-1,-1,-1,-1,-1,-1,-1,-1,-1,-1,-1,-1,-1,-1,-1,-1,-1,-1,-1,-1,-1,-1],"loss_changes":[3.9445877E0,2.1778183E0,3.8547401E0,1.2982082E0,9.5731163E-1,3.6504822E0,2.5546422E0,1.138176E0,5.6023556E-1,1.2975826E0,2.3036194E-1,5.0968056E0,2.7035792E0,1.0315132E0,2.2275972E0,4.5089626E-1,0E0,2.1594858E-1,4.222374E-2,7.946615E-1,1.5195315E0,9.607601E-2,3.0312479E-2,8.741201E0,4.3472652E0,1.6216693E0,7.4680495E-1,9.1399574E-1,3.7112212E-1,0E0,1.3527846E0,0E0,0E0,0E0,0E0,0E0,0E0,0E0,0E0,0E0,0E0,0E0,0E0,0E0,0E0,0E0,0E0,0E0,0E0,0E0,0E0,0E0,0E0,0E0,0E0,0E0,0E0,0E0,0E0],"parents":[2147483647,0,0,1,1,2,2,3,3,4,4,5,5,6,6,7,7,8,8,9,9,10,10,11,11,12,12,13,13,14,14,15,15,17,17,18,18,19,19,20,20,21,21,22,22,23,23,24,24,25,25,26,26,27,27,28,28,30,30],"right_children":[2,4,6,8,10,12,14,16,18,20,22,24,26,28,30,32,-1,34,36,38,40,42,44,46,48,50,52,54,56,-1,58,-1,-1,-1,-1,-1,-1,-1,-1,-1,-1,-1,-1,-1,-1,-1,-1,-1,-1,-1,-1,-1,-1,-1,-1,-1,-1,-1,-1],"split_conditions":[-1.1511439E-1,-8.9528215E-1,2.352218E-1,3.318297E-2,1.1901205E0,7.566701E-1,-5.603969E-1,1.667874E0,-4.614643E-1,-2.3472193E-1,-2.2517103E-1,-1.0494528E0,4.351448E0,1.128853E-1,-1.2805063E0,2.7725235E-1,-1.649332E-2,-4.8194027E-1,-2.4911627E-1,-1.15884244E-1,-1.1666632E-1,-2.5646234E-1,-1.9943127E-1,-1.0513535E0,7.123216E-1,2.541474E-1,-2.148514E-1,-6.5963817E-1,1.9310802E-2,9.3267046E-2,-5.922649E-2,-1.7474991E-1,-7.5440004E-2,-2.1602966E-2,-1.00466155E-1,-6.0983663E-3,2.2567106E-2,-4.736132E-2,-9.1927096E-2,-5.371731E-2,-5.215801E-3,-1.1742712E-1,-4.1475967E-2,-1.9096471E-2,-5.7976115E-2,-5.5626567E-2,-2.593238E-1,-3.0741913E-2,-1.5967357E-1,7.8111812E-3,-5.113816E-2,-1.05294585E-2,-1.0218225E-1,-3.522165E-2,3.3819932E-2,9.786529E-2,-4.1906835E-4,-3.7069283E-2,-4.4417107E-3],"split_indices":[13,11,7,6,4,1,1,10,1,6,3,2,1,8,8,9,0,1,1,13,13,1,3,2,1,6,8,2,4,0,1,0,0,0,0,0,0,0,0,0,0,0,0,0,0,0,0,0,0,0,0,0,0,0,0,0,0,0,0],"split_type":[0,0,0,0,0,0,0,0,0,0,0,0,0,0,0,0,0,0,0,0,0,0,0,0,0,0,0,0,0,0,0,0,0,0,0,0,0,0,0,0,0,0,0,0,0,0,0,0,0,0,0,0,0,0,0,0,0,0,0],"sum_hessian":[1.198E3,1.44E2,1.054E3,2E1,1.24E2,9.11E2,1.43E2,1.3E1,7E0,1.1E2,1.4E1,8.07E2,1.04E2,2.6E1,1.17E2,1.1E1,2E0,4E0,3E0,5.2E1,5.8E1,8E0,6E0,1.49E2,6.58E2,9.4E1,1E1,2E1,6E0,3E0,1.14E2,7E0,4E0,2E0,2E0,2E0,1E0,3.8E1,1.4E1,2.6E1,3.2E1,6E0,2E0,2E0,4E0,1.45E2,4E0,6.53E2,5E0,8.3E1,1.1E1,3E0,7E0,5E0,1.5E1,5E0,1E0,5.7E1,5.7E1],"tree_param":{"num_deleted":"0","num_feature":"14","num_nodes":"59","size_leaf_vector":"0"}},{"base_weights":[-1.935645E-1,-1.7770422E-1,-3.7191844E-1,3.2949826E-1,-1.8311514E-1,-1.7221596E0,-2.953257E-1,5.206264E-1,-1.8291461E-1,-1.7068669E-1,-4.6201667E-1,-1.6903241E-1,-2.7012336E0,-5.4182714E-1,-1.4409052E-1,2.592684E-1,6.0809404E-1,-3.1738725E-1,1.10251665E-1,-1.7778093E-1,3.2924908E-1,2.8439434E-2,-7.7832556E-1,-3.7079686E-1,-1.7746125E0,-3.2906596E-2,-5.7681865E-1,-2.6854193E-1,-1.462732E-1,8.307561E-1,-9.739515E-2,2.6212522E-1,-5.2156734E-1,-2.3467019E-1,-1.2338489E0,-6.0061324E-1,1.128956E-2,-2.1133983E0,-3.7912774E-1,5.451929E-2,-4.178098E-1,2.0740938E-1,-7.544052E-1],"categories":[],"categories_nodes":[],"categories_segments":[],"categories_sizes":[],"default_left":[1,1,1,1,1,1,1,1,1,1,1,0,0,1,1,0,0,0,0,1,1,1,1,1,1,1,1,0,0,0,0,0,0,0,0,0,0,0,0,0,0,0,0],"id":24,"left_children":[1,3,5,7,9,11,13,15,17,19,21,-1,-1,23,25,-1,-1,-1,-1,27,29,31,33,35,37,39,41,-1,-1,-1,-1,-1,-1,-1,-1,-1,-1,-1,-1,-1,-1,-1,-1],"loss_changes":[3.325573E0,3.0874443E0,9.523014E0,1.2704684E0,3.7063522E0,7.146538E0,3.388938E0,4.8083782E-2,1.9268388E-1,3.7718945E0,7.158375E0,0E0,0E0,6.721506E0,2.8196514E0,0E0,0E0,0E0,0E0,2.9147606E0,3.290388E0,2.5787628E0,6.6445885E0,2.8166914E0,1.0898333E0,1.6380029E0,1.8276908E0,0E0,0E0,0E0,0E0,0E0,0E0,0E0,0E0,0E0,0E0,0E0,0E0,0E0,0E0,0E0,0E0],"parents":[2147483647,0,0,1,1,2,2,3,3,4,4,5,5,6,6,7,7,8,8,9,9,10,10,13,13,14,14,19,19,20,20,21,21,22,22,23,23,24,24,25,25,26,26],"right_children":[2,4,6,8,10,12,14,16,18,20,22,-1,-1,24,26,-1,-1,-1,-1,28,30,32,34,36,38,40,42,-1,-1,-1,-1,-1,-1,-1,-1,-1,-1,-1,-1,-1,-1,-1,-1],"split_conditions":[1.4432594E0,-2.1131516E0,1.4847052E0,3.277164E0,2.1498322E0,-8.753943E-1,-9.346296E-2,-2.8568878E0,-9.269656E-1,1.8159931E0,-6.523995E-1,-2.5354862E-2,-4.0518507E-1,-9.596907E-2,3.215609E-1,3.889026E-2,9.1214105E-2,-4.760809E-2,1.653775E-2,-1.125785E-1,-1.0146561E0,3.5351608E0,-9.4510067E-1,-1.09293096E-1,-2.4857897E-1,1.5035923E0,1.5693507E0,-4.0281292E-2,-2.194098E-2,1.2461343E-1,-1.46092735E-2,3.9318785E-2,-7.8235105E-2,-3.520053E-2,-1.8507734E-1,-9.009199E-2,1.6934341E-3,-3.1700975E-1,-5.6869164E-2,8.177893E-3,-6.2671475E-2,3.1111408E-2,-1.1316078E-1],"split_indices":[5,5,5,10,10,10,13,5,2,10,8,0,0,13,10,0,0,0,0,13,9,10,9,13,2,0,5,0,0,0,0,0,0,0,0,0,0,0,0,0,0,0,0],"split_type":[0,0,0,0,0,0,0,0,0,0,0,0,0,0,0,0,0,0,0,0,0,0,0,0,0,0,0,0,0,0,0,0,0,0,0,0,0,0,0,0,0,0,0],"sum_hessian":[1.198E3,1.102E3,9.6E1,1.1E1,1.091E3,4E0,9.2E1,8E0,3E0,1.046E3,4.5E1,2E0,2E0,3.4E1,5.8E1,3E0,5E0,2E0,1E0,1.032E3,1.4E1,1.8E1,2.7E1,3.1E1,3E0,4.7E1,1.1E1,2.64E2,7.68E2,6E0,8E0,1.3E1,5E0,1.3E1,1.4E1,1.9E1,1.2E1,2E0,1E0,3.9E1,8E0,2E0,9E0],"tree_param":{"num_deleted":"0","num_feature":"14","num_nodes":"43","size_leaf_vector":"0"}},{"base_weights":[-1.6548194E-1,-1.550061E-1,-3.935742E-1,-1.6752718E-1,5.96876E-2,-6.67426E-1,-1.7050205E-1,-1.5611354E-1,-4.696443E-1,1.8389955E-1,-2.9453954E-1,-8.343163E-1,-3.670369E-1,-7.1207896E-2,-3.6196956E-1,-1.6002454E-1,6.90946E-1,-1.1676753E0,-2.8046018E-1,-5.0224587E-2,4.6287465E-1,-9.800759E-1,7.277361E-2,-1.0768138E0,-3.3151737E-1,-4.176022E-1,4.402542E-2,-1.2060869E-2,-6.2707424E-1,-4.2502907E-1,-1.6112304E-1,-1.8786155E-1,-7.236014E-2,8.8454556E-1,-4.1726112E-2,-1.6153668E0,1.1693287E-1,-5.409135E-2,-1.2523766E0,1.9407889E-1,-3.2824978E-1,5.7867324E-1,-4.6340743E-1,-1.4036176E0,-8.866167E-2,2.8652164E-1,-1.208352E-1,-1.2445389E0,-5.5602264E-1,-8.630562E-2,-3.632986E-1,5.902819E-2,-3.1117415E-1,-4.696463E-1,-7.866287E-2,-1.8849976E-1,-3.949642E-2],"categories":[],"categories_nodes":[],"categories_segments":[],"categories_sizes":[],"default_left":[1,1,1,1,1,1,1,1,1,1,1,1,1,1,1,1,1,1,1,1,1,1,1,1,1,0,0,1,0,1,1,0,0,0,0,0,0,0,0,0,0,0,0,0,0,0,0,0,0,0,0,0,0,0,0,0,0],"id":25,"left_children":[1,3,5,7,9,11,13,15,17,19,21,23,25,27,29,31,33,35,37,39,41,43,45,47,49,-1,-1,51,-1,53,55,-1,-1,-1,-1,-1,-1,-1,-1,-1,-1,-1,-1,-1,-1,-1,-1,-1,-1,-1,-1,-1,-1,-1,-1,-1,-1],"loss_changes":[2.803959E0,3.096054E0,3.0628157E0,3.6680431E0,2.8701174E0,8.468113E-1,5.4457307E-1,3.5791302E0,4.822713E0,3.158358E0,4.3520346E0,1.3500032E0,2.2623992E-1,6.8287164E-1,5.8170915E-2,2.5316544E0,7.4613357E-1,4.789754E0,6.972627E0,1.8976146E0,2.6279287E0,2.1408596E0,5.3122395E-1,9.4156265E-2,1.5404105E-2,0E0,0E0,4.436417E-1,0E0,7.123351E-2,5.873896E-3,0E0,0E0,0E0,0E0,0E0,0E0,0E0,0E0,0E0,0E0,0E0,0E0,0E0,0E0,0E0,0E0,0E0,0E0,0E0,0E0,0E0,0E0,0E0,0E0,0E0,0E0],"parents":[2147483647,0,0,1,1,2,2,3,3,4,4,5,5,6,6,7,7,8,8,9,9,10,10,11,11,12,12,13,13,14,14,15,15,16,16,17,17,18,18,19,19,20,20,21,21,22,22,23,23,24,24,27,27,29,29,30,30],"right_children":[2,4,6,8,10,12,14,16,18,20,22,24,26,28,30,32,34,36,38,40,42,44,46,48,50,-1,-1,52,-1,54,56,-1,-1,-1,-1,-1,-1,-1,-1,-1,-1,-1,-1,-1,-1,-1,-1,-1,-1,-1,-1,-1,-1,-1,-1,-1,-1],"split_conditions":[-1.2247121E-1,7.08293E-2,1.574857E-1,2.0811133E0,-1.8827699E-1,5.3316075E-1,-2.3322608E-1,2.022464E0,2.4005585E0,-4.7776263E-2,5.589494E-2,2.464127E-1,1.0212338E0,3.1667104E0,2.0416518E-1,1.6856702E-1,-4.1780466E-1,-2.0227839E-1,-2.856423E-2,5.173378E-1,7.628355E-1,-7.576579E-1,4.8492618E-2,1.1019242E0,-5.483419E-1,-6.264033E-2,6.6038133E-3,1.0557652E0,-9.406114E-2,9.644676E-1,-4.1340828E-1,-2.8179234E-2,-1.0854022E-2,1.3268185E-1,-6.258917E-3,-2.4230503E-1,1.7539931E-2,-8.113703E-3,-1.878565E-1,2.9111834E-2,-4.923747E-2,8.680099E-2,-6.9511116E-2,-2.1054265E-1,-1.3299251E-2,4.297825E-2,-1.812528E-2,-1.8668084E-1,-8.34034E-2,-1.2945843E-2,-5.449479E-2,8.854229E-3,-4.6676125E-2,-7.0446946E-2,-1.1799431E-2,-2.8274966E-2,-5.9244637E-3],"split_indices":[0,13,13,8,3,4,3,8,8,8,3,8,0,9,4,1,1,3,13,10,5,2,1,0,1,0,0,10,0,3,1,0,0,0,0,0,0,0,0,0,0,0,0,0,0,0,0,0,0,0,0,0,0,0,0,0,0],"split_type":[0,0,0,0,0,0,0,0,0,0,0,0,0,0,0,0,0,0,0,0,0,0,0,0,0,0,0,0,0,0,0,0,0,0,0,0,0,0,0,0,0,0,0,0,0,0,0,0,0,0,0,0,0,0,0,0,0],"sum_hessian":[1.198E3,1.147E3,5.1E1,1.084E3,6.3E1,2.2E1,2.9E1,1.046E3,3.8E1,4.7E1,1.6E1,1.3E1,9E0,2E1,9E0,1.042E3,4E0,7E0,3.1E1,2.6E1,2.1E1,5E0,1.1E1,8E0,5E0,8E0,1E0,1.9E1,1E0,6E0,3E0,7.9E2,2.52E2,3E0,1E0,5E0,2E0,2.6E1,5E0,1.4E1,1.2E1,1.9E1,2E0,3E0,2E0,5E0,6E0,5E0,3E0,1E0,4E0,1.6E1,3E0,5E0,1E0,2E0,1E0],"tree_param":{"num_deleted":"0","num_feature":"14","num_nodes":"57","size_leaf_vector":"0"}},{"base_weights":[-1.416414E-1,-1.1189118E-1,-2.1094024E-1,-2.154248E-1,-7.066991E-2,-5.1229E-1,-1.2820217E-1,-1.641283E-1,-5.673195E-1,-8.590951E-2,2.339314E-1,-1.5780947E0,-4.1635785E-1,-1.01948775E-1,-7.681089E-1,-1.874071E-1,5.377297E-1,-9.0485483E-1,-5.6322906E-2,-4.8511752E-1,-7.2137766E-2,1.3355021E-1,6.8905115E-1,-2.037873E0,-4.390254E-1,-1.8387322E-1,-7.3570716E-1,-5.481424E-1,-8.289905E-2,-2.6177535E0,-3.2136908E-1,5.349038E-2,-2.4109991E-1,8.8119143E-1,-2.1394984E-1,-3.4926787E-1,-1.4216342E0,1.3881534E-1,-3.9630717E-1,-2.1806073E-1,-1.4320652E0,2.9409108E-1,-9.951886E-2,2.6283175E-1,-8.6655304E-2,-7.42941E-1,8.3154194E-2,-8.396312E-1,4.7948614E-1,-7.342633E-1,-3.886497E-2,2.6536322E-1,-1.1265464E-1,-4.2402908E-1,-6.1371803E-2],"categories":[],"categories_nodes":[],"categories_segments":[],"categories_sizes":[],"default_left":[1,1,1,1,1,1,1,1,1,1,1,1,1,1,1,1,1,1,1,1,1,1,0,0,0,1,1,1,1,0,1,0,0,0,0,0,0,0,0,0,0,0,0,0,0,0,0,0,0,0,0,0,0,0,0],"id":26,"left_children":[1,3,5,7,9,11,13,15,17,19,21,23,25,27,29,31,33,35,37,39,41,43,-1,-1,-1,45,47,49,51,-1,53,-1,-1,-1,-1,-1,-1,-1,-1,-1,-1,-1,-1,-1,-1,-1,-1,-1,-1,-1,-1,-1,-1,-1,-1],"loss_changes":[2.4483223E0,3.573986E0,8.885308E0,4.2210674E0,2.8192236E0,7.215811E0,4.676015E0,3.5318422E0,5.123418E0,3.1262345E0,1.2328556E0,2.2476377E0,5.2102766E0,2.2750235E0,8.248143E0,2.651527E0,1.9957426E0,4.6715565E0,9.1748476E-1,4.49261E0,5.6147227E0,7.344887E-1,0E0,0E0,0E0,6.4810953E0,4.191225E0,1.0141218E0,2.7552977E0,0E0,2.4088979E-1,0E0,0E0,0E0,0E0,0E0,0E0,0E0,0E0,0E0,0E0,0E0,0E0,0E0,0E0,0E0,0E0,0E0,0E0,0E0,0E0,0E0,0E0,0E0,0E0],"parents":[2147483647,0,0,1,1,2,2,3,3,4,4,5,5,6,6,7,7,8,8,9,9,10,10,11,11,12,12,13,13,14,14,15,15,16,16,17,17,18,18,19,19,20,20,21,21,25,25,26,26,27,27,28,28,30,30],"right_children":[2,4,6,8,10,12,14,16,18,20,22,24,26,28,30,32,34,36,38,40,42,44,-1,-1,-1,46,48,50,52,-1,54,-1,-1,-1,-1,-1,-1,-1,-1,-1,-1,-1,-1,-1,-1,-1,-1,-1,-1,-1,-1,-1,-1,-1,-1],"split_conditions":[-2.3093012E-1,-5.471763E-1,-1.055524E0,1.1756222E0,8.1698024E-1,-2.1119812E-1,1.6116954E0,9.0803415E-1,2.4975796E0,-1.6442606E0,6.326651E-1,-9.398643E-2,-6.8389356E-1,-2.253478E-1,-5.6347406E-1,-9.116199E-1,-4.7676915E-1,-1.1047318E-1,-1.1259589E0,1.913744E0,-1.2018642E0,1.873089E-1,1.0335768E-1,-3.0568096E-1,-6.585381E-2,-1.0377538E-1,3.493146E0,-2.8410442E-2,-9.9834657E-1,-3.9266303E-1,-9.7694546E-2,8.023557E-3,-3.6164988E-2,1.3217872E-1,-3.2092478E-2,-5.2390184E-2,-2.1324514E-1,2.0822302E-2,-5.9446078E-2,-3.270911E-2,-2.1480979E-1,4.4113662E-2,-1.492783E-2,3.9424762E-2,-1.2998296E-2,-1.1144116E-1,1.247313E-2,-1.2594469E-1,7.192292E-2,-1.101395E-1,-5.829746E-3,3.9804485E-2,-1.6898196E-2,-6.360436E-2,-9.205771E-3],"split_indices":[3,10,2,8,6,3,11,8,8,9,8,13,9,3,1,8,1,13,11,8,9,10,0,0,0,13,3,1,5,0,1,0,0,0,0,0,0,0,0,0,0,0,0,0,0,0,0,0,0,0,0,0,0,0,0],"split_type":[0,0,0,0,0,0,0,0,0,0,0,0,0,0,0,0,0,0,0,0,0,0,0,0,0,0,0,0,0,0,0,0,0,0,0,0,0,0,0,0,0,0,0,0,0,0,0,0,0,0,0,0,0,0,0],"sum_hessian":[1.198E3,8.4E2,3.58E2,2.38E2,6.02E2,7.6E1,2.82E2,2.09E2,2.9E1,5.74E2,2.8E1,5E0,7.1E1,2.72E2,1E1,2.03E2,6E0,1.7E1,1.2E1,1.8E1,5.56E2,2.4E1,4E0,3E0,2E0,4.2E1,2.9E1,1E1,2.62E2,1E0,9E0,3.7E1,1.66E2,4E0,2E0,9E0,8E0,8E0,4E0,1.5E1,3E0,3.8E1,5.18E2,1.5E1,9E0,1.3E1,2.9E1,2.7E1,2E0,7E0,3E0,2E1,2.42E2,6E0,3E0],"tree_param":{"num_deleted":"0","num_feature":"14","num_nodes":"55","size_leaf_vector":"0"}},{"base_weights":[-1.21566065E-1,-1.0764917E-1,-2.7856362E-1,-1.1470809E-1,1.6745959E-1,-1.428394E0,-2.1374948E-1,-1.5537392E-1,-5.9913483E-2,4.8656356E-1,1.5489817E-2,-1.52771E-1,-2.2278855E0,-2.646562E-1,2.907861E-1,-1.193376E-1,-2.843754E-1,-4.9765516E-2,-6.27053E-1,1.3633811E-1,6.3895327E-1,-6.477404E-2,4.9190965E-1,-7.576555E-1,-1.5677387E-1,1.1335949E-1,4.8422945E-1,6.8451196E-2,-1.6903765E-1,-2.1472402E-1,-1.12658E0,-8.613288E-2,1.2893918E-1,-8.6468124E-1,-1.7325449E-1,1.92753E-1,-1.6453266E-2,7.1355516E-1,1.32972E-1,-1.6726328E-1,8.424544E-2,2.3822784E-2,-8.15177E-1,-5.3934228E-2,-5.7162565E-1,2.0640916E-1,-4.8493225E-2],"categories":[],"categories_nodes":[],"categories_segments":[],"categories_sizes":[],"default_left":[1,1,1,1,1,1,1,1,1,1,1,0,0,1,1,1,1,1,1,1,1,1,0,1,1,1,0,0,0,0,0,0,0,0,0,0,0,0,0,0,0,0,0,0,0,0,0],"id":27,"left_children":[1,3,5,7,9,11,13,15,17,19,21,-1,-1,23,25,27,29,31,33,35,37,39,-1,41,43,45,-1,-1,-1,-1,-1,-1,-1,-1,-1,-1,-1,-1,-1,-1,-1,-1,-1,-1,-1,-1,-1],"loss_changes":[2.5897293E0,2.1612024E0,6.923633E0,2.3883057E0,1.3502996E0,4.758893E0,2.4655929E0,2.8343344E0,2.6162388E0,3.9322305E-1,7.9664886E-1,0E0,0E0,4.4020224E0,2.5400597E-1,4.528798E0,7.6186314E0,2.9551609E0,7.12873E-1,3.765025E-2,1.3160014E-1,2.8900328E-1,0E0,6.93697E-1,2.9982572E0,1.00371495E-1,0E0,0E0,0E0,0E0,0E0,0E0,0E0,0E0,0E0,0E0,0E0,0E0,0E0,0E0,0E0,0E0,0E0,0E0,0E0,0E0,0E0],"parents":[2147483647,0,0,1,1,2,2,3,3,4,4,5,5,6,6,7,7,8,8,9,9,10,10,13,13,14,14,15,15,16,16,17,17,18,18,19,19,20,20,21,21,23,23,24,24,25,25],"right_children":[2,4,6,8,10,12,14,16,18,20,22,-1,-1,24,26,28,30,32,34,36,38,40,-1,42,44,46,-1,-1,-1,-1,-1,-1,-1,-1,-1,-1,-1,-1,-1,-1,-1,-1,-1,-1,-1,-1,-1],"split_conditions":[1.4432594E0,2.207119E0,1.4847052E0,-1.9000617E-1,-1.1084416E0,-8.753943E-1,9.1119397E-1,-8.451624E-2,2.259665E0,-4.9160644E-1,2.8018646E0,-2.291565E-2,-3.3418283E-1,-1.0637298E0,-8.972161E-1,-7.779063E-1,1.478287E0,7.423557E-1,-9.332648E-2,3.8683113E-1,-6.68411E-1,5.813794E-2,7.378645E-2,1.515774E0,-9.964116E-2,-4.5322E-1,7.263442E-2,1.026768E-2,-2.535565E-2,-3.2208603E-2,-1.68987E-1,-1.2919932E-2,1.9340878E-2,-1.297022E-1,-2.5988175E-2,2.8912952E-2,-2.46799E-3,1.07033275E-1,1.99458E-2,-2.5089493E-2,1.2636817E-2,3.573418E-3,-1.2227656E-1,-8.090135E-3,-8.574385E-2,3.0961374E-2,-7.273984E-3],"split_indices":[5,6,5,1,4,10,8,3,3,10,7,0,0,2,10,9,10,10,13,5,2,4,0,5,0,1,0,0,0,0,0,0,0,0,0,0,0,0,0,0,0,0,0,0,0,0,0],"split_type":[0,0,0,0,0,0,0,0,0,0,0,0,0,0,0,0,0,0,0,0,0,0,0,0,0,0,0,0,0,0,0,0,0,0,0,0,0,0,0,0,0,0,0,0,0,0,0],"sum_hessian":[1.198E3,1.102E3,9.6E1,1.075E3,2.7E1,4E0,9.2E1,6.16E2,4.59E2,8E0,1.9E1,2E0,2E0,8.4E1,8E0,4.83E2,1.33E2,4.52E2,7E0,3E0,5E0,1.7E1,2E0,1.4E1,7E1,5E0,3E0,1.01E2,3.82E2,1.24E2,9E0,3.76E2,7.6E1,4E0,3E0,2E0,1E0,4E0,1E0,1E1,7E0,1E0,1.3E1,5.7E1,1.3E1,3E0,2E0],"tree_param":{"num_deleted":"0","num_feature":"14","num_nodes":"47","size_leaf_vector":"0"}},{"base_weights":[-1.0385165E-1,-1.544527E-1,-6.902418E-2,-1.3245176E-1,-6.626519E-1,3.077854E-1,-7.9240836E-2,-1.9000462E-1,3.651449E-2,-9.872487E-1,-3.0732286E-1,6.76394E-1,1.278256E-1,-3.4854207E-2,-1.5009566E-1,-1.6811956E-1,-9.172843E-1,-1.7577402E-2,4.830845E-1,-1.1362796E0,-2.6074997E-1,5.479082E-1,-6.96523E-1,7.7626336E-1,8.852363E-2,1.9193053E-2,5.1974726E-1,1.1933798E-1,-7.119111E-2,-1.275091E-1,-1.1113595E0,-1.8944894E-1,2.4953723E-1,-2.605276E-1,-2.362874E0,2.9530965E-2,-3.6410248E-1,6.6198874E-1,-8.494723E-2,-1.2015427E0,-3.3971882E-1,8.8108945E-1,1.4315128E-1,-9.051536E-1,-2.6160407E-1,8.839469E-1,1.7276454E-1,-1.4237042E-1,1.1777109E-1,1.5923354E-1,-3.3086205E-1,-1.1282455E-1,1.9535704E-2,-1.6536056E-1,4.9159527E-2,-2.5801532E0,2.680756E-1],"categories":[],"categories_nodes":[],"categories_segments":[],"categories_sizes":[],"default_left":[1,1,1,1,1,1,1,1,1,1,1,1,1,1,1,1,1,1,1,1,0,1,1,1,0,1,0,1,1,1,1,0,0,0,0,0,0,0,0,0,0,0,0,0,0,0,0,0,0,0,0,0,0,0,0,0,0],"id":28,"left_children":[1,3,5,7,9,11,13,15,17,19,21,23,25,27,29,31,33,35,37,39,-1,41,43,45,-1,47,-1,49,51,53,55,-1,-1,-1,-1,-1,-1,-1,-1,-1,-1,-1,-1,-1,-1,-1,-1,-1,-1,-1,-1,-1,-1,-1,-1,-1,-1],"loss_changes":[2.1023436E0,5.3684893E0,2.7653995E0,4.5677233E0,2.0033693E0,1.1738994E0,2.177403E0,5.4165792E0,2.9071894E0,7.864227E-1,4.043048E0,2.835436E-1,5.860807E-1,2.4065228E0,5.6553E0,3.0850239E0,8.878414E0,1.7737693E0,1.3773365E0,7.701874E-3,0E0,4.133005E-1,4.8910713E-1,1.7221999E-1,0E0,2.0788644E-1,0E0,1.5254847E0,1.3129164E0,1.7601666E0,1.284831E1,0E0,0E0,0E0,0E0,0E0,0E0,0E0,0E0,0E0,0E0,0E0,0E0,0E0,0E0,0E0,0E0,0E0,0E0,0E0,0E0,0E0,0E0,0E0,0E0,0E0,0E0],"parents":[2147483647,0,0,1,1,2,2,3,3,4,4,5,5,6,6,7,7,8,8,9,9,10,10,11,11,12,12,13,13,14,14,15,15,16,16,17,17,18,18,19,19,21,21,22,22,23,23,25,25,27,27,28,28,29,29,30,30],"right_children":[2,4,6,8,10,12,14,16,18,20,22,24,26,28,30,32,34,36,38,40,-1,42,44,46,-1,48,-1,50,52,54,56,-1,-1,-1,-1,-1,-1,-1,-1,-1,-1,-1,-1,-1,-1,-1,-1,-1,-1,-1,-1,-1,-1,-1,-1,-1,-1],"split_conditions":[-4.8150712E-1,1.4136935E0,-4.2485726E-1,-2.4295259E-1,-8.064042E-2,-1.12322E0,-8.814115E-2,-3.3753312E-1,1.0520496E0,-7.430425E-1,-6.644533E-2,-5.764939E-1,-3.335463E-2,-3.3527535E-1,1.486789E0,-4.6081454E-1,9.760771E-1,-5.669116E-1,6.6925687E-1,2.976177E-1,-3.9112497E-2,7.9943E-2,-1.8470323E-1,-4.307325E-1,1.3278545E-2,-1.1251959E-1,7.796209E-2,2.808744E-1,-2.4004954E-1,3.1688407E-1,-6.158491E-1,-2.8417341E-2,3.7430584E-2,-3.9079145E-2,-3.5443112E-1,4.429645E-3,-5.4615375E-2,9.929831E-2,-1.2742084E-2,-1.8023142E-1,-5.0957825E-2,1.3216342E-1,2.1472692E-2,-1.3577305E-1,-3.9240614E-2,1.3259204E-1,2.5914682E-2,-2.1355564E-2,1.7665664E-2,2.3885032E-2,-4.962931E-2,-1.6923683E-2,2.9303557E-3,-2.4804084E-2,7.3739295E-3,-3.87023E-1,4.021134E-2],"split_indices":[2,9,2,4,13,4,8,4,8,2,13,1,1,4,10,4,5,2,11,5,0,1,1,2,0,13,0,0,7,1,5,0,0,0,0,0,0,0,0,0,0,0,0,0,0,0,0,0,0,0,0,0,0,0,0,0,0],"split_type":[0,0,0,0,0,0,0,0,0,0,0,0,0,0,0,0,0,0,0,0,0,0,0,0,0,0,0,0,0,0,0,0,0,0,0,0,0,0,0,0,0,0,0,0,0,0,0,0,0,0,0,0,0,0,0,0,0],"sum_hessian":[1.198E3,4.87E2,7.11E2,4.68E2,1.9E1,1.8E1,6.93E2,3.49E2,1.19E2,9E0,1E1,5E0,1.3E1,4.27E2,2.66E2,3.4E2,9E0,1.07E2,1.2E1,7E0,2E0,3E0,7E0,4E0,1E0,1.1E1,2E0,8.1E1,3.46E2,2.61E2,5E0,3.24E2,1.6E1,7E0,2E0,9.5E1,1.2E1,9E0,3E0,6E0,1E0,1E0,2E0,4E0,3E0,3E0,1E0,4E0,7E0,7.5E1,6E0,2.37E2,1.09E2,2.15E2,4.6E1,2E0,3E0],"tree_param":{"num_deleted":"0","num_feature":"14","num_nodes":"57","size_leaf_vector":"0"}},{"base_weights":[-8.893921E-2,-7.669804E-2,-2.2721832E-1,-1.2130294E-1,-4.0845353E-2,-1.2699788E0,-1.6871272E-1,-7.095463E-1,-1.0759819E-1,-8.072924E-2,5.7855807E-2,-1.3047917E-1,-1.986152E0,-3.614923E-1,-5.14924E-2,-2.6087353E-1,-1.1957791E0,-1.0205721E-1,-1.3836355E0,-6.162443E-2,-6.1410296E-1,2.0476736E-1,-8.306724E-3,-2.2570299E-1,-1.3574339E0,-1.1558191E-1,3.1740287E-1,-4.0132618E-1,-1.2442722E-1,-9.09122E-1,-9.847436E-2,-1.8368843E-1,-1.8752315E-3,-2.3221378E0,-1.7270239E-1,3.503667E-1,2.1029413E-3,1.6361466E-2,-4.194312E-1,-3.9328808E-1,4.9482014E-2,-1.5852203E0,-3.3703732E-1,-4.5593482E-1,-3.1793553E-2,4.4852588E-1,4.136765E-2],"categories":[],"categories_nodes":[],"categories_segments":[],"categories_sizes":[],"default_left":[1,1,1,1,1,1,1,1,1,1,1,0,0,1,1,1,0,1,0,1,1,1,1,1,1,1,1,0,0,0,0,0,0,0,0,0,0,0,0,0,0,0,0,0,0,0,0],"id":29,"left_children":[1,3,5,7,9,11,13,15,17,19,21,-1,-1,23,25,27,-1,29,-1,31,33,35,37,39,41,43,45,-1,-1,-1,-1,-1,-1,-1,-1,-1,-1,-1,-1,-1,-1,-1,-1,-1,-1,-1,-1],"loss_changes":[2.0121174E0,1.7589693E0,5.7034483E0,3.8819594E0,2.417798E0,3.8212433E0,2.0829704E0,2.0878067E0,3.2597032E0,4.4151883E0,1.722148E0,0E0,0E0,4.4269614E0,1.4315828E0,8.421385E-2,0E0,1.29844E0,0E0,3.0846906E0,1.0907875E1,1.6221926E0,1.254291E0,1.4952017E0,3.9545155E-1,1.4399023E0,3.0719662E-1,0E0,0E0,0E0,0E0,0E0,0E0,0E0,0E0,0E0,0E0,0E0,0E0,0E0,0E0,0E0,0E0,0E0,0E0,0E0,0E0],"parents":[2147483647,0,0,1,1,2,2,3,3,4,4,5,5,6,6,7,7,8,8,9,9,10,10,13,13,14,14,15,15,17,17,19,19,20,20,21,21,22,22,23,23,24,24,25,25,26,26],"right_children":[2,4,6,8,10,12,14,16,18,20,22,-1,-1,24,26,28,-1,30,-1,32,34,36,38,40,42,44,46,-1,-1,-1,-1,-1,-1,-1,-1,-1,-1,-1,-1,-1,-1,-1,-1,-1,-1,-1,-1],"split_conditions":[1.4432594E0,-1.0690084E-1,1.4847052E0,-1.1691198E0,2.588653E-1,-8.753943E-1,-9.346296E-2,1.5933374E-1,2.6711826E0,1.335176E-1,-3.645484E-2,-1.9571876E-2,-2.9792282E-1,-9.596907E-2,3.7294394E-1,-1.3847065E0,-1.7936687E-1,-1.6422136E0,-2.0754534E-1,-5.246431E-2,-6.852808E-1,-5.071111E-2,1.8685684E0,-1.09293096E-1,-2.4857897E-1,-1.0637298E0,-4.6291214E-1,-6.019893E-2,-1.8664084E-2,-1.363683E-1,-1.4771155E-2,-2.7553266E-2,-2.8128474E-4,-3.483207E-1,-2.590536E-2,5.255501E-2,3.154412E-4,2.4542199E-3,-6.2914684E-2,-5.8993213E-2,7.4223024E-3,-2.3778306E-1,-5.05556E-2,-6.839023E-2,-4.7690333E-3,6.7278884E-2,6.2051476E-3],"split_indices":[5,13,5,5,2,10,13,8,10,2,11,0,0,13,8,5,0,9,0,10,9,13,11,13,2,2,1,0,0,0,0,0,0,0,0,0,0,0,0,0,0,0,0,0,0,0,0],"split_type":[0,0,0,0,0,0,0,0,0,0,0,0,0,0,0,0,0,0,0,0,0,0,0,0,0,0,0,0,0,0,0,0,0,0,0,0,0,0,0,0,0,0,0,0,0,0,0],"sum_hessian":[1.198E3,1.102E3,9.6E1,4.9E2,6.12E2,4E0,9.2E1,1E1,4.8E2,4.36E2,1.76E2,2E0,2E0,3.4E1,5.8E1,6E0,4E0,4.79E2,1E0,4.22E2,1.4E1,5.4E1,1.22E2,3.1E1,3E0,5E1,8E0,2E0,4E0,1E0,4.78E2,1.38E2,2.84E2,2E0,1.2E1,3.1E1,2.3E1,1.16E2,6E0,1.9E1,1.2E1,2E0,1E0,9E0,4.1E1,5E0,3E0],"tree_param":{"num_deleted":"0","num_feature":"14","num_nodes":"47","size_leaf_vector":"0"}}]},"name":"gbtree"},"learner_model_param":{"base_score":"5E-1","boost_from_average":"1","num_class":"0","num_feature":"14","num_target":"1"},"objective":{"name":"reg:squarederror","reg_loss_param":{"scale_pos_weight":"1"}}},"version":[1,7,1]}