{"learner":{"attributes":{"best_iteration":"14","best_ntree_limit":"15","scikit_learn":"{\"n_estimators\": 15, \"objective\": \"reg:squarederror\", \"max_depth\": 5, \"learning_rate\": null, \"verbosity\": null, \"booster\": null, \"tree_method\": null, \"gamma\": null, \"min_child_weight\": null, \"max_delta_step\": null, \"subsample\": null, \"colsample_bytree\": null, \"colsample_bylevel\": null, \"colsample_bynode\": null, \"reg_alpha\": null, \"reg_lambda\": null, \"scale_pos_weight\": null, \"base_score\": null, \"missing\": NaN, \"num_parallel_tree\": null, \"random_state\": null, \"n_jobs\": null, \"monotone_constraints\": null, \"interaction_constraints\": null, \"importance_type\": null, \"gpu_id\": null, \"validate_parameters\": null, \"predictor\": null, \"enable_categorical\": false, \"kwargs\": {\"eta\": 0.17, \"grow_policy\": \"lossguide\", \"eval_metric\": \"rmse\"}, \"_estimator_type\": \"regressor\"}"},"feature_names":["expense_per_student","Total expenses","Institutional grants (funded)_per_dollar","Institutional grants (unfunded)_per_dollar","Sales and services of educational activities - Total_per_dollar","Sales and services of auxiliary enterprises - Total_per_dollar","Instruction-Total amount_per_dollar","Research-Total amount_per_dollar","Public service-Total amount_per_dollar","Academic support-Total amount_per_dollar","Student service-Total amount_per_dollar","Institutional support-Total amount_per_dollar","Auxiliary enterprises-Total amount_per_dollar","Net grant aid to students-Total amount_per_dollar"],"feature_types":["float","float","float","float","float","float","float","float","float","float","float","float","float","float"],"gradient_booster":{"model":{"gbtree_model_param":{"num_trees":"15","size_leaf_vector":"0"},"tree_info":[0,0,0,0,0,0,0,0,0,0,0,0,0,0,0],"trees":[{"base_weights":[-4.9105093E-1,-2.2461937E-1,-2.4521475E0,4.3608347E-1,-4.831206E-1,-1.871432E0,-3.8298147E0,1.3718264E0,2.6439524E-1,-3.123056E-1,-8.738157E-1,-1.5666864E0,-2.3019617E0,-3.002638E0,-4.3827825E0,2.66404E0,1.1183512E0,4.8487538E-1,1.2028559E-1,-1.5469831E-1,-4.0403327E-1,-7.701086E-1,-1.1378506E0,6.153175E-1,3.7082416E-1,2.1667553E-1,6.478242E-2,-9.058334E-2,-2.238411E-1,-3.48361E-1,-5.0659066E-1,-6.6304797E-1,-8.4124464E-1],"categories":[],"categories_nodes":[],"categories_segments":[],"categories_sizes":[],"default_left":[true,true,true,true,true,true,true,true,true,true,true,false,false,false,false,false,false,true,true,true,true,true,false,false,false,false,false,false,false,false,false,false,false],"id":0,"left_children":[1,3,5,7,9,11,13,15,17,19,21,-1,-1,-1,-1,-1,-1,23,25,27,29,31,-1,-1,-1,-1,-1,-1,-1,-1,-1,-1,-1],"loss_changes":[5.5904456E2,1.614388E2,9.523694E1,4.237181E1,4.5041245E1,8.464111E0,3.763977E0,1.0449982E1,7.122446E0,6.7900925E0,4.7644806E0,0E0,0E0,0E0,0E0,0E0,0E0,1.0958843E0,7.2425616E-1,7.599473E-1,1.530693E0,5.9220886E-1,0E0,0E0,0E0,0E0,0E0,0E0,0E0,0E0,0E0,0E0,0E0],"parents":[2147483647,0,0,1,1,2,2,3,3,4,4,5,5,6,6,7,7,8,8,9,9,10,10,17,17,18,18,19,19,20,20,21,21],"right_children":[2,4,6,8,10,12,14,16,18,20,22,-1,-1,-1,-1,-1,-1,24,26,28,30,32,-1,-1,-1,-1,-1,-1,-1,-1,-1,-1,-1],"split_conditions":[3.5687938E5,1.1314286E5,1.1774E6,5.6811445E4,1.9145128E5,5.9155906E5,2.339308E6,2.0481648E4,8.8361484E4,1.4583362E5,2.715443E5,-2.6633668E-1,-3.913335E-1,-5.1044846E-1,-7.45073E-1,4.5288682E-1,1.9011971E-1,7.333111E4,9.7395086E4,1.3259466E5,1.6400844E5,2.1791622E5,-1.9343461E-1,1.0460398E-1,6.304011E-2,3.683484E-2,1.1013011E-2,-1.5399168E-2,-3.8052987E-2,-5.922137E-2,-8.612041E-2,-1.1271816E-1,-1.4301158E-1],"split_indices":[0,0,0,0,0,0,0,0,0,0,0,0,0,0,0,0,0,0,0,0,0,0,0,0,0,0,0,0,0,0,0,0,0],"split_type":[0,0,0,0,0,0,0,0,0,0,0,0,0,0,0,0,0,0,0,0,0,0,0,0,0,0,0,0,0,0,0,0,0],"sum_hessian":[1.07E3,9.43E2,1.27E2,2.65E2,6.78E2,9.1E1,3.6E1,4E1,2.25E2,4.73E2,2.05E2,5.6E1,3.5E1,1.7E1,1.9E1,5E0,3.5E1,8.8E1,1.37E2,1.75E2,2.98E2,1.5E2,5.5E1,3.9E1,4.9E1,4.9E1,8.8E1,9.2E1,8.3E1,1.96E2,1.02E2,6.4E1,8.6E1],"tree_param":{"num_deleted":"0","num_feature":"14","num_nodes":"33","size_leaf_vector":"0"}},{"base_weights":[-4.0916207E-1,-1.8717766E-1,-2.057714E0,3.651767E-1,-4.0297043E-1,-1.5065662E0,-3.0993385E0,1.2496103E0,2.3455043E-1,-2.6727557E-1,-7.489783E-1,-1.2557011E0,-1.783802E0,-2.6922212E0,-4.173604E0,2.2866344E0,9.9196357E-1,4.9291295E-1,1.3165475E-1,-1.2870331E-1,-3.438516E-1,-6.5832937E-1,-9.5053315E-1,6.304662E-1,4.238921E-1,2.4261971E-1,6.776107E-2,-6.477913E-2,-1.777678E-1,-2.894402E-1,-4.3103805E-1,-5.711261E-1,-6.9987684E-1],"categories":[],"categories_nodes":[],"categories_segments":[],"categories_sizes":[],"default_left":[true,true,true,true,true,true,true,true,true,true,true,false,false,false,false,false,false,true,true,true,true,true,false,false,false,false,false,false,false,false,false,false,false],"id":1,"left_children":[1,3,5,7,9,11,13,15,17,19,21,-1,-1,-1,-1,-1,-1,23,25,27,29,31,-1,-1,-1,-1,-1,-1,-1,-1,-1,-1,-1],"loss_changes":[3.9155032E2,1.1278556E2,6.823993E1,3.0437946E1,3.172683E1,3.6717377E0,7.5698853E0,6.816063E0,6.1292677E0,5.1552887E0,2.863945E0,0E0,0E0,0E0,0E0,0E0,0E0,3.5935783E-1,1.1746731E0,5.404918E-1,1.3695793E0,8.9393616E-2,0E0,0E0,0E0,0E0,0E0,0E0,0E0,0E0,0E0,0E0,0E0],"parents":[2147483647,0,0,1,1,2,2,3,3,4,4,5,5,6,6,7,7,8,8,9,9,10,10,17,17,18,18,19,19,20,20,21,21],"right_children":[2,4,6,8,10,12,14,16,18,20,22,-1,-1,-1,-1,-1,-1,24,26,28,30,32,-1,-1,-1,-1,-1,-1,-1,-1,-1,-1,-1],"split_conditions":[3.585067E5,1.1314286E5,1.0341195E6,5.3672336E4,1.9554869E5,5.413398E5,4.1206685E6,2.0481648E4,8.033236E4,1.4583362E5,2.715443E5,-2.1346918E-1,-3.0324635E-1,-4.576776E-1,-7.095127E-1,3.8872787E-1,1.686338E-1,6.36236E4,9.366082E4,1.2896667E5,1.6400844E5,2.1791622E5,-1.6159064E-1,1.0717926E-1,7.206166E-2,4.1245352E-2,1.1519382E-2,-1.1012453E-2,-3.0220525E-2,-4.9204838E-2,-7.327647E-2,-9.709144E-2,-1.1897907E-1],"split_indices":[0,0,0,0,0,0,0,0,0,0,0,0,0,0,0,0,0,0,0,0,0,0,0,0,0,0,0,0,0,0,0,0,0],"split_type":[0,0,0,0,0,0,0,0,0,0,0,0,0,0,0,0,0,0,0,0,0,0,0,0,0,0,0,0,0,0,0,0,0],"sum_hessian":[1.07E3,9.44E2,1.26E2,2.65E2,6.79E2,8.4E1,4.2E1,3.3E1,2.32E2,4.89E2,1.9E2,4.7E1,3.7E1,3.3E1,9E0,5E0,2.8E1,6.5E1,1.67E2,1.75E2,3.14E2,1.34E2,5.6E1,1.9E1,4.6E1,6E1,1.07E2,7.7E1,9.8E1,1.96E2,1.18E2,4.8E1,8.6E1],"tree_param":{"num_deleted":"0","num_feature":"14","num_nodes":"33","size_leaf_vector":"0"}},{"base_weights":[-3.4094524E-1,-1.7187126E-1,-1.862585E0,2.4679552E-1,-3.7996453E-1,-1.4556637E0,-2.9068673E0,8.753638E-1,1.2203375E-1,-2.4566774E-1,-6.569809E-1,-1.2338476E0,-1.7955587E0,1.8806773E0,7.070115E-1,2.717226E-1,2.4539521E-2,-1.9033228E-1,-3.3539852E-1,-5.5388886E-1,-8.4688103E-1,9.5209837E-1,5.9577894E-1,3.6897948E-1,2.0718849E-1,7.389682E-2,-3.082746E-2,-1.3181509E-1,-2.274809E-1,-2.8045624E-1,-3.780676E-1,-6.149453E-1,-4.9518493E-1],"categories":[],"categories_nodes":[],"categories_segments":[],"categories_sizes":[],"default_left":[true,true,true,true,true,true,false,true,true,true,true,false,false,false,true,true,true,true,true,true,false,false,false,false,false,false,false,false,false,false,false,false,false],"id":2,"left_children":[1,3,5,7,9,11,-1,13,15,17,19,-1,-1,-1,21,23,25,27,29,31,-1,-1,-1,-1,-1,-1,-1,-1,-1,-1,-1,-1,-1],"loss_changes":[2.752157E2,8.416625E1,4.1237213E1,2.5066412E1,2.383416E1,3.7406769E0,0E0,7.640419E0,3.9190645E0,2.1010323E0,3.6421356E0,0E0,0E0,0E0,7.140579E-1,5.8884907E-1,4.5045146E-1,5.612974E-1,2.807846E-1,1.9369888E-1,0E0,0E0,0E0,0E0,0E0,0E0,0E0,0E0,0E0,0E0,0E0,0E0,0E0],"parents":[2147483647,0,0,1,1,2,2,3,3,4,4,5,5,7,7,8,8,9,9,10,10,14,14,15,15,16,16,17,17,18,18,19,19],"right_children":[2,4,6,8,10,12,-1,14,16,18,20,-1,-1,-1,22,24,26,28,30,32,-1,-1,-1,-1,-1,-1,-1,-1,-1,-1,-1,-1,-1],"split_conditions":[4.0812394E5,1.2521892E5,1.495603E6,6.36236E4,1.9591366E5,7.211365E5,-4.9416745E-1,2.8856258E4,9.341754E4,1.554321E5,2.7522056E5,-2.097541E-1,-3.0524498E-1,3.1971514E-1,4.4608523E4,7.901874E4,1.0869503E5,1.43167E5,1.6980395E5,6.4815536E7,-1.4396977E-1,1.6185673E-1,1.0128242E-1,6.272651E-2,3.5222042E-2,1.2562459E-2,-5.2406685E-3,-2.2408566E-2,-3.8671754E-2,-4.767756E-2,-6.4271495E-2,-1.045407E-1,-8.4181435E-2],"split_indices":[0,0,0,0,0,0,0,0,0,0,0,0,0,0,0,0,0,0,0,1,0,0,0,0,0,0,0,0,0,0,0,0,0],"split_type":[0,0,0,0,0,0,0,0,0,0,0,0,0,0,0,0,0,0,0,0,0,0,0,0,0,0,0,0,0,0,0,0,0],"sum_hessian":[1.07E3,9.64E2,1.06E2,3.2E2,6.44E2,7.8E1,2.8E1,5.2E1,2.68E2,4.35E2,2.09E2,5E1,2.8E1,6E0,4.6E1,1.05E2,1.63E2,2.71E2,1.64E2,1.38E2,7.1E1,1.2E1,3.4E1,4E1,6.5E1,8.6E1,7.7E1,1.07E2,1.64E2,7.5E1,8.9E1,6.3E1,7.5E1],"tree_param":{"num_deleted":"0","num_feature":"14","num_nodes":"33","size_leaf_vector":"0"}},{"base_weights":[-2.837565E-1,-1.14907235E-1,-1.3527336E0,2.8050354E-1,-2.559985E-1,-1.0995958E0,-2.533937E0,1.1411289E0,2.0690893E-1,-1.570551E-1,-4.5276245E-1,-8.7025356E-1,-1.4350348E0,-2.0278442E0,-3.0902915E0,1.6962653E0,8.2170403E-1,4.0480265E-1,1.117586E-1,-5.9544656E-2,-2.0465975E-1,-3.6659157E-1,-5.328017E-1,4.973903E-1,3.1133163E-1,1.6473578E-1,5.071904E-2,-2.5653971E-2,-9.446262E-2,-2.2631519E-1,-1.5913007E-1,-4.1737977E-1,-3.164544E-1,-5.8683765E-1,-4.4693944E-1],"categories":[],"categories_nodes":[],"categories_segments":[],"categories_sizes":[],"default_left":[true,true,true,true,true,true,true,true,true,true,true,false,false,false,false,false,false,true,true,true,true,true,true,false,false,false,false,false,false,false,false,false,false,false,false],"id":3,"left_children":[1,3,5,7,9,11,13,15,17,19,21,-1,-1,-1,-1,-1,-1,23,25,27,29,31,33,-1,-1,-1,-1,-1,-1,-1,-1,-1,-1,-1,-1],"loss_changes":[1.9315578E2,5.1732426E1,4.0868774E1,1.5218212E1,1.3225872E1,8.136658E0,7.7253723E-1,1.9753342E0,4.2102613E0,2.1045427E0,1.3772087E0,0E0,0E0,0E0,0E0,0E0,0E0,4.7690773E-1,4.8963523E-1,1.7626911E-1,2.6569176E-1,1.5565872E-1,2.7591705E-1,0E0,0E0,0E0,0E0,0E0,0E0,0E0,0E0,0E0,0E0,0E0,0E0],"parents":[2147483647,0,0,1,1,2,2,3,3,4,4,5,5,6,6,7,7,8,8,9,9,10,10,17,17,18,18,19,19,20,20,21,21,22,22],"right_children":[2,4,6,8,10,12,14,16,18,20,22,-1,-1,-1,-1,-1,-1,24,26,28,30,32,34,-1,-1,-1,-1,-1,-1,-1,-1,-1,-1,-1,-1],"split_conditions":[3.2181806E5,1.0869503E5,1.7089375E6,4.4608523E4,1.7880672E5,5.9155906E5,4.1206685E6,2.0481648E4,7.848844E4,1.3739762E5,2.2169856E5,-1.4794311E-1,-2.4395591E-1,-3.447335E-1,-5.2534956E-1,2.8836513E-1,1.3968968E-1,6.36236E4,9.5581875E4,1.2521892E5,1.7812277E-1,6.0391264E7,3.4760851E-3,8.455635E-2,5.2926376E-2,2.8005082E-2,8.6222375E-3,-4.361175E-3,-1.6058646E-2,-3.8473584E-2,-2.7052112E-2,-7.095456E-2,-5.379725E-2,-9.97624E-2,-7.59797E-2],"split_indices":[0,0,0,0,0,0,0,0,0,0,0,0,0,0,0,0,0,0,0,0,5,1,7,0,0,0,0,0,0,0,0,0,0,0,0],"split_type":[0,0,0,0,0,0,0,0,0,0,0,0,0,0,0,0,0,0,0,0,0,0,0,0,0,0,0,0,0,0,0,0,0,0,0],"sum_hessian":[1.07E3,9.25E2,1.45E2,2.43E2,6.82E2,1.21E2,2.4E1,1.8E1,2.25E2,4.55E2,2.27E2,7.4E1,4.7E1,1.5E1,9E0,5E0,1.3E1,7.2E1,1.53E2,1.5E2,3.05E2,1.12E2,1.15E2,3.4E1,3.8E1,8.1E1,7.2E1,7.7E1,7.3E1,2.04E2,1.01E2,5.2E1,6E1,6.7E1,4.8E1],"tree_param":{"num_deleted":"0","num_feature":"14","num_nodes":"35","size_leaf_vector":"0"}},{"base_weights":[-2.364948E-1,-1.2560949E-1,-1.3876579E0,1.4986953E-1,-2.8421798E-1,-1.0998652E0,-2.137971E0,7.257007E-1,8.1235714E-2,-1.9183084E-1,-4.9925336E-1,-9.146775E-1,-1.3301417E0,-1.7286649E0,-2.6735525E0,1.455961E0,5.7093513E-1,2.2820134E-1,1.075103E-2,-1.4796564E-1,-2.6883996E-1,-4.180956E-1,-6.3715905E-1,7.1303093E-1,4.674768E-1,3.040886E-1,1.7188922E-1,7.132129E-2,-2.4878984E-2,-1.7266965E-1,-1.05784826E-1,-3.0441144E-1,-2.2373834E-1,-4.5489067E-1,-3.3313313E-1,-7.295204E-1,-5.4255474E-1],"categories":[],"categories_nodes":[],"categories_segments":[],"categories_sizes":[],"default_left":[true,true,true,true,true,true,true,true,true,true,true,false,false,false,false,false,true,true,true,true,true,true,true,false,false,false,false,false,false,false,false,false,false,false,false,false,false],"id":4,"left_children":[1,3,5,7,9,11,13,15,17,19,21,-1,-1,-1,-1,-1,23,25,27,29,31,33,35,-1,-1,-1,-1,-1,-1,-1,-1,-1,-1,-1,-1,-1,-1],"loss_changes":[1.3653569E2,4.277466E1,1.794638E1,1.408974E1,1.2241325E1,1.7684555E0,8.5874176E-1,3.4634686E0,3.3227303E0,1.4330368E0,1.815342E0,0E0,0E0,0E0,0E0,0E0,1.5180779E-1,3.921609E-1,4.7224444E-1,2.7350378E-1,1.8377209E-1,2.236042E-1,1.896267E-1,0E0,0E0,0E0,0E0,0E0,0E0,0E0,0E0,0E0,0E0,0E0,0E0,0E0,0E0],"parents":[2147483647,0,0,1,1,2,2,3,3,4,4,5,5,6,6,7,7,8,8,9,9,10,10,16,16,17,17,18,18,19,19,20,20,21,21,22,22],"right_children":[2,4,6,8,10,12,14,16,18,20,22,-1,-1,-1,-1,-1,24,26,28,30,32,34,36,-1,-1,-1,-1,-1,-1,-1,-1,-1,-1,-1,-1,-1,-1],"split_conditions":[4.543517E5,1.3259466E5,1.7089375E6,5.56654E4,2.1482644E5,8.0791644E5,4.438463E6,2.0481648E4,9.0461875E4,1.6400844E5,2.960778E5,-1.5549518E-1,-2.2612408E-1,-2.9387304E-1,-4.5450392E-1,2.4751337E-1,4.1943668E4,7.333111E4,1.0465739E5,4.527331E7,3.594237E-1,1.5291701E-1,6.4465492E7,1.2121526E-1,7.947105E-2,5.169506E-2,2.9221168E-2,1.212462E-2,-4.2294273E-3,-2.935384E-2,-1.798342E-2,-5.1749945E-2,-3.803552E-2,-7.733142E-2,-5.6632634E-2,-1.2401847E-1,-9.2234306E-2],"split_indices":[0,0,0,0,0,0,0,0,0,0,0,0,0,0,0,0,0,0,0,1,3,5,1,0,0,0,0,0,0,0,0,0,0,0,0,0,0],"split_type":[0,0,0,0,0,0,0,0,0,0,0,0,0,0,0,0,0,0,0,0,0,0,0,0,0,0,0,0,0,0,0,0,0,0,0,0,0],"sum_hessian":[1.07E3,9.77E2,9.3E1,3.57E2,6.2E2,6.9E1,2.4E1,3.7E1,3.2E2,4.35E2,1.85E2,4.1E1,2.8E1,1.6E1,8E0,5E0,3.2E1,1.03E2,2.17E2,2.79E2,1.56E2,1.19E2,6.6E1,1.1E1,2.1E1,4.2E1,6.1E1,8E1,1.37E2,1.74E2,1.05E2,8.4E1,7.2E1,8E1,3.9E1,3E1,3.6E1],"tree_param":{"num_deleted":"0","num_feature":"14","num_nodes":"37","size_leaf_vector":"0"}},{"base_weights":[-1.9729939E-1,-9.8828256E-2,-1.1119412E0,1.6508207E-1,-2.1195373E-1,-8.872155E-1,-1.8240598E0,7.5220084E-1,1.1188829E-1,-1.384457E-1,-3.933175E-1,-7.363074E-1,-1.1192157E0,-1.4999136E0,-2.3969991E0,1.2496998E0,5.5550635E-1,2.3792583E-1,4.243165E-2,-9.874904E-2,-2.0319949E-1,-3.228878E-1,-4.864354E-1,3.1751937E-1,1.8167618E-1,8.1902586E-2,6.360788E-3,-1.2803376E-1,-6.254458E-2,-2.3505148E-1,-1.6691703E-1,-3.6914742E-1,-2.6268056E-1,-5.275155E-1,-3.716722E-1],"categories":[],"categories_nodes":[],"categories_segments":[],"categories_sizes":[],"default_left":[true,true,true,true,true,true,true,true,true,true,true,false,false,false,false,false,false,true,true,true,true,true,true,false,false,false,false,false,false,false,false,false,false,false,false],"id":5,"left_children":[1,3,5,7,9,11,13,15,17,19,21,-1,-1,-1,-1,-1,-1,23,25,27,29,31,33,-1,-1,-1,-1,-1,-1,-1,-1,-1,-1,-1,-1],"loss_changes":[9.63506E1,2.8934612E1,1.5024933E1,9.004077E0,8.984436E0,2.0117836E0,8.618927E-1,1.6543102E0,2.336015E0,1.22406E0,1.1217976E0,0E0,0E0,0E0,0E0,0E0,0E0,3.6763954E-1,2.4721166E-1,3.121841E-1,1.7225313E-1,2.20541E-1,1.9052505E-1,0E0,0E0,0E0,0E0,0E0,0E0,0E0,0E0,0E0,0E0,0E0,0E0],"parents":[2147483647,0,0,1,1,2,2,3,3,4,4,5,5,6,6,7,7,8,8,9,9,10,10,17,17,18,18,19,19,20,20,21,21,22,22],"right_children":[2,4,6,8,10,12,14,16,18,20,22,-1,-1,-1,-1,-1,-1,24,26,28,30,32,34,-1,-1,-1,-1,-1,-1,-1,-1,-1,-1,-1,-1],"split_conditions":[4.1725956E5,1.19125484E5,1.7790298E6,4.7384297E4,2.0463448E5,8.0791644E5,5.782781E6,2.0481648E4,8.600272E4,1.554321E5,2.6836153E5,-1.2517226E-1,-1.9026667E-1,-2.549853E-1,-4.0748987E-1,2.1244897E-1,9.443608E-2,6.569525E4,1.0113915E5,3.78688E7,6.083155E7,3.7627777E-3,4.567397E-2,5.3978294E-2,3.0884951E-2,1.392344E-2,1.081334E-3,-2.1765739E-2,-1.0632578E-2,-3.9958753E-2,-2.8375894E-2,-6.275506E-2,-4.4655696E-2,-8.967763E-2,-6.3184276E-2],"split_indices":[0,0,0,0,0,0,0,0,0,0,0,0,0,0,0,0,0,0,0,1,1,7,2,0,0,0,0,0,0,0,0,0,0,0,0],"split_type":[0,0,0,0,0,0,0,0,0,0,0,0,0,0,0,0,0,0,0,0,0,0,0,0,0,0,0,0,0,0,0,0,0,0,0],"sum_hessian":[1.07E3,9.67E2,1.03E2,2.9E2,6.77E2,8E1,2.3E1,2.3E1,2.67E2,4.83E2,1.94E2,5.1E1,2.9E1,1.7E1,6E0,5E0,1.8E1,9.4E1,1.73E2,3.01E2,1.82E2,1.13E2,8.1E1,3.7E1,5.7E1,8.2E1,9.1E1,1.65E2,1.36E2,9.4E1,8.8E1,6.1E1,5.2E1,5.7E1,2.4E1],"tree_param":{"num_deleted":"0","num_feature":"14","num_nodes":"35","size_leaf_vector":"0"}},{"base_weights":[-1.6462886E-1,-8.751263E-2,-9.941497E-1,1.1322498E-1,-1.9561017E-1,-8.404884E-1,-1.779252E0,5.57381E-1,6.588404E-2,-1.4306597E-1,-3.8850805E-1,-6.70539E-1,-1.0407012E0,1.0726589E0,4.270578E-1,1.7310509E-1,1.6704757E-2,-1.0541131E-1,-2.1555683E-1,-3.2520556E-1,-4.6100777E-1,-7.4933964E-1,-5.107081E-1,5.417114E-1,3.442371E-1,2.1878618E-1,1.267169E-1,6.2455777E-2,-5.8126715E-3,-6.97028E-2,-1.2443072E-1,-2.5365013E-1,-1.7760965E-1,-3.552466E-1,-2.4971198E-1,-5.178879E-1,-3.5838488E-1],"categories":[],"categories_nodes":[],"categories_segments":[],"categories_sizes":[],"default_left":[true,true,true,true,true,true,false,true,true,true,true,true,false,false,true,true,true,true,true,true,true,false,false,false,false,false,false,false,false,false,false,false,false,false,false,false,false],"id":6,"left_children":[1,3,5,7,9,11,-1,13,15,17,19,21,-1,-1,23,25,27,29,31,33,35,-1,-1,-1,-1,-1,-1,-1,-1,-1,-1,-1,-1,-1,-1,-1,-1],"loss_changes":[6.842436E1,2.1309103E1,9.48278E0,7.196483E0,6.4109707E0,1.9561958E0,0E0,1.7579508E0,1.6423012E0,1.350276E0,4.7423935E-1,1.8407059E-1,0E0,0E0,7.940245E-2,1.7994428E-1,2.2185503E-1,2.1748543E-1,2.0213556E-1,8.365154E-2,1.7046642E-1,0E0,0E0,0E0,0E0,0E0,0E0,0E0,0E0,0E0,0E0,0E0,0E0,0E0,0E0,0E0,0E0],"parents":[2147483647,0,0,1,1,2,2,3,3,4,4,5,5,7,7,8,8,9,9,10,10,11,11,14,14,15,15,16,16,17,17,18,18,19,19,20,20],"right_children":[2,4,6,8,10,12,-1,14,16,18,20,22,-1,-1,24,26,28,30,32,34,36,-1,-1,-1,-1,-1,-1,-1,-1,-1,-1,-1,-1,-1,-1,-1,-1],"split_conditions":[4.675301E5,1.2924186E5,3.345651E6,5.3058938E4,2.3740758E5,9.144221E5,-3.0247286E-1,2.0481648E4,8.860633E4,1.7293366E5,3.0908678E5,2.1073202E8,-1.7691919E-1,1.8235202E-1,4.0043387E4,7.333111E4,1.0113915E5,1.4769134E5,6.376223E7,5.0302427E-2,7.839395E-3,-1.2738775E-1,-8.682038E-2,9.2090935E-2,5.8520306E-2,3.7193652E-2,2.1541873E-2,1.06174825E-2,-9.881542E-4,-1.1849475E-2,-2.1153223E-2,-4.3120522E-2,-3.0193642E-2,-6.039192E-2,-4.2451035E-2,-8.804094E-2,-6.092543E-2],"split_indices":[0,0,0,0,0,0,0,0,0,0,0,1,0,0,0,0,0,0,1,2,7,0,0,0,0,0,0,0,0,0,0,0,0,0,0,0,0],"split_type":[0,0,0,0,0,0,0,0,0,0,0,0,0,0,0,0,0,0,0,0,0,0,0,0,0,0,0,0,0,0,0,0,0,0,0,0,0],"sum_hessian":[1.07E3,9.8E2,9E1,3.43E2,6.37E2,7.7E1,1.3E1,3.2E1,3.11E2,5.02E2,1.35E2,4.4E1,3.3E1,5E0,2.7E1,9.7E1,2.14E2,3.32E2,1.7E2,7.5E1,6E1,2.7E1,1.7E1,9E0,1.8E1,4.7E1,5E1,7E1,1.44E2,1.17E2,2.15E2,8.2E1,8.8E1,5.1E1,2.4E1,3.6E1,2.4E1],"tree_param":{"num_deleted":"0","num_feature":"14","num_nodes":"37","size_leaf_vector":"0"}},{"base_weights":[-1.3724925E-1,-6.1890464E-2,-7.339518E-1,1.3472192E-1,-1.3401511E-1,-5.6571937E-1,-1.2423462E0,7.1859086E-1,1.03062004E-1,-7.821272E-2,-2.4130538E-1,-4.2821324E-1,-6.632584E-1,-1.0349331E0,-1.8649406E0,9.7439826E-1,4.966322E-1,2.0858E-1,5.127715E-2,-3.7774604E-2,-1.05279185E-1,-1.9749671E-1,-3.0404845E-1,-4.879609E-1,-3.480745E-1,-7.2774124E-1,-4.726882E-1,2.6588696E-1,1.5040019E-1,8.4375374E-2,2.8359389E-2,-1.1508184E-2,-7.7373676E-2,-1.409819E-1,-9.1185756E-2,-1.588324E-1,-2.3140219E-1,-3.3941883E-1,-2.356695E-1,-3.7989357E-1,-1.702747E-1],"categories":[],"categories_nodes":[],"categories_segments":[],"categories_sizes":[],"default_left":[true,true,true,true,true,true,true,true,true,true,true,true,true,false,false,false,false,true,true,true,true,true,true,false,true,false,false,false,false,false,false,false,false,false,false,false,false,false,false,false,false],"id":7,"left_children":[1,3,5,7,9,11,13,15,17,19,21,23,25,-1,-1,-1,-1,27,29,31,33,35,37,-1,39,-1,-1,-1,-1,-1,-1,-1,-1,-1,-1,-1,-1,-1,-1,-1,-1],"loss_changes":[4.8114E1,1.3517985E1,9.560585E0,4.658162E0,4.1541014E0,9.499073E-1,1.8148041E0,2.5420523E-1,1.3225777E0,4.99501E-1,5.941391E-1,2.6465416E-2,2.950077E-1,0E0,0E0,0E0,0E0,2.2673917E-1,1.2276581E-1,1.9257298E-1,1.2551713E-1,1.5070915E-1,1.5219498E-1,0E0,5.4119587E-2,0E0,0E0,0E0,0E0,0E0,0E0,0E0,0E0,0E0,0E0,0E0,0E0,0E0,0E0,0E0,0E0],"parents":[2147483647,0,0,1,1,2,2,3,3,4,4,5,5,6,6,7,7,8,8,9,9,10,10,11,11,12,12,17,17,18,18,19,19,20,20,21,21,22,22,24,24],"right_children":[2,4,6,8,10,12,14,16,18,20,22,24,26,-1,-1,-1,-1,28,30,32,34,36,38,-1,40,-1,-1,-1,-1,-1,-1,-1,-1,-1,-1,-1,-1,-1,-1,-1,-1],"split_conditions":[3.7321275E5,1.10648484E5,1.495603E6,3.764732E4,1.842478E5,5.413398E5,7.430102E6,1.1287922E4,7.882333E4,1.4583362E5,2.4188195E5,8.146258E-3,9.788519E-2,-1.7593862E-1,-3.170399E-1,1.656477E-1,8.4427476E-2,6.3110785E4,9.341754E4,2.1348819E-1,3.749114E7,1.9474527E-1,1.0586614E-2,-8.2953356E-2,8.7136135E-2,-1.2371601E-1,-8.035699E-2,4.5200784E-2,2.5568033E-2,1.4343814E-2,4.821096E-3,-1.9563911E-3,-1.3153525E-2,-2.3966923E-2,-1.5501578E-2,-2.7001508E-2,-3.9338373E-2,-5.77012E-2,-4.0063813E-2,-6.458191E-2,-2.89467E-2],"split_indices":[0,0,0,0,0,0,0,0,0,0,0,7,7,0,0,0,0,0,0,11,1,11,7,0,2,0,0,0,0,0,0,0,0,0,0,0,0,0,0,0,0],"split_type":[0,0,0,0,0,0,0,0,0,0,0,0,0,0,0,0,0,0,0,0,0,0,0,0,0,0,0,0,0,0,0,0,0,0,0,0,0,0,0,0,0],"sum_hessian":[1.07E3,9.51E2,1.19E2,2.55E2,6.96E2,9.1E1,2.8E1,1.2E1,2.43E2,4.59E2,2.37E2,4E1,5.1E1,2.3E1,5E0,4E0,8E0,7.9E1,1.64E2,1.85E2,2.74E2,1.42E2,9.5E1,2E1,2E1,3.6E1,1.5E1,3.8E1,4.1E1,6.6E1,9.8E1,1.12E2,7.3E1,7.5E1,1.99E2,6.9E1,7.3E1,6E1,3.5E1,1.6E1,4E0],"tree_param":{"num_deleted":"0","num_feature":"14","num_nodes":"41","size_leaf_vector":"0"}},{"base_weights":[-1.1461922E-1,-6.019394E-2,-7.0007604E-1,7.648416E-2,-1.3851216E-1,-5.898563E-1,-1.3160208E0,5.789384E-1,5.435248E-2,-8.8668145E-2,-2.377739E-1,-4.6889976E-1,-7.442534E-1,8.418801E-1,4.067887E-1,1.50139E-1,1.2791689E-2,-6.956011E-2,-1.20849006E-1,-2.0002583E-1,-3.2546148E-1,-5.142964E-1,-3.3776712E-1,2.2145633E-1,1.1536663E-1,3.926002E-2,-1.0110194E-2,-5.784577E-2,-1.1203756E-1,-1.382138E-1,-8.196595E-2,-2.4446867E-1,-1.6694582E-1,-3.7217134E-1,-2.482685E-1],"categories":[],"categories_nodes":[],"categories_segments":[],"categories_sizes":[],"default_left":[true,true,true,true,true,true,false,true,true,true,true,true,false,false,false,true,true,true,true,true,true,false,false,false,false,false,false,false,false,false,false,false,false,false,false],"id":8,"left_children":[1,3,5,7,9,11,-1,13,15,17,19,21,-1,-1,-1,23,25,27,29,31,33,-1,-1,-1,-1,-1,-1,-1,-1,-1,-1,-1,-1,-1,-1],"loss_changes":[3.4083824E1,1.0511596E1,5.401661E0,3.9495494E0,3.0662222E0,1.1263714E0,0E0,3.3651257E-1,1.367531E0,2.4801254E-1,6.233864E-1,1.060791E-1,0E0,0E0,0E0,2.3235798E-1,1.46485E-1,1.2488425E-1,9.265113E-2,1.7677212E-1,1.2754774E-1,0E0,0E0,0E0,0E0,0E0,0E0,0E0,0E0,0E0,0E0,0E0,0E0,0E0,0E0],"parents":[2147483647,0,0,1,1,2,2,3,3,4,4,5,5,7,7,8,8,9,9,10,10,11,11,15,15,16,16,17,17,18,18,19,19,20,20],"right_children":[2,4,6,8,10,12,-1,14,16,18,20,22,-1,-1,-1,24,26,28,30,32,34,-1,-1,-1,-1,-1,-1,-1,-1,-1,-1,-1,-1,-1,-1],"split_conditions":[4.675301E5,1.3259466E5,3.6227182E6,4.0043387E4,2.0463448E5,1.0034779E6,-2.2372355E-1,1.1287922E4,8.600272E4,1.6139302E5,3.0908678E5,6.552141E8,-1.2652308E-1,1.4311962E-1,6.9154084E-2,5.9766594E4,1.0552225E5,2.2881478E-1,1.8250193E-1,9.670644E-2,1.1841064E8,-8.743039E-2,-5.742041E-2,3.764758E-2,1.9612327E-2,6.674203E-3,-1.718733E-3,-9.833781E-3,-1.9046385E-2,-2.3496347E-2,-1.3934212E-2,-4.1559674E-2,-2.8380789E-2,-6.326913E-2,-4.2205647E-2],"split_indices":[0,0,0,0,0,0,0,0,0,0,0,1,0,0,0,0,0,11,5,12,1,0,0,0,0,0,0,0,0,0,0,0,0,0,0],"split_type":[0,0,0,0,0,0,0,0,0,0,0,0,0,0,0,0,0,0,0,0,0,0,0,0,0,0,0,0,0,0,0,0,0,0,0],"sum_hessian":[1.07E3,9.8E2,9E1,3.57E2,6.23E2,7.8E1,1.2E1,1.4E1,3.43E2,4.16E2,2.07E2,4.6E1,3.2E1,4E0,1E1,1.03E2,2.4E2,2.63E2,1.53E2,1.47E2,6E1,3.2E1,1.4E1,3.2E1,7.1E1,1.11E2,1.29E2,2.08E2,5.5E1,1.04E2,4.9E1,6E1,8.7E1,3.5E1,2.5E1],"tree_param":{"num_deleted":"0","num_feature":"14","num_nodes":"35","size_leaf_vector":"0"}},{"base_weights":[-9.556563E-2,-3.9868515E-2,-4.9842042E-1,9.535184E-2,-9.019827E-2,-3.9304328E-1,-9.252827E-1,5.5052364E-1,7.2668515E-2,-5.3856358E-2,-1.6312405E-1,-3.2600844E-1,-5.3145343E-1,-7.323121E-1,-1.4143043E0,7.2738445E-1,3.7117016E-1,1.6825086E-1,4.279381E-2,-2.7066208E-2,-7.5287394E-2,-1.3436586E-1,-2.0342505E-1,-3.98249E-1,-2.7060342E-1,-5.669431E-1,-3.1864277E-1,1.8564074E-1,-1.3401449E-2,6.8195455E-2,1.926915E-2,-7.172511E-3,-5.767781E-2,-8.164427E-2,-2.2932282E-2,-1.6019939E-1,-1.00948416E-1,-2.2835343E-1,-1.434637E-1,-2.9744953E-1,-1.6058367E-1,-5.7679427E-1,-1.5540636E-1],"categories":[],"categories_nodes":[],"categories_segments":[],"categories_sizes":[],"default_left":[true,true,true,true,true,true,true,true,true,true,true,true,true,false,false,false,false,true,true,true,true,true,true,false,true,true,false,false,false,false,false,false,false,false,false,false,false,false,false,false,false,false,false],"id":9,"left_children":[1,3,5,7,9,11,13,15,17,19,21,23,25,-1,-1,-1,-1,27,29,31,33,35,37,-1,39,41,-1,-1,-1,-1,-1,-1,-1,-1,-1,-1,-1,-1,-1,-1,-1,-1,-1],"loss_changes":[2.4011066E1,6.419482E0,5.483921E0,2.603145E0,1.8119454E0,8.102417E-1,1.3234577E0,1.1066389E-1,6.9239604E-1,2.6206708E-1,2.3691511E-1,1.8841648E-1,6.8582535E-2,0E0,0E0,0E0,0E0,1.8570471E-1,1.11028165E-1,1.2503575E-1,8.2995534E-2,1.0123563E-1,1.0625005E-1,0E0,8.5146666E-2,1.9824982E-2,0E0,0E0,0E0,0E0,0E0,0E0,0E0,0E0,0E0,0E0,0E0,0E0,0E0,0E0,0E0,0E0,0E0],"parents":[2147483647,0,0,1,1,2,2,3,3,4,4,5,5,6,6,7,7,8,8,9,9,10,10,11,11,12,12,17,17,18,18,19,19,20,20,21,21,22,22,24,24,25,25],"right_children":[2,4,6,8,10,12,14,16,18,20,22,24,26,-1,-1,-1,-1,28,30,32,34,36,38,-1,40,42,-1,-1,-1,-1,-1,-1,-1,-1,-1,-1,-1,-1,-1,-1,-1,-1,-1],"split_conditions":[3.5440012E5,1.10648484E5,1.7089375E6,3.5972336E4,1.842478E5,7.211365E5,7.430102E6,1.1287922E4,6.811784E4,1.4769134E5,2.3949914E5,3.663637E7,1.3671677E-1,-1.24493055E-1,-2.4043173E-1,1.2365536E-1,6.309893E-2,2.1776003E-1,9.341754E4,2.1348819E-1,2.3694165E-1,7.969595E7,1.5215605E-1,-6.770233E-2,1.1620538E-1,1.8713798E-1,-5.416927E-2,3.1558927E-2,-2.2782462E-3,1.1593227E-2,3.2757556E-3,-1.2193269E-3,-9.805228E-3,-1.38795255E-2,-3.898488E-3,-2.7233897E-2,-1.7161231E-2,-3.8820084E-2,-2.438883E-2,-5.056642E-2,-2.7299225E-2,-9.805503E-2,-2.641908E-2],"split_indices":[0,0,0,0,0,0,0,0,0,0,0,1,7,0,0,0,0,12,0,11,5,1,5,0,12,2,0,0,0,0,0,0,0,0,0,0,0,0,0,0,0,0,0],"split_type":[0,0,0,0,0,0,0,0,0,0,0,0,0,0,0,0,0,0,0,0,0,0,0,0,0,0,0,0,0,0,0,0,0,0,0,0,0,0,0,0,0,0,0],"sum_hessian":[1.07E3,9.41E2,1.29E2,2.55E2,6.86E2,1.05E2,2.4E1,1.1E1,2.44E2,4.59E2,2.27E2,7.3E1,3.2E1,1.9E1,5E0,4E0,7E0,5.7E1,1.87E2,2.05E2,2.54E2,1.35E2,9.2E1,2.9E1,4.4E1,2.6E1,6E0,5.2E1,5E0,8.9E1,9.8E1,1.25E2,8E1,2.26E2,2.8E1,7.4E1,6.1E1,6.3E1,2.9E1,3.4E1,1E1,2.5E1,1E0],"tree_param":{"num_deleted":"0","num_feature":"14","num_nodes":"43","size_leaf_vector":"0"}},{"base_weights":[-7.987469E-2,-4.1234236E-2,-4.9554953E-1,6.342277E-2,-9.176144E-2,-4.3105856E-1,-1.1107614E0,4.724975E-1,4.7331125E-2,-6.587895E-2,-1.8779558E-1,-3.3006135E-1,-5.446325E-1,6.2846017E-1,3.1595862E-1,1.23723365E-1,1.9649126E-2,-4.750697E-2,-1.00623846E-1,-2.1909691E-1,-1.4366604E-1,-3.6188275E-1,-2.3805018E-1,-5.8910847E-1,-3.9917547E-1,1.6191128E-1,7.524497E-2,3.7495747E-2,-7.140399E-3,-5.7294194E-2,-1.3395481E-2,-1.152097E-1,-5.689772E-2,-1.8513142E-1,-2.8641573E-1,-1.8073797E-1,-1.01959735E-1,-3.7460622E-1,-1.7598602E-1,-5.996173E-1,-1.5793914E-1],"categories":[],"categories_nodes":[],"categories_segments":[],"categories_sizes":[],"default_left":[true,true,true,true,true,true,false,true,true,true,true,true,true,false,false,true,true,true,true,true,true,true,false,true,false,false,false,false,false,false,false,false,false,false,false,false,false,false,false,false,false],"id":10,"left_children":[1,3,5,7,9,11,-1,13,15,17,19,21,23,-1,-1,25,27,29,31,33,35,37,-1,39,-1,-1,-1,-1,-1,-1,-1,-1,-1,-1,-1,-1,-1,-1,-1,-1,-1],"loss_changes":[1.7181824E1,5.1933727E0,3.1316776E0,2.084096E0,1.6330972E0,7.8377247E-1,0E0,9.440327E-2,6.5100807E-1,3.290677E-1,1.6190672E-1,5.146599E-2,1.0677338E-2,0E0,0E0,1.3962257E-1,1.0927512E-1,1.140793E-1,1.0824573E-1,1.2989688E-1,7.588613E-2,1.2127876E-2,0E0,2.7636528E-2,0E0,0E0,0E0,0E0,0E0,0E0,0E0,0E0,0E0,0E0,0E0,0E0,0E0,0E0,0E0,0E0,0E0],"parents":[2147483647,0,0,1,1,2,2,3,3,4,4,5,5,7,7,8,8,9,9,10,10,11,11,12,12,15,15,16,16,17,17,18,18,19,19,20,20,21,21,23,23],"right_children":[2,4,6,8,10,12,-1,14,16,18,20,22,24,-1,-1,26,28,30,32,34,36,38,-1,40,-1,-1,-1,-1,-1,-1,-1,-1,-1,-1,-1,-1,-1,-1,-1,-1,-1],"split_conditions":[4.675301E5,1.2516808E5,4.936938E6,3.5972336E4,2.3557486E5,1.0034779E6,-1.8882944E-1,1.1287922E4,7.901874E4,1.6872319E5,5.8636772E-3,6.552141E8,6.956437E-2,1.0683823E-1,5.3712964E-2,8.3774656E-2,2.1871933E-1,4.620602E-1,1.8250193E-1,3.3877344E5,3.240428E-2,1.8494582E-1,-4.046853E-2,1.4011742E-1,-6.785983E-2,2.7524918E-2,1.2791645E-2,6.374277E-3,-1.2138678E-3,-9.740013E-3,-2.2772318E-3,-1.9585649E-2,-9.672612E-3,-3.147234E-2,-4.8690673E-2,-3.0725455E-2,-1.7333155E-2,-6.3683055E-2,-2.9917624E-2,-1.0193494E-1,-2.6849654E-2],"split_indices":[0,0,0,0,0,0,0,0,0,0,7,1,3,0,0,5,11,3,5,0,2,2,0,2,0,0,0,0,0,0,0,0,0,0,0,0,0,0,0,0,0],"split_type":[0,0,0,0,0,0,0,0,0,0,0,0,0,0,0,0,0,0,0,0,0,0,0,0,0,0,0,0,0,0,0,0,0,0,0,0,0,0,0,0,0],"sum_hessian":[1.07E3,9.8E2,9E1,3.19E2,6.61E2,8.3E1,7E0,1.1E1,3.08E2,5.22E2,1.39E2,4.6E1,3.7E1,4E0,7E0,8.1E1,2.27E2,3.43E2,1.79E2,7.9E1,6E1,3.2E1,1.4E1,2.6E1,1.1E1,4.4E1,3.7E1,1.36E2,9.1E1,2.66E2,7.7E1,1.33E2,4.6E1,5.5E1,2.4E1,3E1,3E1,2.9E1,3E0,2.5E1,1E0],"tree_param":{"num_deleted":"0","num_feature":"14","num_nodes":"41","size_leaf_vector":"0"}},{"base_weights":[-6.674699E-2,-3.6383267E-2,-4.4242278E-1,3.848071E-2,-8.788587E-2,-3.873907E-1,-1.0565864E0,2.6353472E-1,1.9121865E-2,-6.375593E-2,-1.6838297E-1,-4.5763817E-1,-2.7869445E-1,4.9254143E-1,1.917431E-1,5.7311483E-2,-5.5842563E-3,-4.5680944E-2,-9.178468E-2,-2.0672408E-1,-1.3495377E-1,-3.7682676E-1,-5.282018E-1,-3.172435E-1,-2.0647116E-1,1.989977E-1,5.189121E-3,1.35546215E-2,7.3542506E-2,-4.9680833E-2,5.530644E-3,-5.153544E-2,6.3640266E-3,-7.126966E-2,-1.19376265E-1,-2.1055938E-1,-9.943095E-2,-1.3861875E-1,6.8127885E-2],"categories":[],"categories_nodes":[],"categories_segments":[],"categories_sizes":[],"default_left":[true,true,true,true,true,true,false,true,true,true,true,true,true,false,true,true,true,true,true,true,true,false,false,false,false,false,false,false,false,false,false,false,false,false,false,false,false,false,false],"id":11,"left_children":[1,3,5,7,9,11,-1,13,15,17,19,21,23,-1,25,27,29,31,33,35,37,-1,-1,-1,-1,-1,-1,-1,-1,-1,-1,-1,-1,-1,-1,-1,-1,-1,-1],"loss_changes":[1.2200708E1,3.828226E0,2.2945843E0,1.7594589E0,1.1313901E0,4.451313E-1,0E0,4.3166304E-1,3.5319552E-1,2.258122E-1,1.4513302E-1,5.1862717E-2,2.3590803E-2,0E0,3.415513E-2,1.034053E-1,1.12024195E-1,8.5033715E-2,9.16816E-2,4.165411E-3,6.5265775E-2,0E0,0E0,0E0,0E0,0E0,0E0,0E0,0E0,0E0,0E0,0E0,0E0,0E0,0E0,0E0,0E0,0E0,0E0],"parents":[2147483647,0,0,1,1,2,2,3,3,4,4,5,5,7,7,8,8,9,9,10,10,11,11,12,12,14,14,15,15,16,16,17,17,18,18,19,19,20,20],"right_children":[2,4,6,8,10,12,-1,14,16,18,20,22,24,-1,26,28,30,32,34,36,38,-1,-1,-1,-1,-1,-1,-1,-1,-1,-1,-1,-1,-1,-1,-1,-1,-1,-1],"split_conditions":[5.413398E5,1.391979E5,7.430102E6,5.2289523E4,2.4199562E5,7.22705E-2,-1.7961968E-1,2.8856258E4,9.7395086E4,1.9514346E-1,8.4663495E-2,1.3038245E6,9.356727E-2,8.3732046E-2,1.6699761E-1,2.504978E-1,2.0280802E-1,6.800769E-2,1.8476181E5,3.6513597E-1,5.6802326E-1,-6.4060554E-2,-8.979431E-2,-5.3931393E-2,-3.51001E-2,3.382961E-2,8.8215055E-4,2.3042858E-3,1.2502226E-2,-8.445742E-3,9.4020955E-4,-8.761025E-3,1.0818845E-3,-1.2115843E-2,-2.0293966E-2,-3.5795096E-2,-1.690326E-2,-2.3565188E-2,1.158174E-2],"split_indices":[0,0,0,0,0,3,0,0,0,11,5,0,7,0,2,6,3,2,0,3,3,0,0,0,0,0,0,0,0,0,0,0,0,0,0,0,0,0,0],"split_type":[0,0,0,0,0,0,0,0,0,0,0,0,0,0,0,0,0,0,0,0,0,0,0,0,0,0,0,0,0,0,0,0,0,0,0,0,0,0,0],"sum_hessian":[1.07E3,9.91E2,7.9E1,4.04E2,5.87E2,7.4E1,5E0,3.1E1,3.73E2,4.53E2,1.34E2,4.3E1,3.1E1,6E0,2.5E1,1.46E2,2.27E2,2.77E2,1.76E2,6E1,7.4E1,2.3E1,2E1,1.8E1,1.3E1,2.4E1,1E0,4E1,1.06E2,4.5E1,1.82E2,2.49E2,2.8E1,1.03E2,7.3E1,5.7E1,3E0,7.3E1,1E0],"tree_param":{"num_deleted":"0","num_feature":"14","num_nodes":"39","size_leaf_vector":"0"}},{"base_weights":[-5.5774912E-2,-2.0173464E-2,-2.8481916E-1,1.0325882E-1,-3.9338715E-2,-2.5591755E-1,-9.0690327E-1,3.6281225E-1,7.753407E-2,-1.2250932E-2,-7.5525135E-2,-1.9207484E-1,-3.808153E-1,4.760039E-1,2.3013075E-1,1.3957876E-1,6.0505737E-2,-4.0294245E-2,-6.359537E-4,-1.0341323E-1,-5.8520094E-2,-2.3526159E-1,-1.5991393E-1,-4.1607037E-1,-2.8021684E-1,1.4523453E-1,4.7480464E-3,6.4166695E-2,-1.3632074E-1,-2.5217641E-2,-1.2093782E-1,1.5628535E-2,-1.5934283E-2,-8.1855685E-2,-1.3278149E-1,-1.10009976E-1,-4.470867E-2,-1.8657273E-1,-1.2338293E-1,-2.887196E-1,-8.0589175E-2],"categories":[],"categories_nodes":[],"categories_segments":[],"categories_sizes":[],"default_left":[true,true,true,true,true,true,false,true,true,true,true,true,true,false,false,true,true,true,true,true,true,false,true,false,true,false,false,false,false,false,false,false,false,false,false,false,false,false,false,false,false],"id":12,"left_children":[1,3,5,7,9,11,-1,13,15,17,19,21,23,-1,-1,25,27,29,31,33,35,-1,37,-1,39,-1,-1,-1,-1,-1,-1,-1,-1,-1,-1,-1,-1,-1,-1,-1,-1],"loss_changes":[8.727516E0,2.199349E0,2.3569174E0,8.0648804E-1,7.871634E-1,1.0352144E0,0E0,5.565965E-2,1.13054276E-1,1.5013243E-1,1.5708613E-1,9.293723E-2,4.655361E-2,0E0,0E0,1.761213E-2,7.504001E-2,1.6108745E-1,8.161302E-2,7.080209E-2,1.4868969E-1,0E0,3.249085E-2,0E0,2.1930933E-3,0E0,0E0,0E0,0E0,0E0,0E0,0E0,0E0,0E0,0E0,0E0,0E0,0E0,0E0,0E0,0E0],"parents":[2147483647,0,0,1,1,2,2,3,3,4,4,5,5,7,7,8,8,9,9,10,10,11,11,12,12,15,15,16,16,17,17,18,18,19,19,20,20,22,22,24,24],"right_children":[2,4,6,8,10,12,-1,14,16,18,20,22,24,-1,-1,26,28,30,32,34,36,-1,38,-1,40,-1,-1,-1,-1,-1,-1,-1,-1,-1,-1,-1,-1,-1,-1,-1,-1],"split_conditions":[3.2719878E5,8.7401375E4,7.430102E6,3.4616586E4,1.5402978E5,8.299315E5,-1.5417355E-1,1.1287922E4,5.3672336E4,1.4233686E-1,9.545234E-2,3.663637E7,6.956437E-2,8.092066E-2,3.9122228E-2,1.5459786E-1,3.471227E-1,9.579946E-2,1.2360074E5,2.2384356E5,3.0539978E-1,-3.999447E-2,3.1409495E-2,-7.073196E-2,6.4338684E-2,2.468987E-2,8.071679E-4,1.0908338E-2,-2.3174526E-2,-4.286999E-3,-2.0559428E-2,2.656851E-3,-2.708828E-3,-1.3915466E-2,-2.2572855E-2,-1.8701697E-2,-7.6004737E-3,-3.1717364E-2,-2.0975098E-2,-4.908233E-2,-1.370016E-2],"split_indices":[0,0,0,0,0,0,0,0,0,3,12,1,3,0,0,2,12,3,0,0,6,0,2,0,2,0,0,0,0,0,0,0,0,0,0,0,0,0,0,0,0],"split_type":[0,0,0,0,0,0,0,0,0,0,0,0,0,0,0,0,0,0,0,0,0,0,0,0,0,0,0,0,0,0,0,0,0,0,0,0,0,0,0,0,0],"sum_hessian":[1.07E3,9.27E2,1.43E2,1.24E2,8.03E2,1.38E2,5E0,1E1,1.14E2,4.6E2,3.43E2,9.3E1,4.5E1,4E0,6E0,2.3E1,9.1E1,1.34E2,3.26E2,1.28E2,2.15E2,3.7E1,5.6E1,3.1E1,1.4E1,2.2E1,1E0,9E1,1E0,1.14E2,2E1,1.58E2,1.68E2,7.6E1,5.2E1,4.4E1,1.71E2,3E1,2.6E1,1.3E1,1E0],"tree_param":{"num_deleted":"0","num_feature":"14","num_nodes":"41","size_leaf_vector":"0"}},{"base_weights":[-4.660578E-2,-2.3338152E-2,-2.969238E-1,4.7652133E-2,-4.967904E-2,-2.623743E-1,-8.3869994E-1,3.0099827E-1,3.554309E-2,-2.979219E-2,-9.8105624E-2,-1.9377051E-1,-3.3461833E-1,4.1126734E-1,1.9445534E-1,8.103632E-2,1.754822E-2,-3.6889378E-2,5.0572627E-3,-1.2465764E-1,-7.2366185E-2,-2.1741903E-1,-1.4359128E-1,-3.391279E-1,-7.711804E-2,1.1268711E-1,4.9751747E-2,2.489879E-2,-4.0691853E-2,-2.3321604E-2,-4.89532E-2,-1.2894053E-2,5.2716717E-2,-1.329831E-1,-5.1828537E-2,-9.57812E-2,-3.0166138E-2,-2.4368261E-1,-1.4990169E-1,-1.5044095E-1,-5.9195995E-2,-3.651525E-1,-2.4797441E-1],"categories":[],"categories_nodes":[],"categories_segments":[],"categories_sizes":[],"default_left":[true,true,true,true,true,true,false,true,true,true,true,true,true,false,false,true,true,true,true,true,true,true,true,true,false,false,false,false,false,false,false,false,false,false,false,false,false,false,false,false,false,false,false],"id":13,"left_children":[1,3,5,7,9,11,-1,13,15,17,19,21,23,-1,-1,25,27,29,31,33,35,37,39,41,-1,-1,-1,-1,-1,-1,-1,-1,-1,-1,-1,-1,-1,-1,-1,-1,-1,-1,-1],"loss_changes":[6.2309036E0,1.8367856E0,1.4832916E0,8.0533093E-1,6.866226E-1,3.663516E-1,0E0,6.100762E-2,2.073324E-1,1.2607911E-1,1.3313317E-1,2.4553776E-2,2.1456718E-2,0E0,0E0,6.568667E-2,7.978316E-2,6.809461E-2,7.5112574E-2,5.4347634E-2,1.0382706E-1,1.6668916E-2,1.4999211E-3,4.3406487E-3,0E0,0E0,0E0,0E0,0E0,0E0,0E0,0E0,0E0,0E0,0E0,0E0,0E0,0E0,0E0,0E0,0E0,0E0,0E0],"parents":[2147483647,0,0,1,1,2,2,3,3,4,4,5,5,7,7,8,8,9,9,10,10,11,11,12,12,15,15,16,16,17,17,18,18,19,19,20,20,21,21,22,22,23,23],"right_children":[2,4,6,8,10,12,-1,14,16,18,20,22,24,-1,-1,26,28,30,32,34,36,38,40,42,-1,-1,-1,-1,-1,-1,-1,-1,-1,-1,-1,-1,-1,-1,-1,-1,-1,-1,-1],"split_conditions":[4.675301E5,1.1314286E5,8.951806E6,3.5972336E4,2.0463448E5,1.0034779E6,-1.4257899E-1,1.1287922E4,8.0423556E-2,4.9640214E-1,7.505472E-4,2.1073202E8,1.4011742E-1,6.991545E-2,3.3057407E-2,6.9235766E4,3.0366045E-1,1.8027218E-1,4.859567E-2,3.609367E-1,1.53439E-1,2.6515532E-1,1.7313663E-2,6.956437E-2,-1.3110067E-2,1.915681E-2,8.457798E-3,4.2327945E-3,-6.917615E-3,-3.964673E-3,-8.322044E-3,-2.191989E-3,8.961842E-3,-2.2607127E-2,-8.810852E-3,-1.6282804E-2,-5.1282435E-3,-4.1426044E-2,-2.5483288E-2,-2.5574962E-2,-1.00633195E-2,-6.2075928E-2,-4.215565E-2],"split_indices":[0,0,0,0,0,0,0,0,5,3,7,1,2,0,0,0,11,11,2,3,5,11,13,3,0,0,0,0,0,0,0,0,0,0,0,0,0,0,0,0,0,0,0],"split_type":[0,0,0,0,0,0,0,0,0,0,0,0,0,0,0,0,0,0,0,0,0,0,0,0,0,0,0,0,0,0,0,0,0,0,0,0,0,0,0,0,0,0,0],"sum_hessian":[1.07E3,9.8E2,9E1,2.65E2,7.15E2,8.6E1,4E0,1.1E1,2.54E2,5.08E2,2.07E2,4.6E1,4E1,4E0,7E0,7.1E1,1.83E2,4.22E2,8.6E1,1E2,1.07E2,2.9E1,1.7E1,3.9E1,1E0,3.4E1,3.7E1,1.63E2,2E1,2E2,2.22E2,6.3E1,2.3E1,8.9E1,1.1E1,6.8E1,3.9E1,1.9E1,1E1,1.5E1,2E0,2.8E1,1.1E1],"tree_param":{"num_deleted":"0","num_feature":"14","num_nodes":"43","size_leaf_vector":"0"}},{"base_weights":[-3.89563E-2,-1.3535482E-2,-2.0383029E-1,7.301528E-2,-2.7583063E-2,-1.8771823E-1,-8.9315414E-1,2.6859194E-1,5.4478962E-2,-1.43097965E-2,-6.363213E-2,-1.4161761E-1,-2.894913E-1,3.553349E-1,1.682624E-1,5.7068698E-2,-1.2684986E-1,-2.7441718E-2,2.4914127E-3,-7.655143E-2,-2.9761273E-2,-1.7674233E-1,-1.137408E-1,-3.3973086E-1,-2.2609304E-1,9.8076776E-2,3.8814418E-2,-1.1002611E-2,-3.8824588E-2,-7.094486E-2,8.294737E-3,-8.44206E-2,-5.0101053E-2,-8.436161E-2,-3.0525099E-3,-4.7010973E-2,-1.8551625E-1,-1.5349987E-1,-8.116087E-2,-3.4653986E-1,-9.837091E-2,-6.407058E-2,-2.307574E-1],"categories":[],"categories_nodes":[],"categories_segments":[],"categories_sizes":[],"default_left":[true,true,true,true,true,true,false,true,true,true,true,true,true,false,false,true,false,true,true,true,true,true,true,true,true,false,false,false,false,false,false,false,false,false,false,false,false,false,false,false,false,false,false],"id":14,"left_children":[1,3,5,7,9,11,-1,13,15,17,19,21,23,-1,-1,25,-1,27,29,31,33,35,37,39,41,-1,-1,-1,-1,-1,-1,-1,-1,-1,-1,-1,-1,-1,-1,-1,-1,-1,-1],"loss_changes":[4.4860497E0,1.131519E0,1.4205589E0,4.566527E-1,3.8188058E-1,6.205468E-1,0E0,3.5942197E-2,6.359044E-2,1.2935883E-1,9.1803074E-2,7.683468E-2,6.0148478E-2,0E0,0E0,8.5273385E-2,0E0,6.1136693E-2,1.105415E-1,2.8032541E-2,8.869925E-2,3.908527E-2,6.267196E-2,2.065897E-3,1.8413067E-3,0E0,0E0,0E0,0E0,0E0,0E0,0E0,0E0,0E0,0E0,0E0,0E0,0E0,0E0,0E0,0E0,0E0,0E0],"parents":[2147483647,0,0,1,1,2,2,3,3,4,4,5,5,7,7,8,8,9,9,10,10,11,11,12,12,15,15,17,17,18,18,19,19,20,20,21,21,22,22,23,23,24,24],"right_children":[2,4,6,8,10,12,-1,14,16,18,20,22,24,-1,-1,26,-1,28,30,32,34,36,38,40,42,-1,-1,-1,-1,-1,-1,-1,-1,-1,-1,-1,-1,-1,-1,-1,-1,-1,-1],"split_conditions":[3.2761094E5,8.860633E4,1.3138446E7,3.4616586E4,1.842478E5,1.0034779E6,-1.518362E-1,1.1287922E4,3.487183E-1,1.7880675E-1,4.8040606E-2,1.1125669E-1,3.0778535E-2,6.0406934E-2,2.860461E-2,5.9766594E4,-2.1564476E-2,1.4596956E5,2.2860281E-1,1.4294379E8,1.7997664E-1,2.3259312E-2,7.839395E-3,6.15937E-1,3.5037987E-2,1.6673053E-2,6.598451E-3,-1.8704439E-3,-6.60018E-3,-1.2060626E-2,1.4101053E-3,-1.4351502E-2,-8.517179E-3,-1.43414745E-2,-5.1892665E-4,-7.991865E-3,-3.1537764E-2,-2.6094979E-2,-1.3797348E-2,-5.8911774E-2,-1.6723055E-2,-1.0891999E-2,-3.922876E-2],"split_indices":[0,0,0,0,0,0,0,0,12,5,2,3,5,0,0,0,0,0,6,1,3,9,7,6,5,0,0,0,0,0,0,0,0,0,0,0,0,0,0,0,0,0,0],"split_type":[0,0,0,0,0,0,0,0,0,0,0,0,0,0,0,0,0,0,0,0,0,0,0,0,0,0,0,0,0,0,0,0,0,0,0,0,0,0,0,0,0,0,0],"sum_hessian":[1.07E3,9.28E2,1.42E2,1.29E2,7.99E2,1.4E2,2E0,1E1,1.19E2,5.85E2,2.14E2,9.8E1,4.2E1,4E0,6E0,1.18E2,1E0,3.28E2,2.57E2,1.54E2,6E1,4.1E1,5.7E1,2.1E1,2.1E1,3.5E1,8.3E1,1.35E2,1.93E2,1.8E1,2.39E2,1.17E2,3.7E1,1.9E1,4.1E1,3E0,3.8E1,2.4E1,3.3E1,2E1,1E0,1E0,2E1],"tree_param":{"num_deleted":"0","num_feature":"14","num_nodes":"43","size_leaf_vector":"0"}}]},"name":"gbtree"},"learner_model_param":{"base_score":"5E-1","num_class":"0","num_feature":"14"},"objective":{"name":"reg:squarederror","reg_loss_param":{"scale_pos_weight":"1"}}},"version":[1,5,0]}