{"learner":{"attributes":{"best_iteration":"9","best_ntree_limit":"10","scikit_learn":"{\"n_estimators\": 10, \"objective\": \"reg:squarederror\", \"max_depth\": 5, \"learning_rate\": null, \"verbosity\": null, \"booster\": null, \"tree_method\": null, \"gamma\": null, \"min_child_weight\": null, \"max_delta_step\": null, \"subsample\": null, \"colsample_bytree\": null, \"colsample_bylevel\": null, \"colsample_bynode\": null, \"reg_alpha\": null, \"reg_lambda\": null, \"scale_pos_weight\": null, \"base_score\": null, \"missing\": NaN, \"num_parallel_tree\": null, \"random_state\": null, \"n_jobs\": null, \"monotone_constraints\": null, \"interaction_constraints\": null, \"importance_type\": null, \"gpu_id\": null, \"validate_parameters\": null, \"predictor\": null, \"enable_categorical\": false, \"kwargs\": {\"eta\": 0.17, \"grow_policy\": \"lossguide\", \"eval_metric\": \"rmse\"}, \"_estimator_type\": \"regressor\"}"},"feature_names":["Total expenses","expense_per_student_per_dollar","Institutional grants (funded)_per_dollar","Institutional grants (unfunded)_per_dollar","Sales and services of educational activities - Total_per_dollar","Sales and services of auxiliary enterprises - Total_per_dollar","Instruction-Total amount_per_dollar","Research-Total amount_per_dollar","Public service-Total amount_per_dollar","Academic support-Total amount_per_dollar","Student service-Total amount_per_dollar","Institutional support-Total amount_per_dollar","Auxiliary enterprises-Total amount_per_dollar","Net grant aid to students-Total amount_per_dollar"],"feature_types":["float","float","float","float","float","float","float","float","float","float","float","float","float","float"],"gradient_booster":{"model":{"gbtree_model_param":{"num_trees":"10","size_leaf_vector":"0"},"tree_info":[0,0,0,0,0,0,0,0,0,0],"trees":[{"base_weights":[-4.9105093E-1,-4.2763662E-1,-2.9272325E0,-3.2203197E-1,-2.0413263E0,-3.266006E0,-1.7143949E0,7.556164E-1,-3.7822336E-1,-8.3060867E-1,-3.1534972E0,-1.1814579E0,-3.4319859E0,2.66404E0,4.782037E-1,-2.796957E-1,-7.980298E-1,-2.4652569E-1,-1.5639635E0,-2.1264281E0,-3.6391354E0,7.007544E-1,-2.5315318E-1,-2.0513755E-1,-9.559367E-1,-7.285948E-1,-2.1737697E0,6.635386E-1,-4.586339E-1,9.6555054E-2,-1.699123E0,-1.1907943E0,-2.4099548E0],"categories":[],"categories_nodes":[],"categories_segments":[],"categories_sizes":[],"default_left":[true,true,true,true,true,true,false,true,true,true,true,false,false,false,true,true,true,true,true,true,false,false,false,false,false,false,false,false,false,false,false,false,false],"id":0,"left_children":[1,3,5,7,9,11,-1,13,15,17,19,-1,-1,-1,21,23,25,27,29,31,-1,-1,-1,-1,-1,-1,-1,-1,-1,-1,-1,-1,-1],"loss_changes":[1.6420569E2,1.7742438E2,5.494461E0,5.9750343E1,8.355826E1,2.8651123E0,0E0,2.4667675E1,3.840941E1,1.3321325E1,8.721497E0,0E0,0E0,0E0,7.339013E0,3.802171E1,1.5324036E1,3.9719315E0,3.3061485E0,5.7884216E-1,0E0,0E0,0E0,0E0,0E0,0E0,0E0,0E0,0E0,0E0,0E0,0E0,0E0],"parents":[2147483647,0,0,1,1,2,2,3,3,4,4,5,5,7,7,8,8,9,9,10,10,14,14,15,15,16,16,17,17,18,18,19,19],"right_children":[2,4,6,8,10,12,-1,14,16,18,20,-1,-1,-1,22,24,26,28,30,32,-1,-1,-1,-1,-1,-1,-1,-1,-1,-1,-1,-1,-1],"split_conditions":[1.5314834E0,6.436199E-1,-8.0439615E-1,-2.3931804E-1,-2.4054903E-1,-2.6095378E-1,-2.9144713E-1,-1.342578E-1,-8.161098E-2,2.115522E0,1.0645242E0,-2.0084783E-1,-5.834376E-1,4.5288682E-1,3.6531913E-1,-6.814277E-2,-2.3197515E-1,-2.4277037E-1,-2.4309373E-1,-2.3722336E-1,-6.18653E-1,1.1912825E-1,-4.303604E-2,-3.4873385E-2,-1.6250923E-1,-1.2386111E-1,-3.6954084E-1,1.1280156E-1,-7.796776E-2,1.641436E-2,-2.888509E-1,-2.0243505E-1,-4.0969232E-1],"split_indices":[0,1,3,0,0,1,0,1,0,1,1,0,0,0,1,1,1,0,0,0,0,0,0,0,0,0,0,0,0,0,0,0,0],"split_type":[0,0,0,0,0,0,0,0,0,0,0,0,0,0,0,0,0,0,0,0,0,0,0,0,0,0,0,0,0,0,0,0,0],"sum_hessian":[1.07E3,1.044E3,2.6E1,9.81E2,6.3E1,1.9E1,7E0,4.8E1,9.33E2,3.1E1,3.2E1,2E0,1.7E1,5E0,4.3E1,7.57E2,1.76E2,1.8E1,1.3E1,1.2E1,2E1,3.3E1,1E1,6.83E2,7.4E1,1.69E2,7E0,3E0,1.5E1,1E0,1.2E1,4E0,8E0],"tree_param":{"num_deleted":"0","num_feature":"14","num_nodes":"33","size_leaf_vector":"0"}},{"base_weights":[-4.1009882E-1,-3.564984E-1,-2.469445E0,-2.6745132E-1,-1.7172443E0,-2.8248668E0,-1.582741E0,3.5315576E-1,-3.4855804E-1,-6.968303E-1,-2.654699E0,-1.0475594E0,-2.9815578E0,1.9891342E0,2.1092027E-1,-3.079475E-1,-1.7655573E0,-2.0278296E-1,-1.3175495E0,-2.0831103E0,-3.6085024E0,2.2866344E0,1.0456003E0,4.9010128E-1,-2.2616747E-1,-4.789203E-1,-8.985344E-2,-1.0834782E0,-2.2593567E0,5.789374E-1,-3.855391E-1,-3.2689863E-1,-1.5580089E0,-2.2054765E0,-9.5050275E-1],"categories":[],"categories_nodes":[],"categories_segments":[],"categories_sizes":[],"default_left":[true,true,true,true,true,true,false,true,true,true,true,false,false,true,true,true,true,true,true,true,false,false,false,false,false,false,false,false,false,false,false,false,false,false,false],"id":1,"left_children":[1,3,5,7,9,11,-1,13,15,17,19,-1,-1,21,23,25,27,29,31,33,-1,-1,-1,-1,-1,-1,-1,-1,-1,-1,-1,-1,-1,-1,-1],"loss_changes":[1.1733856E2,1.2616383E2,4.0381317E0,4.9552475E1,5.937201E1,1.8894196E0,0E0,2.6107588E1,4.9463028E1,9.546091E0,1.0474136E1,0E0,0E0,1.3541031E-1,1.3045664E1,3.1502747E1,5.635483E0,2.937623E0,2.8256474E0,1.0913239E0,0E0,0E0,0E0,0E0,0E0,0E0,0E0,0E0,0E0,0E0,0E0,0E0,0E0,0E0,0E0],"parents":[2147483647,0,0,1,1,2,2,3,3,4,4,5,5,7,7,8,8,9,9,10,10,13,13,14,14,15,15,16,16,17,17,18,18,19,19],"right_children":[2,4,6,8,10,12,-1,14,16,18,20,-1,-1,22,24,26,28,30,32,34,-1,-1,-1,-1,-1,-1,-1,-1,-1,-1,-1,-1,-1,-1,-1],"split_conditions":[1.5314834E0,6.436199E-1,-8.837523E-1,-2.3455271E-1,-2.4054903E-1,-2.5976592E-1,-2.6906598E-1,-1.6428152E-1,-1.0817619E-2,2.115522E0,-2.296299E-1,-1.780851E-1,-5.0686485E-1,-2.374364E-1,1.3769579E-1,3.7860057E-1,-2.2496703E-1,-2.4277037E-1,-2.4272984E-1,3.5655606E-1,-6.134454E-1,3.8872787E-1,1.7775205E-1,8.331722E-2,-3.844847E-2,-8.141645E-2,-1.5275085E-2,-1.841913E-1,-3.8409066E-1,9.841936E-2,-6.554165E-2,-5.5572767E-2,-2.6486152E-1,-3.74931E-1,-1.6158547E-1],"split_indices":[0,1,3,0,0,1,0,1,1,1,0,0,0,0,1,5,0,0,0,12,0,0,0,0,0,0,0,0,0,0,0,0,0,0,0],"split_type":[0,0,0,0,0,0,0,0,0,0,0,0,0,0,0,0,0,0,0,0,0,0,0,0,0,0,0,0,0,0,0,0,0,0,0],"sum_hessian":[1.07E3,1.044E3,2.6E1,9.81E2,6.3E1,1.7E1,9E0,1.13E2,8.68E2,3.1E1,3.2E1,2E0,1.5E1,8E0,1.05E2,8.45E2,2.3E1,1.8E1,1.3E1,2.2E1,1E1,5E0,3E0,6.4E1,4.1E1,4.73E2,3.72E2,1.1E1,1.2E1,3E0,1.5E1,3E0,1E1,1.9E1,3E0],"tree_param":{"num_deleted":"0","num_feature":"14","num_nodes":"35","size_leaf_vector":"0"}},{"base_weights":[-3.4266508E-1,-2.877947E-1,-1.8266994E0,-2.110424E-1,-1.4477739E0,-1.2083037E0,-2.3815E0,1.397018E-1,-3.1701714E-1,-3.278113E-1,-2.0680504E0,-3.7926304E-1,-1.3322954E0,-1.0952508E0,-2.5542185E0,6.0237473E-1,-5.491563E-2,-2.5942367E-1,-1.3010167E0,-6.5576516E-2,-1.1035863E0,-1.4730736E0,-2.746461E0,1.4527167E0,3.503464E-1,1.8557484E-1,-4.810467E-1,-1.676036E-1,-5.1522386E-1,-9.510125E-1,-1.7884598E0,4.5055202E-1,-2.332476E-1,-1.0039732E0,-1.9361948E0,-2.1107137E0,-3.6661696E0],"categories":[],"categories_nodes":[],"categories_segments":[],"categories_sizes":[],"default_left":[true,true,true,true,true,true,true,true,true,true,true,false,false,false,false,true,true,true,true,true,false,true,true,false,false,false,false,false,false,false,false,false,false,false,false,false,false],"id":2,"left_children":[1,3,5,7,9,11,13,15,17,19,21,-1,-1,-1,-1,23,25,27,29,31,-1,33,35,-1,-1,-1,-1,-1,-1,-1,-1,-1,-1,-1,-1,-1,-1],"loss_changes":[8.6685295E1,9.175258E1,1.01596985E1,3.613638E1,4.3781982E1,1.5505924E0,1.4235153E0,2.0383072E1,4.193976E1,4.8100753E0,1.25034485E1,0E0,0E0,0E0,0E0,1.3849836E1,1.6486147E1,1.6495884E1,5.2940445E0,1.7493467E0,0E0,3.2701187E0,2.7864075E0,0E0,0E0,0E0,0E0,0E0,0E0,0E0,0E0,0E0,0E0,0E0,0E0,0E0,0E0],"parents":[2147483647,0,0,1,1,2,2,3,3,4,4,5,5,6,6,7,7,8,8,9,9,10,10,15,15,16,16,17,17,18,18,19,19,21,21,22,22],"right_children":[2,4,6,8,10,12,14,16,18,20,22,-1,-1,-1,-1,24,26,28,30,32,-1,34,36,-1,-1,-1,-1,-1,-1,-1,-1,-1,-1,-1,-1,-1,-1],"split_conditions":[8.399728E-1,6.436199E-1,3.3392434E0,-2.1611804E-1,-2.4152337E-1,-2.5953388E-1,-2.5999618E-1,-1.6621438E-1,-1.798553E-1,3.7409263E0,-2.3494422E-1,-6.447472E-2,-2.2649023E-1,-1.8619265E-1,-4.3421715E-1,-2.3017514E-1,-2.3489138E-1,-9.7383186E-2,-1.2053915E-1,-2.4279413E-1,-1.8760967E-1,2.4398975E0,2.3112245E0,2.4696185E-1,5.9558887E-2,3.1547725E-2,-8.177794E-2,-2.849261E-2,-8.758806E-2,-1.6167213E-1,-3.0403817E-1,7.6593846E-2,-3.965209E-2,-1.7067546E-1,-3.2915312E-1,-3.5882133E-1,-6.232489E-1],"split_indices":[0,1,0,0,0,1,1,1,1,1,0,0,0,0,0,0,0,0,1,0,0,1,1,0,0,0,0,0,0,0,0,0,0,0,0,0,0],"split_type":[0,0,0,0,0,0,0,0,0,0,0,0,0,0,0,0,0,0,0,0,0,0,0,0,0,0,0,0,0,0,0,0,0,0,0,0,0],"sum_hessian":[1.07E3,1.033E3,3.7E1,9.7E2,6.3E1,1.9E1,1.8E1,2.25E2,7.45E2,2.3E1,4E1,3E0,1.6E1,3E0,1.5E1,6.6E1,1.59E2,7.05E2,4E1,1.8E1,5E0,2.3E1,1.7E1,1.4E1,5.2E1,1.02E2,5.7E1,5.2E2,1.85E2,2.5E1,1.5E1,4E0,1.4E1,1.3E1,1E1,1.2E1,5E0],"tree_param":{"num_deleted":"0","num_feature":"14","num_nodes":"37","size_leaf_vector":"0"}},{"base_weights":[-2.8709123E-1,-2.4031395E-1,-1.5523707E0,-1.9053075E-1,-1.540144E0,-9.742105E-1,-2.5892777E0,7.594662E-1,-2.2078863E-1,-1.0174403E0,-2.009298E0,-5.6501716E-1,-1.404518E0,1.4873691E0,4.4161433E-1,-1.7964514E-1,-9.562355E-1,-3.30907E-1,-1.1191282E0,-1.4117815E0,-2.4058847E0,-1.9786261E-1,-8.615446E-1,-6.1846673E-1,-1.5978166E0,6.7994833E-1,2.0597677E-1,1.5898961E-1,-2.586005E-1,-5.002271E-1,-1.5346E0,7.783735E-2,-2.4836794E-1],"categories":[],"categories_nodes":[],"categories_segments":[],"categories_sizes":[],"default_left":[true,true,true,true,true,true,false,true,true,true,true,true,true,false,true,true,true,false,false,false,false,true,false,false,false,false,false,false,false,false,false,false,false],"id":3,"left_children":[1,3,5,7,9,11,-1,13,15,17,19,21,23,-1,25,27,29,-1,-1,-1,-1,31,-1,-1,-1,-1,-1,-1,-1,-1,-1,-1,-1],"loss_changes":[6.3015495E1,6.661638E1,2.0258438E1,2.8826344E1,7.2743454E0,3.7844753E0,0E0,6.51548E0,2.9088531E1,1.0259151E0,1.1057892E0,1.4626036E0,8.3511543E-1,0E0,1.1516366E0,2.4558973E1,1.2683041E1,0E0,0E0,0E0,0E0,1.3072681E-1,0E0,0E0,0E0,0E0,0E0,0E0,0E0,0E0,0E0,0E0,0E0],"parents":[2147483647,0,0,1,1,2,2,3,3,4,4,5,5,7,7,8,8,9,9,10,10,11,11,12,12,14,14,15,15,16,16,21,21],"right_children":[2,4,6,8,10,12,-1,14,16,18,20,22,24,-1,26,28,30,-1,-1,-1,-1,32,-1,-1,-1,-1,-1,-1,-1,-1,-1,-1,-1],"split_conditions":[1.2774398E0,8.399728E-1,-2.3842922E-1,-2.4132365E-1,3.3392434E0,3.3170617E0,-4.4017723E-1,9.169285E-2,2.0166402E-1,-2.5953388E-1,-2.5670606E-1,-2.4196506E-1,-9.0627974E-1,2.5285274E-1,3.7130517E-1,-2.1611804E-1,-2.3681545E-1,-5.625419E-2,-1.902518E-1,-2.4000287E-1,-4.090004E-1,-2.4299209E-1,-1.4646259E-1,-1.05139345E-1,-2.7162883E-1,1.1559122E-1,3.5016052E-2,2.7028233E-2,-4.3962087E-2,-8.503861E-2,-2.6088202E-1,1.3232349E-2,-4.222255E-2],"split_indices":[1,0,0,0,0,1,0,1,1,1,1,0,6,0,1,0,0,0,0,0,0,0,0,0,0,0,0,0,0,0,0,0,0],"split_type":[0,0,0,0,0,0,0,0,0,0,0,0,0,0,0,0,0,0,0,0,0,0,0,0,0,0,0,0,0,0,0,0,0],"sum_hessian":[1.07E3,1.033E3,3.7E1,9.96E2,3.7E1,2.5E1,1.2E1,3E1,9.66E2,1.9E1,1.8E1,1.4E1,1.1E1,8E0,2.2E1,9.16E2,5E1,3E0,1.6E1,9E0,9E0,7E0,7E0,3E0,8E0,1E1,1.2E1,1.73E2,7.43E2,2.9E1,2.1E1,1E0,6E0],"tree_param":{"num_deleted":"0","num_feature":"14","num_nodes":"33","size_leaf_vector":"0"}},{"base_weights":[-2.4001056E-1,-2.0028737E-1,-1.3145833E0,-1.5809979E-1,-1.3018855E0,-8.950011E-1,-2.3999135E0,6.4337176E-1,-1.836298E-1,-1.9606001E0,-9.9660885E-1,-4.8113278E-1,-1.2492027E0,1.2626112E0,3.7308803E-1,-1.4214937E-1,-7.214163E-1,-1.1281481E0,-4.408274E-1,-2.3921978E-1,-8.041323E-1,-3.4268174E-1,-1.2894769E0,5.9060585E-1,1.2447951E-1,3.1660256E-1,-1.9484055E-1,-4.477403E-1,-1.6768005E0,-1.1735044E0,-4.4972357E-1,-9.248066E-2,-4.8347175E-1,-5.6530498E-2,-3.5159087E-1],"categories":[],"categories_nodes":[],"categories_segments":[],"categories_sizes":[],"default_left":[true,true,true,true,true,true,false,true,true,false,true,true,true,false,true,true,true,true,true,true,false,false,false,false,false,false,false,false,false,false,false,false,false,false,false],"id":4,"left_children":[1,3,5,7,9,11,-1,13,15,-1,17,19,21,-1,23,25,27,29,31,33,-1,-1,-1,-1,-1,-1,-1,-1,-1,-1,-1,-1,-1,-1,-1],"loss_changes":[4.545283E1,4.784804E1,1.5156715E1,2.0518333E1,5.687477E0,3.650158E0,0E0,4.717414E0,2.1468914E1,0E0,1.5496788E0,9.797025E-1,1.05760574E-1,0E0,1.170248E0,2.1792475E1,1.729036E1,1.4920616E-1,5.9273362E-2,1.8541437E-1,0E0,0E0,0E0,0E0,0E0,0E0,0E0,0E0,0E0,0E0,0E0,0E0,0E0,0E0,0E0],"parents":[2147483647,0,0,1,1,2,2,3,3,4,4,5,5,7,7,8,8,10,10,11,11,12,12,14,14,15,15,16,16,17,17,18,18,19,19],"right_children":[2,4,6,8,10,12,-1,14,16,-1,18,20,22,-1,24,26,28,30,32,34,-1,-1,-1,-1,-1,-1,-1,-1,-1,-1,-1,-1,-1,-1,-1],"split_conditions":[1.2774398E0,8.399728E-1,-2.3508203E-1,-2.4132365E-1,-9.9653304E-1,-2.4159342E-1,-4.079853E-1,9.169285E-2,9.360762E-2,-3.3330202E-1,-3.176929E-1,3.7409263E0,1.6059046E0,2.146439E-1,-2.4188232E-1,-2.2636975E-1,-2.3206875E-1,-3.1792545E-1,-2.6031482E-1,-2.4254763E-1,-1.367025E-1,-5.8255896E-2,-2.1921107E-1,1.00402996E-1,2.1161517E-2,5.3822435E-2,-3.3122893E-2,-7.611585E-2,-2.8505608E-1,-1.9949575E-1,-7.645301E-2,-1.5721712E-2,-8.21902E-2,-9.6101845E-3,-5.977045E-2],"split_indices":[1,0,0,0,5,0,0,1,1,0,5,1,1,0,0,0,0,3,1,0,0,0,0,0,0,0,0,0,0,0,0,0,0,0,0],"split_type":[0,0,0,0,0,0,0,0,0,0,0,0,0,0,0,0,0,0,0,0,0,0,0,0,0,0,0,0,0,0,0,0,0,0,0],"sum_hessian":[1.07E3,1.033E3,3.7E1,9.96E2,3.7E1,2.8E1,9E0,3E1,9.66E2,1E1,2.7E1,1.4E1,1.4E1,8E0,2.2E1,8.98E2,6.8E1,2.1E1,6E0,9E0,5E0,1E0,1.3E1,1.1E1,1.1E1,9.2E1,8.06E2,5.4E1,1.4E1,1.9E1,2E0,1E0,5E0,4E0,5E0],"tree_param":{"num_deleted":"0","num_feature":"14","num_nodes":"35","size_leaf_vector":"0"}},{"base_weights":[-2.0070545E-1,-1.4467353E-1,-7.618438E-1,-9.3605004E-2,-8.95189E-1,-1.1191176E0,-4.3114302E-1,-4.5269392E-2,-4.4648284E-1,-1.7403588E-1,-1.2603153E0,-1.9070636E0,-9.7651297E-1,-3.670586E-1,-9.6012485E-1,1.5769845E-1,-1.2234746E-1,2.1237117E-1,-5.072953E-1,-3.7876464E-2,-6.294026E-1,-1.035515E0,-2.3990655E0,-1.0223951E0,-5.4540455E-2,-4.211757E-1,1.0080821E-2,-2.0659149E-1,-1.0968603E0,5.081188E-1,2.9482506E-3,-6.0134087E-2,-6.0151434E-1,4.452835E-1,-1.09597884E-1,-3.8469788E-1,-1.0904413E0,3.073011E-1,-1.584487E-1,-9.117012E-1,-1.6208197E0,-1.7345402E-1,-1.040171E0,-4.5939457E-1,5.6752577E-2,7.70698E-2,-1.0492774E-1],"categories":[],"categories_nodes":[],"categories_segments":[],"categories_sizes":[],"default_left":[true,true,true,true,true,true,true,true,true,true,true,false,true,true,true,true,true,true,true,true,false,true,false,true,false,true,true,false,false,false,false,false,false,false,false,false,false,false,false,false,false,false,false,false,false,false,false],"id":5,"left_children":[1,3,5,7,9,11,13,15,17,19,21,-1,23,25,27,29,31,33,35,37,-1,39,-1,41,-1,43,45,-1,-1,-1,-1,-1,-1,-1,-1,-1,-1,-1,-1,-1,-1,-1,-1,-1,-1,-1,-1],"loss_changes":[3.35638E1,3.7285732E1,1.0978123E1,1.5569489E1,1.6105999E1,3.306511E0,1.4103518E0,1.2613011E1,4.515053E0,1.3402147E0,8.011391E0,0E0,1.6786232E0,9.8391056E-1,2.8857136E-1,1.2037033E1,1.737321E1,7.9870784E-1,6.80122E0,7.978304E-1,0E0,1.1311722E0,0E0,4.081154E-1,0E0,7.932391E-1,6.2016897E-2,0E0,0E0,0E0,0E0,0E0,0E0,0E0,0E0,0E0,0E0,0E0,0E0,0E0,0E0,0E0,0E0,0E0,0E0,0E0,0E0],"parents":[2147483647,0,0,1,1,2,2,3,3,4,4,5,5,6,6,7,7,8,8,9,9,10,10,12,12,13,13,14,14,15,15,16,16,17,17,18,18,19,19,21,21,23,23,25,25,26,26],"right_children":[2,4,6,8,10,12,14,16,18,20,22,-1,24,26,28,30,32,34,36,38,-1,40,-1,42,-1,44,46,-1,-1,-1,-1,-1,-1,-1,-1,-1,-1,-1,-1,-1,-1,-1,-1,-1,-1,-1,-1],"split_conditions":[4.9360183E-1,6.436199E-1,-5.063348E-1,8.256537E-1,-2.4152337E-1,-1.5613589E0,-2.129686E-1,-2.1210702E-1,-2.388606E-1,3.7409263E0,7.1836486E0,-3.242008E-1,4.8475513E-1,1.0007722E0,-1.9336192E-1,-1.8589567E-1,-2.1050496E-1,2.2359216E-1,-8.852014E-2,-2.4279413E-1,-1.06998436E-1,-2.197909E-1,-4.0784115E-1,-1.6160939E0,-9.271878E-3,1.5573735E0,1.6095235E0,-3.5120554E-2,-1.8646625E-1,8.63802E-2,5.012026E-4,-1.02227945E-2,-1.0225744E-1,7.56982E-2,-1.863164E-2,-6.539864E-2,-1.8537503E-1,5.2241188E-2,-2.6936278E-2,-1.5498921E-1,-2.7553934E-1,-2.9487183E-2,-1.7682907E-1,-7.8097075E-2,9.647938E-3,1.3101866E-2,-1.7837716E-2],"split_indices":[7,1,5,9,0,11,1,0,0,1,1,0,3,5,0,1,1,1,1,0,0,0,0,10,0,3,5,0,0,0,0,0,0,0,0,0,0,0,0,0,0,0,0,0,0,0,0],"split_type":[0,0,0,0,0,0,0,0,0,0,0,0,0,0,0,0,0,0,0,0,0,0,0,0,0,0,0,0,0,0,0,0,0,0,0,0,0,0,0,0,0,0,0,0,0,0,0],"sum_hessian":[1.07E3,9.74E2,9.6E1,9.13E2,6.1E1,4.5E1,5.1E1,8.04E2,1.09E2,2.1E1,4E1,5E0,4E1,4.7E1,4E0,2.21E2,5.83E2,9E0,1E2,1.7E1,4E0,3.5E1,5E0,3.8E1,2E0,4.1E1,6E0,1E0,3E0,6.7E1,1.54E2,5.17E2,6.6E1,5E0,4E0,8.4E1,1.6E1,4E0,1.3E1,3.1E1,4E0,1E0,3.7E1,3.8E1,3E0,4E0,2E0],"tree_param":{"num_deleted":"0","num_feature":"14","num_nodes":"47","size_leaf_vector":"0"}},{"base_weights":[-1.684286E-1,-1.3914339E-1,-9.6086204E-1,-5.791265E-2,-4.673501E-1,-6.494104E-1,-1.7679857E0,4.9995977E-1,-8.236946E-2,-9.340581E-1,-3.0262542E-1,-2.7559325E-1,-8.3165133E-1,-9.8936E-1,-2.1221762E0,7.569919E-1,1.067841E-1,-2.29891E-2,-4.4107565E-1,-1.4642617E0,-6.652063E-1,-4.5267424E-1,-9.797508E-2,-3.93552E-1,-5.5332355E-2,-4.450344E-1,-1.0723697E0,1.254324E0,5.661889E-1,3.3081234E-1,-7.9324976E-2,4.9236965E-1,-6.0918365E-2,-2.2699116E-1,-1.0000414E0,-1.7384526E0,-6.718361E-1,4.897583E-1,-7.108931E-1,-3.800104E-1,-8.09611E-1,-3.904988E-2,-3.3520478E-1,-1.7002632E-1,-4.4895703E-1,-1.3494998E-1,4.2729393E-2,-2.1545061E-1,-5.2391785E-1],"categories":[],"categories_nodes":[],"categories_segments":[],"categories_sizes":[],"default_left":[true,true,true,true,true,true,true,true,true,true,true,true,true,false,false,true,true,true,true,true,true,true,true,true,true,true,false,false,false,false,false,false,false,false,false,false,false,false,false,false,false,false,false,false,false,false,false,false,false],"id":6,"left_children":[1,3,5,7,9,11,13,15,17,19,21,23,25,-1,-1,27,29,31,33,35,37,39,41,43,45,47,-1,-1,-1,-1,-1,-1,-1,-1,-1,-1,-1,-1,-1,-1,-1,-1,-1,-1,-1,-1,-1,-1,-1],"loss_changes":[2.4720547E1,2.7539865E1,8.404289E0,1.1365519E1,1.547739E1,1.7464218E0,6.582222E-1,3.4562225E0,1.6944742E1,6.5809097E0,4.653903E0,2.640226E-1,1.291008E0,0E0,0E0,1.2825584E0,6.51647E-1,1.3400266E1,1.3295246E1,2.5257378E0,2.3005295E0,1.974741E0,9.095116E-1,1.0356665E-2,4.480355E-2,5.011487E-2,0E0,0E0,0E0,0E0,0E0,0E0,0E0,0E0,0E0,0E0,0E0,0E0,0E0,0E0,0E0,0E0,0E0,0E0,0E0,0E0,0E0,0E0,0E0],"parents":[2147483647,0,0,1,1,2,2,3,3,4,4,5,5,6,6,7,7,8,8,9,9,10,10,11,11,12,12,15,15,16,16,17,17,18,18,19,19,20,20,21,21,22,22,23,23,24,24,25,25],"right_children":[2,4,6,8,10,12,14,16,18,20,22,24,26,-1,-1,28,30,32,34,36,38,40,42,44,46,48,-1,-1,-1,-1,-1,-1,-1,-1,-1,-1,-1,-1,-1,-1,-1,-1,-1,-1,-1,-1,-1,-1,-1],"split_conditions":[1.2774398E0,-8.441953E-2,-2.3508203E-1,-2.4099982E-1,-6.211339E-1,-2.4241275E-1,2.3112245E0,3.7130517E-1,-6.814277E-2,-9.9862725E-1,2.863114E-1,-4.9720025E-1,2.7674294E0,-1.681912E-1,-3.6076996E-1,-8.790534E-2,-2.4207112E-1,-2.2888872E-1,-2.3188582E-1,9.139733E-2,-2.6084125E-1,-2.4179684E-1,-2.4664287E-1,3.7409263E0,-1.371403E0,-6.7945814E-1,-1.8230285E-1,2.1323508E-1,9.6252106E-2,5.6238096E-2,-1.3485246E-2,8.370284E-2,-1.0356122E-2,-3.8588498E-2,-1.7000704E-1,-2.9553694E-1,-1.1421213E-1,8.325891E-2,-1.2085183E-1,-6.460177E-2,-1.3763388E-1,-6.6384794E-3,-5.6984812E-2,-2.8904473E-2,-7.63227E-2,-2.2941498E-2,7.2639966E-3,-3.6626603E-2,-8.9066036E-2],"split_indices":[1,0,0,0,5,0,1,1,1,3,3,2,1,0,0,1,0,0,0,8,1,1,1,1,5,10,0,0,0,0,0,0,0,0,0,0,0,0,0,0,0,0,0,0,0,0,0,0,0],"split_type":[0,0,0,0,0,0,0,0,0,0,0,0,0,0,0,0,0,0,0,0,0,0,0,0,0,0,0,0,0,0,0,0,0,0,0,0,0,0,0,0,0,0,0,0,0,0,0,0,0],"sum_hessian":[1.07E3,1.033E3,3.7E1,8.29E2,2.04E2,2.8E1,9E0,3.4E1,7.95E2,5.2E1,1.52E2,1E1,1.8E1,4E0,5E0,2E1,1.4E1,6.83E2,1.12E2,1.6E1,3.6E1,8.7E1,6.5E1,6E0,4E0,8E0,1E1,4E0,1.6E1,6E0,8E0,4.6E1,6.37E2,8.2E1,3E1,1.1E1,5E0,1E0,3.5E1,7.4E1,1.3E1,5.3E1,1.2E1,2E0,4E0,2E0,2E0,3E0,5E0],"tree_param":{"num_deleted":"0","num_feature":"14","num_nodes":"49","size_leaf_vector":"0"}},{"base_weights":[-1.4115341E-1,-2.4552293E-1,3.3146914E-2,-2.2611211E-1,-1.5040251E0,-3.1895347E-2,2.2476038E-1,-1.3606608E-1,-4.588072E-1,-9.29742E-1,-1.89236E0,5.223012E-2,-1.7844257E-1,3.7294084E-1,1.1044343E-1,-6.977016E-2,-4.134623E-1,-7.8120863E-1,-2.8448904E-1,3.4610802E-1,-1.3199984E-2,-5.4223444E-2,-4.3227565E-1,4.2106465E-1,1.0375053E-1,1.349363E-1,-1.810669E-1,4.280373E-1,-9.521344E-2,-3.2056507E-2,-4.815088E-1,-1.1822731E0,-6.343058E-1,-3.88602E-1,-4.685806E-2,7.7178055E-1,2.8208306E-1,2.765425E-1,-6.715791E-2,2.0739391E-1,-1.0734729E-1,-6.007434E-1,-2.4992327E-1,6.867576E-1,3.680486E-1,3.3329013E-1,-2.831103E-2,2.0457348E-1,2.84255E-3],"categories":[],"categories_nodes":[],"categories_segments":[],"categories_sizes":[],"default_left":[true,true,true,true,true,true,true,true,true,false,false,true,true,true,true,true,true,true,true,true,true,true,true,true,true,true,false,false,false,false,false,false,false,false,false,false,false,false,false,false,false,false,false,false,false,false,false,false,false],"id":7,"left_children":[1,3,5,7,9,11,13,15,17,-1,-1,19,21,23,25,27,29,31,33,35,37,39,41,43,45,47,-1,-1,-1,-1,-1,-1,-1,-1,-1,-1,-1,-1,-1,-1,-1,-1,-1,-1,-1,-1,-1,-1,-1],"loss_changes":[1.9491386E1,1.6027046E1,5.0172834E0,1.3787685E1,4.7073555E-1,3.720154E0,1.6866441E0,8.761687E0,1.0118629E1,0E0,0E0,3.696433E0,3.4449627E0,5.263109E-1,4.456882E-1,4.9424405E0,2.3722696E0,3.0208015E0,2.9753866E0,7.361717E-1,2.4887288E0,1.0646222E0,9.5579815E-1,2.6842165E-1,2.5194263E-1,5.0534356E-1,0E0,0E0,0E0,0E0,0E0,0E0,0E0,0E0,0E0,0E0,0E0,0E0,0E0,0E0,0E0,0E0,0E0,0E0,0E0,0E0,0E0,0E0,0E0],"parents":[2147483647,0,0,1,1,2,2,3,3,4,4,5,5,6,6,7,7,8,8,11,11,12,12,13,13,14,14,15,15,16,16,17,17,18,18,19,19,20,20,21,21,22,22,23,23,24,24,25,25],"right_children":[2,4,6,8,10,12,14,16,18,-1,-1,20,22,24,26,28,30,32,34,36,38,40,42,44,46,48,-1,-1,-1,-1,-1,-1,-1,-1,-1,-1,-1,-1,-1,-1,-1,-1,-1,-1,-1,-1,-1,-1,-1],"split_conditions":[3.2847E-1,5.2888174E0,1.0754114E0,-2.1158144E-1,-2.3668154E-1,-1.8228331E-1,-1.8696508E-1,5.8731735E-1,-5.00278E-1,-1.5805614E-1,-3.217012E-1,-2.2431593E-1,-2.3429182E-1,-2.0952573E-1,-2.2685918E-1,-2.4113463E-1,-2.4045025E-1,-1.2125337E0,5.7910085E-1,-2.3684633E-1,-2.3959288E-1,-2.7033636E-1,-2.1078159E-1,-2.3583442E-1,-2.3030871E-1,-1.5148032E-1,-3.0781373E-2,7.276634E-2,-1.6186286E-2,-5.449606E-3,-8.18565E-2,-2.0098644E-1,-1.07831985E-1,-6.606234E-2,-7.96587E-3,1.312027E-1,4.795412E-2,4.701223E-2,-1.1416845E-2,3.5256967E-2,-1.8249039E-2,-1.0212638E-1,-4.248696E-2,1.16748795E-1,6.256826E-2,5.6659322E-2,-4.812875E-3,3.4777492E-2,4.8323348E-4],"split_indices":[10,1,3,7,0,0,0,9,5,0,0,1,1,1,1,0,0,12,3,1,0,6,2,1,0,0,0,0,0,0,0,0,0,0,0,0,0,0,0,0,0,0,0,0,0,0,0,0,0],"split_type":[0,0,0,0,0,0,0,0,0,0,0,0,0,0,0,0,0,0,0,0,0,0,0,0,0,0,0,0,0,0,0,0,0,0,0,0,0,0,0,0,0,0,0,0,0,0,0,0,0],"sum_hessian":[1.07E3,6.69E2,4.01E2,6.6E2,9E0,3E2,1.01E2,4.77E2,1.83E2,5E0,4E0,1.91E2,1.09E2,4.3E1,5.8E1,3.86E2,9.1E1,6.3E1,1.2E2,3.4E1,1.57E2,7.4E1,3.5E1,3.6E1,7E0,5.4E1,4E0,1.8E1,3.68E2,1.4E1,7.7E1,1.5E1,4.8E1,8.3E1,3.7E1,3E0,3.1E1,2.4E1,1.33E2,1.2E1,6.2E1,1.7E1,1.8E1,4E0,3.2E1,2E0,5E0,3.5E1,1.9E1],"tree_param":{"num_deleted":"0","num_feature":"14","num_nodes":"49","size_leaf_vector":"0"}},{"base_weights":[-1.1769004E-1,-8.150282E-2,-5.589722E-1,-1.6794467E-2,-3.4555948E-1,-2.6923728E-1,-9.320742E-1,4.8259667E-1,-4.3125406E-2,-2.9892612E-1,-1.5552945E0,-1.2604949E-1,-5.663013E-1,-7.0556295E-1,-1.3621384E0,1.1039137E0,3.173502E-1,7.478308E-2,-1.3568613E-1,-5.598438E-1,-1.4074059E-1,-4.3260887E-1,-1.6703073E0,3.9716688E-1,-1.7261721E-1,-1.1355747E-1,-6.7002416E-1,-7.1996033E-1,-1.8001276E-1,-4.1852784E-1,-1.5253266E0,4.027969E-1,4.473718E-2,4.7353452E-1,1.4233776E-2,-7.6971926E-2,-6.9888604E-1,-9.6004164E-1,-4.621757E-1,5.2956134E-2,-2.7708483E-1,-8.255618E-3,-2.2942753E-1,1.0018964E-1,-2.1820305E-1,-1.6130723E0,-4.116807E-1],"categories":[],"categories_nodes":[],"categories_segments":[],"categories_sizes":[],"default_left":[true,true,true,true,true,true,true,true,true,true,true,true,true,true,true,false,true,true,true,true,true,false,false,false,true,true,false,false,false,false,true,false,false,false,false,false,false,false,false,false,false,false,false,false,false,false,false],"id":8,"left_children":[1,3,5,7,9,11,13,15,17,19,21,23,25,27,29,-1,31,33,35,37,39,-1,-1,-1,41,43,-1,-1,-1,-1,45,-1,-1,-1,-1,-1,-1,-1,-1,-1,-1,-1,-1,-1,-1,-1,-1],"loss_changes":[1.7057005E1,1.6927086E1,8.505203E0,1.0500914E1,1.0535816E1,1.9278071E0,2.448431E0,3.7564898E0,8.282728E0,7.721878E0,1.812725E-1,8.726029E-1,6.283121E-1,5.9560776E-2,1.0554562E0,0E0,7.506776E-1,8.057397E0,1.4000036E1,2.331438E0,3.1573956E0,0E0,0E0,0E0,2.8756642E-1,1.11332454E-1,0E0,0E0,0E0,0E0,2.1538925E-1,0E0,0E0,0E0,0E0,0E0,0E0,0E0,0E0,0E0,0E0,0E0,0E0,0E0,0E0,0E0,0E0],"parents":[2147483647,0,0,1,1,2,2,3,3,4,4,5,5,6,6,7,7,8,8,9,9,10,10,11,11,12,12,13,13,14,14,16,16,17,17,18,18,19,19,20,20,24,24,25,25,30,30],"right_children":[2,4,6,8,10,12,14,16,18,20,22,24,26,28,30,-1,32,34,36,38,40,-1,-1,-1,42,44,-1,-1,-1,-1,46,-1,-1,-1,-1,-1,-1,-1,-1,-1,-1,-1,-1,-1,-1,-1,-1],"split_conditions":[3.7524593E-1,-7.488597E-2,-2.3895404E-1,-2.3931804E-1,-2.256602E-1,2.7170396E0,-2.296299E-1,-2.746717E-2,-2.2352082E-1,-5.859946E-1,-7.293029E-2,-1.5222844E0,-2.4272984E-1,3.6498308E0,7.2064155E-1,1.8766533E-1,-2.4053822E-1,-1.9554578E-1,-1.8277681E-1,-9.9653304E-1,-2.5193495E-1,-7.354351E-2,-2.8395224E-1,6.751837E-2,-2.4224997E-1,-2.4309373E-1,-1.1390411E-1,-1.2239326E-1,-3.060217E-2,-7.114974E-2,2.5106897E0,6.847547E-2,7.6053203E-3,8.050087E-2,2.419742E-3,-1.3085227E-2,-1.18810624E-1,-1.6320708E-1,-7.856987E-2,9.002543E-3,-4.7104422E-2,-1.403455E-3,-3.900268E-2,1.703224E-2,-3.709452E-2,-2.7422228E-1,-6.998572E-2],"split_indices":[1,0,0,0,1,1,0,1,1,10,0,6,0,9,1,0,0,0,0,5,1,0,0,0,0,0,0,0,0,0,11,0,0,0,0,0,0,0,0,0,0,0,0,0,0,0,0],"split_type":[0,0,0,0,0,0,0,0,0,0,0,0,0,0,0,0,0,0,0,0,0,0,0,0,0,0,0,0,0,0,0,0,0,0,0,0,0,0,0,0,0,0,0,0,0,0,0],"sum_hessian":[1.07E3,9.9E2,8E1,7.96E2,1.94E2,4.6E1,3.4E1,3.9E1,7.57E2,1.88E2,6E0,3.2E1,1.4E1,2.4E1,1E1,7E0,3.2E1,3.33E2,4.24E2,7E1,1.18E2,1E0,5E0,2E0,3E1,3E0,1.1E1,2.3E1,1E0,2E0,8E0,2.4E1,8E0,4.3E1,2.9E2,3.85E2,3.9E1,1.2E1,5.8E1,4.9E1,6.9E1,8E0,2.2E1,1E0,2E0,7E0,1E0],"tree_param":{"num_deleted":"0","num_feature":"14","num_nodes":"47","size_leaf_vector":"0"}},{"base_weights":[-9.8707765E-2,-6.5670684E-2,-4.4542384E-1,2.6036339E-2,-2.1473368E-1,-2.4879207E-1,-8.93005E-1,2.1588033E-1,-4.414486E-2,-1.6399735E-1,-9.456911E-1,-1.5950485E-1,-6.0053957E-1,-7.517376E-1,-1.5526752E0,6.030734E-1,1.4844407E-1,2.0802525E-1,-1.5265499E-1,-4.4560435E-1,-8.817456E-2,-1.3900819E0,-6.809372E-1,1.1645971E-1,-2.5900394E-1,-3.0339208E-1,-6.988949E-1,-3.315588E-1,-7.9396385E-1,1.0240029E0,4.6768737E-1,3.963662E-1,8.894545E-2,5.2495897E-1,6.757518E-2,-8.460468E-2,-7.045765E-1,-5.7464594E-1,-1.85272E-1,-2.5855623E-2,-3.179995E-1,-7.884332E-2,2.9720527E-1,-1.5126811E-1,-3.2452497E-1],"categories":[],"categories_nodes":[],"categories_segments":[],"categories_sizes":[],"default_left":[true,true,true,true,true,true,true,true,true,true,true,true,true,true,false,true,true,true,true,true,true,false,false,true,true,false,false,false,false,false,false,false,false,false,false,false,false,false,false,false,false,false,false,false,false],"id":9,"left_children":[1,3,5,7,9,11,13,15,17,19,21,23,25,27,-1,29,31,33,35,37,39,-1,-1,41,43,-1,-1,-1,-1,-1,-1,-1,-1,-1,-1,-1,-1,-1,-1,-1,-1,-1,-1,-1,-1],"loss_changes":[1.2238503E1,1.3388642E1,7.962635E0,8.096882E0,1.3678022E1,1.9770441E0,1.4421139E0,4.1926575E0,1.2180933E1,7.4339895E0,1.877142E0,1.5129076E0,1.6789913E-1,1.8031883E-1,0E0,8.887987E-1,2.0446393E0,5.929316E0,1.1621059E1,2.379467E0,3.959095E0,0E0,0E0,5.5293506E-1,2.3326826E-1,0E0,0E0,0E0,0E0,0E0,0E0,0E0,0E0,0E0,0E0,0E0,0E0,0E0,0E0,0E0,0E0,0E0,0E0,0E0,0E0],"parents":[2147483647,0,0,1,1,2,2,3,3,4,4,5,5,6,6,7,7,8,8,9,9,10,10,11,11,12,12,13,13,15,15,16,16,17,17,18,18,19,19,20,20,23,23,24,24],"right_children":[2,4,6,8,10,12,14,16,18,20,22,24,26,28,-1,30,32,34,36,38,40,-1,-1,42,44,-1,-1,-1,-1,-1,-1,-1,-1,-1,-1,-1,-1,-1,-1,-1,-1,-1,-1,-1,-1],"split_conditions":[2.9962772E-1,-1.565181E-1,-2.3613963E-1,-2.2433761E-1,-2.2781216E-1,3.3170617E0,8.384598E0,-2.0263006E-1,-2.2624792E-1,-6.498055E-1,-8.4190667E-1,-2.4214381E-1,-2.4242735E-1,-1.1007868E0,-2.639548E-1,-4.9909228E-1,-2.3903814E-1,-1.288526E-1,-1.5240777E-1,-2.137815E-1,-2.3998094E-1,-2.3631392E-1,-1.1575932E-1,-9.611768E-2,-2.407555E-1,-5.1576655E-2,-1.1881214E-1,-5.6364994E-2,-1.3497385E-1,1.7408049E-1,7.950685E-2,6.738225E-2,1.5120726E-2,8.9243025E-2,1.148778E-2,-1.4382795E-2,-1.1977801E-1,-9.768981E-2,-3.1496238E-2,-4.395456E-3,-5.405992E-2,-1.3403364E-2,5.0524898E-2,-2.5715578E-2,-5.5169247E-2],"split_indices":[1,0,0,1,1,1,1,0,0,10,3,0,0,11,0,2,1,1,1,5,1,0,0,13,0,0,0,0,0,0,0,0,0,0,0,0,0,0,0,0,0,0,0,0,0],"split_type":[0,0,0,0,0,0,0,0,0,0,0,0,0,0,0,0,0,0,0,0,0,0,0,0,0,0,0,0,0,0,0,0,0,0,0,0,0,0,0,0,0,0,0,0,0],"sum_hessian":[1.07E3,9.78E2,9.2E1,6.06E2,3.72E2,6.5E1,2.7E1,1.63E2,4.43E2,3.49E2,2.3E1,5.3E1,1.2E1,2.4E1,3E0,2.3E1,1.4E2,1.33E2,3.1E2,7.3E1,2.76E2,7E0,1.6E1,1.4E1,3.9E1,4E0,8E0,3E0,2.1E1,4E0,1.9E1,2.6E1,1.14E2,4E1,9.3E1,2.77E2,3.3E1,4.8E1,2.5E1,2.18E2,5.8E1,7E0,7E0,1.6E1,2.3E1],"tree_param":{"num_deleted":"0","num_feature":"14","num_nodes":"45","size_leaf_vector":"0"}}]},"name":"gbtree"},"learner_model_param":{"base_score":"5E-1","num_class":"0","num_feature":"14"},"objective":{"name":"reg:squarederror","reg_loss_param":{"scale_pos_weight":"1"}}},"version":[1,5,0]}